@CO	shape:(4851,)
@CO	dtype:float64
VALUE_0
-0.050997012228681235
-0.07828032965407485
0.060622026441564336
0.049690707688176336
0.08652930282292995
0.025260565010044183
-0.10491286282463433
-0.07070796919304688
0.03723603239748995
0.04580212573803489
-0.03063013127270229
-0.04277191804132762
-0.0855442978195756
-0.052771848609739
-0.08125295121069508
-0.057026362634613526
-0.13210538212650547
-0.0240144295607133
-0.028220869078662357
-0.16825131927694512
-0.2935714770256373
-0.03077219032321518
0.16484735571576103
0.07175374102311784
-0.0067962999255010694
-0.035681005603092605
-0.08559507077830952
-0.11437224681317773
-0.04352369879428511
-0.29199830290205486
-0.055293062263604816
-0.1601844039500364
0.3446674265569403
0.41084247001428986
0.3326734223052057
0.10883941445991342
-0.11380265508659682
-0.03305241980815996
0.0007254472563413931
0.007570650768490853
-0.05083161288912997
-0.046628732627833076
-0.0851380398048944
0.07602794017067806
0.1250735200751755
0.06482448680463132
0.4115190143936895
0.20743972028509058
-0.030680466027624594
-0.10141311133145287
-0.03985306952251544
0.15374943420776002
0.10310014817205365
0.065243711018281
0.08584967539704158
0.04465007546773969
0.08506440648054346
0.006662563327539507
-0.07561126124436936
-0.03746539341708393
0.10249887263506996
0.23174089541468731
0.1866544644339563
0.26806732800450733
0.22241792611989233
0.07559798044393781
0.2080362325490411
0.40912208434908515
0.32574726624082967
0.21130057586684975
0.2222348414547723
0.2904270690046802
0.14092692374699436
0.0629896691408601
-0.10390381705816458
0.007725933755206435
-0.03780784357375267
-0.0767123809978672
-0.12085687150758857
-0.07356751821928996
0.007723870429039854
-0.03191693246793597
-0.20331161413738122
-0.06928709669745002
0.27480794655048685
0.028919361251448956
-0.003344637887347083
-0.009061584463717121
0.006777970863680024
-0.1124756963093039
-0.10653604597115598
-0.00207068133370178
0.15140080011723553
0.1854317542091689
0.05268551071664987
-0.024411449317133644
-0.10795681429883067
-0.10320064039574149
-0.07003398032436509
-0.05563272456758367
0.045808645914008905
0.0598923855362703
-0.09687253413337438
-0.4324621369384412
-0.06975193838937215
-0.07967969509536092
-0.031812950207835165
0.13653350431615113
0.0830290197133772
0.0624471554545917
0.0908033459849766
0.09515282455595875
0.04645149722562595
-0.029478512345345795
0.02905174336465191
0.220171157059997
0.3338867055053535
0.3134936102581754
0.21286423023155573
0.12185397687942526
0.07433383705014082
0.12098072814009768
0.13696806088082075
0.19371289712623482
0.18897164698593505
0.2944318010962113
0.09322979611733802
0.07040327900207227
0.045999188737202774
0.019276994771978962
-0.15695113451835377
-0.11179529469111711
-0.11045695016114732
-0.10538654858570204
-0.07143876336895122
-0.06738353394388144
-0.11235429347540937
-0.017327965980354104
0.013016835685986881
0.07539460404582995
0.021527375322213563
0.1345441357755384
0.1946013844580479
0.3900613138203962
0.2031293989326934
0.16158335879318456
0.12356506208284068
0.05478298866112644
0.1496250470254562
0.1042005069335493
0.032773259724129526
0.14043102465783172
0.00037240541655768225
0.008829470835421929
0.02730972790864923
-0.007811087664730047
-0.08417925334590472
-0.09265523203959221
-0.015609673935039082
0.3887729578001238
0.26742924205448854
0.12308768446252155
0.019666723592084864
-0.05051939233072837
-0.06664344491075033
-0.08349132893168422
-0.0677137735934648
-0.12617513368906638
0.08096046246478414
0.33835161892813254
0.12614800642219776
0.11495635858738441
0.09343686124631677
0.03694497146753006
0.010586509953661042
0.19264774828071946
0.1474467234789275
-0.0013674367645088578
-0.013874758849426967
-0.07993810440149288
-0.22449992823786039
0.07674504851717347
0.04962707334374096
-0.03275087348182028
0.02338493618783351
0.034757761352200295
0.2725197775988166
0.07785448227456873
0.11963717855053782
-0.08862283487551549
0.13102705041910667
0.008559770271441627
-0.06853866634985004
-0.10693963344317449
-0.12065772203337873
-0.10166717624770513
0.07323160017487518
0.12954049070148188
0.07707322261032705
-0.16714326845508073
0.04014072094562195
0.07080392338680516
0.07736917409395312
0.06109633102862972
0.04999117646789479
0.08077836385658428
0.04469984283436201
-0.04211899394901164
-0.07428360264979307
0.045785070617406706
0.01970816516969202
-0.143180793753763
-0.02536469638412722
-0.06595989044992177
-0.03648019391327919
0.18826288189947082
0.11796678485509036
0.11365138977103165
0.05587558977577139
0.033755513512191845
0.04137463798516644
0.009670015590189755
0.09919390628380256
0.029608824643924173
-0.17364641747830908
-0.21576864723158473
-0.14519191799856876
-0.021627929742154217
0.13609420775773756
0.14634282059419035
0.10474509388756875
0.1598408384524248
0.16445784070445357
0.17383266761547372
0.13828245961285507
0.154404644433781
0.15791418305130162
0.19192220708291702
0.25052961804059154
0.13860816086120323
0.16322312286126528
0.1543735847849292
0.13673829920437808
0.0672157044090368
-0.08210484506327291
0.04010104973828694
0.15041448380909092
0.10151403198936702
0.16938655932997113
0.08859363314187257
-0.027254295816126567
-0.11221688659634382
-0.1054171824159342
-0.07661848170788148
-0.11534259133607089
-0.16026856281608132
-0.16634832698813912
-0.17722582894370123
-0.16224592911166788
-0.24585865467251844
-0.09047662989708774
-0.12810346950020252
-0.11660614235645303
-0.060411350985565375
-0.22653698013380125
-0.07969293281282946
0.02865986280871952
0.002417825852270936
-0.1565611437958513
-0.04541258328575608
0.04658654367869067
0.055858466019624506
-0.06937147663976014
-0.08828557245752358
0.2220260997602686
-0.03020702225530777
0.0666450144427191
0.16506766769472883
0.13126630874091524
0.14226028596656196
0.08422956223596206
0.07206360051335074
0.15841195702463357
0.02526224658732324
-0.02374216241841657
0.18276034594087887
0.28329266735971176
0.3456524953698504
0.31558767908447327
0.2702473811647197
0.3005271430186293
0.29085578337027057
0.37250989205909996
0.18370354831293917
0.3639627034944655
0.3761814450827241
0.37087001357056026
0.37463708968350407
0.304768052841908
0.226000116578229
0.11695338799821751
-0.03231617882613883
-0.30602801057060897
-0.02639745245952973
-0.26954439707410294
0.11727484000445991
0.030003521730039208
-0.024012263684910898
-0.1271648731989571
-0.008819701397209837
0.16424141098598746
-0.19281075995975966
-0.03962311346200948
-0.11624630507374227
-0.23424139078291095
-0.22192420784161276
-0.2867572337989732
-0.26245167327589536
-0.29980075086035923
-0.01083688525497118
-0.2486045792267975
-0.21390904204146535
0.0567948511156764
-0.1729153183487887
-0.1734914957315821
-0.07293810373393415
0.1277468791880443
0.02205749110045035
0.0552937377815374
0.04886777616686772
0.1836557348748945
-0.0642112938585312
-0.14519785083716608
-0.09400953784582013
0.07793569872011794
-0.03002607145090377
0.016564220375985737
0.0538314667820786
0.07249991940087068
0.07366003875270755
0.1385260486735051
0.13547927250457178
0.10282391139852812
0.1253440231212948
0.000717554985354345
0.049393937893903166
-0.02970671618116656
-0.13214738063899847
0.02246322218161604
-0.03249408824380283
0.02221274459611217
0.09275945307625007
-0.11385786916439947
-0.0898532405175158
-0.26786571369434375
-0.31312703232031464
-0.2149866337597972
-0.101359886527457
-0.032128617927481146
-0.0681144633769623
0.02910517728566432
0.0041449482484226495
-0.03458447666671337
0.0005284158895342752
0.08844658277617687
0.10282980586351195
0.04097510883594322
0.013814305389123392
-0.005029951851968098
0.0031473332378687616
0.03417469129933443
0.07844855597620831
-0.015300487110182347
0.010313536179998193
0.08155852850682463
0.10471263165802823
0.02792439576522104
-0.014406596355754166
-0.011324317196715892
-0.03597336660375818
-0.15500792015046555
-0.2865186326872788
-0.33196279149285896
-0.1495706261869055
-0.16339884992017195
-0.1540250738716738
-0.1445796902286486
-0.14217492241569754
-0.2122476732688913
-0.09892681891209584
-0.04697337440752702
-0.020290071477952094
0.014832244185412978
-0.03648524974306679
-0.12020988320240276
0.14028917934979795
-0.008915449331696995
-0.07446230800685733
-0.18258062986503656
-0.11621066267090562
0.027014807615149954
0.2638719076134837
-0.09684643945527997
-0.19204246722072668
-0.006823970485602838
-0.034653238451213104
-0.005188941398630069
-0.023908403539918785
-0.14819436228787464
-0.10791470350702019
-0.19369236641734808
-0.2564293437736534
-0.258035672232653
-0.2994859634492531
-0.3393579491798585
-0.1570223761206973
-0.08351077026579075
-0.24805270453902925
-0.21161882354079387
-0.2223234158240801
-0.2981853100654937
-0.1829833432311575
-0.028250536885426794
0.10439054707583456
0.07957349615847042
0.035110874787288804
-0.0006501973437598972
-0.14408946789617078
-0.16711843023138456
-0.08021047314262832
-0.08639736042050715
-0.09502186340247021
-0.08905146640030459
0.11182044588480337
-0.10823370889516007
-0.13062070999250314
0.0014387782140509637
-0.07246897427949055
-0.09667077779476824
-0.10899415681937422
-0.06471687015496212
-0.16070451405191713
-0.08428667191305762
0.09615676704131589
-0.06984455312135698
-0.01919687224629409
-0.04471632860988922
-0.189472612072173
0.11724898132889824
0.11080172428187889
0.09432705967634149
0.0663536241834396
0.1190637829755257
0.13839064852658137
0.1505914069330027
0.040687372492623934
0.025567444999760092
0.01323813537527112
-0.00679443765189174
-0.02374313325163161
0.02410913456829754
-0.037941870397879086
-0.06779164138267134
-0.159497491249861
-0.348250575707604
-0.24233190714967456
-0.22676179104472577
-0.20108626866618645
-0.2059673977055318
-0.14365012772753274
-0.11873150981862673
-0.17546248979457588
-0.4320226643086358
-0.265883486280142
-0.21297345418445926
-0.3335049612098262
-0.24903774029207995
-0.15244971195518836
-0.17963186778625867
-0.11018258047100929
-0.08393611862412587
-0.17957569516475042
-0.03159040240911609
-0.04563756814052467
0.012394641077823912
0.07291194907415582
0.17958247765516527
0.02459157270550324
-0.03058705943352774
-0.042420415346414365
0.031285457950225706
-0.035536440952512904
-0.027388115140279987
-0.017992220384225516
-0.030409777799935568
0.017613064152214915
0.031098047928176692
-0.04406225785753113
-0.04517096984607885
-0.12184910543845116
-0.10696165242250151
-0.1528928340209777
-0.15706213029004829
-0.11063789865373534
-0.18620042115567054
-0.17921514140497777
-0.10129976572079291
-0.0660277878973091
0.022705160347416
-0.03922095191914692
0.01711112568865464
-0.1281507423754142
-0.1002487819039994
-0.04991752315123943
-0.13820403079811372
-0.1387781113580486
-0.07695596003181095
-0.12471941540260449
-0.015188954156424538
-0.12540777926168767
0.031041616250303154
-0.15063192679347456
-0.13983168578368646
-0.17148064095526191
-0.1264609444576936
-0.10074984729038318
-0.09155531343978969
-0.13972463653830916
-0.11258149690403119
-0.23823478452266264
-0.07066783402698398
-0.1484771922965873
-0.0980484662540793
-0.1016634953333781
-0.15245946374708388
-0.07096334023051303
-0.016551286881507955
0.055657684028765794
0.12774991187626555
-0.0029312244076395
-0.10609477754621637
-0.0014220008993630052
-0.12435815274801751
-0.1305247495602816
-0.15702713346530803
-0.1404550952640096
-0.11803526444194434
0.15335314617360013
0.3229020448901171
-0.06747469091233042
0.05167088726435372
0.011129696943717344
-0.0010336278950126183
-0.06602754232382768
-0.017670312779359577
-0.05034351908236769
0.1815251586109754
0.07494218331171275
0.0016141693264217884
0.032285120783811246
-0.04852956200467247
-0.03921168027969112
0.03277168450910987
-0.014734690499475699
-0.010335100470150843
-0.057911314252567264
-0.044881860764184676
0.1737016290559022
0.07164453588241232
0.024631480018052515
0.11636271570344743
0.11973461348093298
0.1144919400834225
0.27375066330815917
-0.039917565923824214
-0.17898719109280228
-0.029817968980036174
-0.03522637090923776
0.008465871222717102
0.09577021648959373
0.09478393281905582
0.17415717316416252
0.2182238326676566
0.22218926473276643
0.22503112455519167
0.11101552665103347
0.5129989817922059
0.21361119036047446
0.2699474238458575
0.20706385885670273
0.16189883909428043
0.06533342575955513
0.1628968414974545
0.04420747650709702
0.028838524896740565
0.01799421292385981
0.0352676578336109
0.019085540550483823
-0.08835036909344196
0.13746077566925785
0.08084222876063493
-0.0013168844876550714
-0.17993427469297635
0.09628741394376777
0.07531083397937313
0.14389974396782312
0.16979775789212093
0.16341950543401293
0.06232865111815345
0.001564726393020549
-0.06606564103282735
-0.12604379147254008
-0.13485355743909508
-0.19711450844258324
-0.13322756795450275
-0.11874960572727579
-0.008185774652312567
0.01596618850795907
0.13225962002954658
0.23829387369516675
0.028549219354515157
0.20235476029081087
0.038595175881238585
0.08835339099016845
0.1791934231197988
0.11901166758332028
-0.21436349198575516
-0.04585203120221998
0.01397559479641802
-0.12594286268870925
-0.1663797837788962
-0.18343360552483892
-0.10869695239971752
0.024381410321634506
-0.13231084838244395
-0.21487485852252086
-0.0035143538609454282
0.10523605853618465
0.14951738222175584
0.2423922693866189
0.20843549209931003
0.13016683996554868
0.06412905390323048
0.020727955816943314
0.28429657964475963
0.08938735979248907
0.11249755667338791
0.15656607414592066
0.1539986036965954
0.17823858294649605
0.24887462337726826
0.13352493828313916
0.016495244899658486
-0.005586090528193121
-0.11043232108652774
-0.12693996868060942
-0.2132804789580989
-0.03133916836044234
-0.05157932677130122
0.05412860434448208
0.1720064809190363
0.09322101221202035
0.17550924632263445
0.05271556014955909
-0.10129979227075134
0.25468375795724607
0.18670970023362565
0.11362612866643629
0.09987322774891087
0.046706288123248535
-0.019994004666162322
0.02518056924258885
0.12911309783762928
-0.173269308338168
-0.13819370509935444
0.012193695344708698
0.023707525286464307
0.05397781389588639
0.1241850489712385
0.04586030687906434
-0.04248226576351297
-0.034415492006364595
0.01648592896196448
-0.18373861133812316
-0.02755020261579635
0.016834563884863853
0.2890939532943341
-0.32011085933028005
-0.11346330724356568
-0.09309151920057256
-0.0247579162741558
0.1970767276848784
0.11234847283335864
-0.07460325147222575
-0.12154979557423287
-0.03514127301653067
-0.143999975472997
-0.11103587589788105
-0.1439369917002453
-0.12784961910277062
-0.2818701287783684
-0.014773097839683044
-0.02578258876343809
-0.038837242108423854
-0.11668005176995676
-0.21577647141471795
-0.06914929334578207
-0.1334645356779691
0.0495055537942052
0.050547474223093795
0.13625007844177642
0.20893653939046597
0.14249656827638688
0.13607040037743875
0.1889941506004561
0.061685423137766655
0.03530069894333673
0.14069114858092407
0.15546223342249296
-0.026396779679424533
-0.01836335921128365
-0.05476528565134216
-0.01637436206222782
0.14888718460206038
0.1303266430476507
-0.04434056912397068
-0.19422184477497673
0.1630331954768311
0.2544817735082533
0.07871655610155301
0.03530501248165244
0.16722013364759128
0.1953329339465072
0.060929007681410914
0.28945212543348114
0.30288933336583806
0.1818235261022332
0.27279905836989216
0.20961224236298473
0.146420627582857
0.08846525315710543
0.0345966396693635
0.13544263930054232
0.41883701567929477
0.02660775499128558
0.00646956139247058
-0.10540243372298834
-0.027470384850068696
-0.014703966935297647
-0.001881176752248783
-0.029539108809056143
0.002830523171250649
-0.10187968563400102
0.019085055943170275
-0.07614400273719538
0.1937460215743023
0.2237838729791269
0.21793881627247688
0.1635728131449844
0.09535455235149116
0.1555270840916911
0.16449169527890597
0.15356906733412617
0.10693699250764396
0.19305754009979761
0.022108717248535293
-0.13172226163275474
-0.18298975570885367
-0.05227624135717657
-0.027162024519318234
-0.010083003800832999
0.06171747263503032
-0.026359138567407903
-0.16798666533706932
-0.07896170853180044
-0.05641452226158187
-0.11176932669314715
-0.04879729304272462
0.0009907871449368894
-0.1124784548453852
-0.1359514566658083
-0.1500074578030346
-0.05235433036411905
-0.019482025865254257
-0.1264827696666505
-0.1935858977509608
0.14513440623721308
0.03567075469774064
-0.022039981223707625
-0.029903331662872356
0.08306213095965706
0.13548498973598158
0.19180251920059893
0.31496442150674586
-0.08233063151835554
0.027909522398893678
0.042446844980801604
0.03586969271837099
0.015875077342274186
-0.0964796496333131
-0.061134478997090756
-0.15106326753247545
-0.13997248786519526
-0.0530448369030985
-0.09455510712883619
-0.0773588493976134
-0.05991244315476497
-0.013257910203348508
-0.06067247095348504
-0.01245806468888793
-0.06044226270798836
-0.03404337337983837
0.00405260711420126
-0.08986757614051258
-0.033284710687609985
-0.07375810531041463
0.011630305596436956
-0.05414499548971813
-0.005054458047593368
-0.015858363582261763
-0.019289481282602355
-0.06484398760004477
-0.06796913183801953
-0.038741462236155405
-0.0075963463928654835
0.01725865280827698
0.039638115865089564
0.04707662118948447
0.08808530021018901
0.09249020933495282
-0.2733847565255404
-0.04927689128044246
-0.14744664044278014
-0.02022942944600695
0.14262856615198816
0.1575950506946286
0.04542343354442559
0.14170340815464535
0.09579681554449707
-0.10449124794095704
0.19028716817752458
0.23445166024943953
0.22784590513032968
0.08496089044410685
0.25267543200306436
-0.10912215807498397
-0.15933716050856211
-0.18866183479224868
-0.06284924091646811
-0.1051018068897806
-0.020984107309349048
-0.062169909587560364
0.01954096847282553
0.021653788373369894
0.15729477093215793
-0.013428165891263461
-0.030184045536653995
-0.03938448697264446
-0.08405900117324831
-0.010826657436584798
-0.030609770922181444
-0.08593480590335376
0.044117311459970915
-0.20604849120550545
-0.28721712819452344
-0.2729341257540183
0.058385500766799193
0.1262351640655127
-0.031414401452001514
-0.07182557572684374
-0.07497156198932083
-0.19448655979965515
-0.2000433073750393
-0.23673427655180812
-0.379992862723005
-0.21471349131969183
-0.0638963473328163
0.008007075047799794
0.11090597340642228
0.24200429087933217
0.16921187929602668
0.037149546658730916
-0.03639234908334633
-0.1383940302015421
-0.2247038873120128
-0.11323039337727904
-0.20047653878558377
-0.19438502084123363
-0.23332407537485125
-0.32343115091942237
-0.36641677829392344
-0.2100936745035205
-0.2671535087188988
-0.18764635813626404
-0.1117472631498984
-0.07503181594453284
0.027520883354339533
-0.0632686668862729
0.05050774562080393
-0.004236272149562159
0.006386437164296429
0.13048769935151686
-0.031212450266456665
0.02555457707080687
-0.015560885779522148
-0.04411802893912135
-0.01981979788903126
0.1301640566814579
0.04756747663847516
0.0773136629924697
0.13563407442895978
0.14381505291681415
0.05423528563171973
-0.03586855706047045
-0.06587109989456646
-0.14591190300267698
-0.17414093526246296
0.08397962994368234
-0.008207014152228732
-0.014363944246301474
-0.007100218804763893
-0.042564102747333764
0.017565305691887703
-0.0458545785707025
-0.16848649945256602
-0.2356267864648834
-0.06585024004085305
0.018194335090795422
-0.12581530532775503
-0.0432765288718723
-0.08563480706857589
-0.04506619359892299
-0.07553621741578055
-0.25430067717991295
-0.1453141887087539
0.044792661357749855
-0.054653410242231915
0.02472104337715762
0.07416744241317914
0.030101717317479782
-0.02099123655007862
0.050817254368316786
0.03571887157044907
0.03415524890665332
0.012565914738805854
-0.014065987387740557
-0.03245169067739444
0.052350152840624956
0.303877057618595
-0.06398436858405651
-0.027241228946011144
-0.02202828918370416
0.0829889609504434
0.0482490990164683
-0.027096899073017655
-0.020201344058920025
-0.026681486119552306
-0.10333437595663723
-0.15979140701497924
-0.1793132516911983
-0.16551182665491676
-0.13280674108984086
-0.08742801238467957
0.06938323523585953
-0.11047149614389333
-0.06127879227223281
-0.11588385790861573
-0.14864830275030275
-0.13609113639623044
-0.04617416323732662
0.19988567515974992
0.12580681760542964
0.18714087338947655
0.28922165039342695
0.23073167383883647
0.2028749428409464
0.32118644857966494
0.3204149515859474
0.23735306244964455
0.13850851094552322
-0.02515736377321268
-0.18824449160135623
-0.16366544253706944
0.17164580275192606
-0.06361715713189305
0.15401010785733246
0.09272959083322663
0.053672128875826716
0.053097290425618573
0.16423472230339675
0.13640738278509523
0.15750408934323826
0.06765080024979683
0.023075446758979698
0.03359275688370777
-0.006882515704344459
-0.1349133344621179
0.022732538035631022
0.18472716962451077
0.28783211350007454
0.030961646157491522
-0.03976030267866684
0.04628698045693249
0.09661667263855274
0.1474520741022612
0.09381349930769219
0.17181621612890177
0.25764808834202063
-0.006627360972688759
-0.008792810194707783
-0.08052705291831816
-0.08964645287422893
-0.029882789488604292
-0.03092672906752003
-0.15792579540394697
-0.14193045177913444
-0.09263938077984317
0.026553568526058627
0.0004718703018294938
-0.07241659078680092
0.046470690225847905
0.1234820146968032
0.05154216813534946
-0.009187429356966056
0.013250645820760486
0.040777024461587555
-0.28781551676832073
0.061983733543583684
-0.039366988610443694
-0.03577389269510173
-0.016691330015442835
0.1490769120153598
-0.11384460440233629
0.018021044266337626
0.05792962936606038
0.10299494296949463
0.08172431530424472
0.04905530095164041
0.08469213323599091
0.18724786681106445
0.22477914784298078
0.24108787672229243
-0.024032752739001077
-0.05547664765771926
0.05356347962419095
-0.15275578741275292
0.15657403901347228
0.18816165576883062
0.10759985543328617
0.062190878319784794
0.049862781645967406
0.01599192544625038
-0.05592769444230753
-0.06389142942980086
-0.0217910483396366
0.23613183129371376
0.1982593123950075
0.18377155958500363
0.22984157716342452
0.12035215078405465
0.1263385810998541
0.0748051113309156
0.19893307932932006
0.08386917285268267
-0.016985466772467928
0.1938314499822689
0.12715626717128037
0.09141209890613915
0.0003244487250802992
0.021939636141014882
0.001555992378398856
0.08499100817302523
0.12512476766676695
0.20891166002908923
0.03326455667781691
-0.1446183881062563
-0.006858908444329502
-0.0829704126642558
0.059616424836080366
0.06457807016139173
0.057103520350102174
0.10452351937783481
0.12956821078761352
0.08191012274798407
0.08222479217206782
0.019486322310234297
-0.0794378183949119
-0.16014821341360458
0.016281329332058926
0.21569465922000816
0.21400494994079639
-0.0750581663543799
-0.06804030756114003
-0.009271599488442547
0.03201792158852184
0.0568920150867923
0.056798975740748825
0.0988352738118219
0.1233757969268444
-0.06479779180552221
-0.046327546745668136
-0.04558338233520305
-0.12534812958511432
0.07908071958005888
0.033362667866201366
-0.020582044900014387
-0.2235507407688699
-0.04837376297875884
-0.09394914629068994
-0.09019044872017323
-0.04458317887837419
-0.01978603676855161
0.2271871064998651
0.031263005966194364
0.0005661056396504124
-0.062471268485423455
-0.00967733407874755
-0.10565881575678543
0.03259047094162233
0.13833919550848148
0.08350670820273307
0.1024985356633422
-0.09232953436587502
-0.17825581090279358
0.0036848390226392313
-0.10418611862020134
-0.14736643289867102
-0.20325817353913023
0.13511984780107064
0.20095239646147112
-0.033512068772999656
-0.10342952055717192
0.0035824980256288063
-0.03090225996483496
-0.09312784381555891
-0.04408487076227483
-0.024474809160474092
-0.2053010891096359
0.1758392316313774
0.06994718177620887
0.21631225736386825
0.10216771925234583
0.1505948090255757
0.015155646753449424
0.161545539734202
0.13489393069724928
0.160843159590552
0.13270935078081902
0.10885209587435755
0.10652269235599165
0.08432914857579481
0.0001904530998041807
-0.11784679635974758
-0.1680227182730464
-0.22680700970239956
-0.231239589382505
-0.187756382598246
-0.2602389585737673
0.06127382972836083
-0.01640190513082804
-0.11768015203504766
-0.15134656219559015
-0.22968142604328443
-0.20814909691522088
-0.1832141424693674
-0.15033229525297245
-0.05030719464885018
0.008665714472553578
0.07218129099141044
-0.16438569871123448
-0.21627526727602422
-0.16115895092016436
-0.2526896508076432
-0.23403314653093477
-0.2004446245981509
-0.24951748250372188
-0.22011791295843788
-0.23753531872877923
-0.26947645819269905
-0.22360758266003317
-0.06735603722380881
-0.22365464322743597
-0.3386726888001113
-0.4223749093146652
-0.10218653211569301
-0.21036321400312638
-0.12404578980743913
-0.1958292906836002
-0.250617541057258
-0.18584719187701712
-0.15019086251108305
-0.29210186508220326
-0.32477244015541473
-0.12933458991649352
-0.35302353740461945
-0.1494622012182561
-0.13798890042434114
-0.2680382874367358
-0.3259141681623251
-0.355896329822026
-0.39966671670672665
-0.204964151685269
-0.3073773862227261
-0.2768982283202504
-0.2638192611481079
-0.21420243812676873
-0.11466835975283306
-0.22060275638273302
-0.0711796531556874
-0.027944950883138576
-0.01853608849708993
-0.021339230097923004
-0.051912828174511975
-0.04548360701726466
-0.07496306139999494
-0.06911519138708601
-0.10405319820209503
-0.06466586560704637
-0.0495340359506659
-0.02721413341321159
0.02471915249908041
0.01811228205325571
-0.02880102024862665
0.027955757500575447
-0.01036514327762763
-0.010647323155532143
0.006525977553117609
0.03951303997174948
0.015801924611943886
-0.03838070331450475
0.03496394211739806
0.14999662077541404
0.11094271963206825
0.08311847088395537
0.30413386755653093
0.025432092365714722
0.038617704632387256
0.0064781706588022065
-0.05243540875512539
0.04782957865388734
0.1989789582735945
0.16073695327681697
0.1121636886609906
0.1838052326396684
0.21611871740930044
0.04462507924582376
0.10968920251497967
0.08226472146375254
0.17724229447398943
0.09087180349440857
0.08263403315708527
0.15339132409248316
0.10341658093014279
0.2099119060319215
0.21759127215876997
0.19153548274309595
0.16477719792212417
0.14187032571466832
0.08104060140355948
0.04254928171456441
-0.030202139848931858
0.0505674991983811
-0.0199847171903565
0.10874433417907678
0.1809809786887893
0.04265773034410117
-0.19416926204623605
-0.035805058662687836
-0.026509258132884548
-0.07445367054589296
0.0029271838836815557
-0.0810151386893584
-0.1036011789032912
-0.20292947985362064
0.005793127299414097
0.22283260475009456
-0.010127430861410174
0.0035103903209178495
0.08809891541280357
0.1588448287213257
0.0873048049582792
0.10315117393225065
0.09556865333102772
-0.05636650457019174
-0.02394540985663269
0.16715432957829243
-0.04538263390389039
0.05937768806325304
0.19984745777581925
0.20593841668058524
0.24684663406759355
0.23541118622445603
0.3680079994415891
0.35791828224228805
0.32393447326889535
0.21062167732652742
0.057321758044950426
0.1199392444658689
0.12943894024299207
0.054521630382983514
-0.08307776153466849
-0.20250471044875468
-0.2458753960287337
-0.10508024377660681
0.14767996622513285
0.09088559155974739
0.10289281651019963
0.11409649645322735
0.14216363469166673
0.020048921431994805
-0.045048895844695375
-0.11997837453057537
-0.10271143775440408
-0.08600670339580663
0.09763168233437315
0.04751832497633543
-0.10448977302893266
-0.11345043964026487
-0.0742040614603223
0.040513736398302566
-0.07671664944001252
-0.1078056779570303
-0.1717235468398452
-0.2430053430499486
-0.13839420818308695
-0.14934491505725442
-0.10372939029120863
-0.07142280496961789
-0.1446302677134713
-0.12599664616125633
0.003132390072518784
-0.008053216262462195
-0.07343552098060559
-0.10065263799563116
-0.17433555268094755
-0.21080442205141142
-0.17821312771868647
-0.21212527308726942
-0.16375073277029298
0.051679637541117894
0.0007998707230133344
0.1770607424506617
-0.014488798743889426
-0.03410332971304532
-0.03638504542414908
0.06033051770659457
0.14922667346842863
0.14191275983279633
0.08622095162058142
0.07766087681266629
-0.02847285688618885
0.09103861210280347
0.1327279493204829
0.08147142135976124
0.041515065841782
0.03733608000163129
0.06947154873767063
0.1052768608308535
0.16277019249933333
0.11428649833691382
0.01991046804766957
-0.0188314538552735
-0.027900649296801642
-0.06002261109629743
0.02806133667640289
0.08794431214916566
-0.1502410600904844
-0.15680031715852286
-0.021813830271398455
-0.03954109033119317
-0.10670155297836484
-0.24437630496427093
-0.07413544494400887
-0.07234053527259182
-0.15142213482374198
-0.1120476461544067
-0.09334107698771972
-0.04653448812119445
-0.12449135004896333
-0.18175104186311386
-0.11881842305835932
-0.11676798054602243
-0.17133323201609638
-0.2203787153898742
-0.198599647095972
-0.12779888685530436
-0.13194407507659567
-0.0629297154467752
-0.05097151572339777
-5.2635363864810664e-05
0.08078282406572321
0.07053871298008753
0.17378488963172972
-0.01986785389014796
-0.19845476688178929
-0.15163321784716105
-0.16719810368405777
-0.3791011407961442
-0.02743695611056344
-0.07434801790274803
-0.054049295336163775
0.04215021263742119
0.02533872984857254
0.01762340303921939
-0.013243028578675833
-0.05735027821801612
-0.012020203904386705
-0.002826554723205885
-0.013583703472607204
-0.13769626763225296
-0.06621607351070102
-0.0448592467606592
0.142222702938243
0.2713466377660622
0.2685261239203789
-0.06339359358704065
-0.012348685835535937
-0.09373114775085008
-0.03251208646656922
-0.016251437851608493
-0.022246071187589582
-0.010386042332170185
0.03076285254763145
0.08699116321079291
-0.038191911428038836
0.05503683453684224
0.11502914781913919
0.08548631737459558
-0.09072189436237653
0.1471531609756441
0.24946711860055956
0.12675053059733188
0.12094906637545351
0.16428426708658067
0.19243123184846972
0.2729594471279092
-0.010281647953683701
0.143041770549082
0.15601292078990675
0.02891303571760232
0.045927905661110296
0.0958595226770219
0.037331888143732804
-0.1206618986922781
-0.1292607886919055
-0.18517604774048416
-0.0911944605323981
-0.017285017930957436
-0.008747043931330826
-0.23271911150901967
-0.19479836809420725
-0.1176392925498667
-0.048220358725059156
-0.008824601145217657
0.052704979599261084
0.04699527243935147
0.06556384847934188
-0.006965012984634501
0.01766268497045367
-0.04233694872620623
0.08646346279121914
-0.12855300729880928
-0.05619240888856451
-0.20664517437082502
-0.008307198625570791
-0.28420631370481914
-0.13121566904427512
-0.11884406799541349
-0.18860593320547717
-0.18055242861057294
0.1257008309204846
-0.08749803355370901
-0.046782765388573
-0.043097605210302446
0.011971861225651068
0.06380115514441896
0.09130569656452978
-0.24604717042019023
-0.12896200724826884
-0.12181844287236648
-0.1037617069262928
-0.06016908980392553
-0.12955051235440676
-0.039164449917071936
-0.01375239777676522
-0.1763315728092776
-0.2674256996001863
-0.15557728155967543
-0.19392455720935953
-0.05249930273406561
-0.0719854636821557
-0.0973644924868447
-0.01977840646513067
-0.015575120606132975
-0.03968637903283974
-0.19087372039760317
-0.011218176297361321
0.055617397777235414
0.15771047605263228
0.07329539281580005
0.08651950570764574
-0.0051138934155163145
-0.1433055354960164
0.0070111972307236895
0.08697443107783505
-0.00798624850254395
0.14905531780512946
0.1114638531584385
-0.03351236457410252
-0.11396984596773539
-0.19765981630127386
-0.15724346616684648
-0.23597841887644896
-0.3331809783727087
-0.27503891990946083
-0.22928728399850917
-0.1013848561508672
-0.05142628761384943
-0.02153497109961337
-0.0013315700181780218
0.011698509150298738
-0.212565675877486
-0.16809612805136082
6.759222483918069e-05
-0.07597847945591626
-0.043830239739636456
-0.02890334648016907
-0.027616529222804647
0.038323796039306454
-0.22621386367514254
-0.252311989089625
-0.15146171864632021
-0.23689159206274946
-0.02427779614886735
0.040730719778853806
0.006566021329172584
-0.041218585965595474
-0.23424274670949366
-0.1019706356282343
-0.047393822613824965
-0.04716346196404825
-0.03933513054232682
-0.09128832038347445
-0.0264810420218904
-0.07402741639668306
-0.08267374859662592
0.10103727092619001
0.12250217097247103
0.16701695258197852
-0.07740501658655455
0.02441594398173055
-0.022133333641054822
-0.10221189014270676
-0.05280283954177822
0.008506726825669136
-0.10287872647106494
0.10549196439990473
0.0985466825550831
-0.07946842677362251
-0.11700899225363864
-0.02290861600893495
0.21204098874684627
0.10723541235879634
0.06600875272903081
0.16898235045031818
0.13476895371147118
0.07822306436278961
0.12605795207795537
0.12846104738377406
0.10883126072207921
0.18851599994468224
0.17826540323307333
0.22906351138367315
0.21332644580937596
0.2747107914255369
0.1044119042751818
0.2713462997840673
0.21292468466101694
0.17498270376201977
0.18027765427252415
0.10331346048915202
0.028044922167363363
-0.08902367309194374
0.004883986741719688
0.05904646713172453
0.22126967391239913
0.15092152768702966
0.08058817389332118
0.01301480649367322
-0.10758663592366577
-0.00871466633528616
0.03547834582969339
0.013562019428982691
-0.05750811638124024
-0.07646456903188958
-0.16491763916509664
-0.02177683134103912
-0.014487403335280348
0.005451661650161137
0.03380749733803383
0.13526250079424412
0.03272449503631591
0.26962884991301694
0.018231580636580542
-0.014826322152974672
-0.09011820301924443
-0.14175050264163438
-0.07409556811381321
0.03913593808394481
0.02957790470237984
0.04418877343022982
0.13596810710853927
0.09624164291120012
-0.03512090414551618
-0.027570078700408823
0.034528732828249545
0.10067707750915435
0.014044429858281287
-0.024505550113101286
-0.350266130167541
-0.0063474767856232
-0.15850428498740649
-0.26863237079302926
0.010671044512645366
-0.06343488061772452
0.003222220034233169
0.03835617165651352
0.018910823871654193
-0.060657329897547324
0.031924599328543767
-0.14047001896044883
-0.07033364097706178
0.10304385191410047
0.21951992762730443
0.11608076555792049
0.09631581575015101
-0.03513505187344669
-0.05085076557063681
-0.17733044211937832
-0.13456775698793683
0.1953329801023913
0.19123732314830402
0.2571420489861496
0.13044211155294022
-0.09821439160032427
0.2658983163947973
0.27884416907489085
0.20106725743328713
0.17064359421722108
0.06447108551947088
-0.01781099895217364
-0.15426434962612615
-0.05450953973763692
0.012401412293341362
-0.002113976632911835
-0.2456076745170216
0.20058434422858534
0.1385517946136945
0.2535072035175603
0.21366407031847254
-0.05679790106717399
0.03681563347048793
0.07044911038574066
0.21391743957208437
0.1611849708819568
0.12346450892158964
0.20053107108247123
0.08141975976825773
-0.04545888153916286
-0.049815491435748545
-0.18075593941637225
0.10139459120442693
0.18953369886969948
0.17869509254900587
0.18003782679583574
0.11175333156696889
0.014205295042210521
-0.1073121893983786
0.06304976218394545
0.025198770681074692
0.046743555052850896
0.2849864254969368
0.15725372249394654
0.14299970504167026
0.01563187619159705
-0.04228516705456666
-0.0029589037503134335
-0.05917723397734294
-0.12319358205961241
-0.0108271250990336
0.07587019251775617
0.05979596049972932
-0.11481365760351085
0.13908088428079976
0.0002362559676251947
0.04020884741430394
0.022930136178947833
0.1200365394142548
-0.004854062081327085
0.10599097598934049
0.16461180631515568
0.046635963279519535
0.026662940975106766
-0.011228437573973073
0.03239314679862643
-0.033152163469674235
0.026225154131063223
0.10366781101481846
0.12374029735255287
0.041518996768547534
0.0564694519268262
0.028843601721417794
-0.16246942754229124
-0.18236857677039794
-0.01325254205628671
0.04121279351820297
0.012392142568753444
0.022196500172203724
-0.13263864309187728
0.0023018161306874
0.1395763960801483
-0.10241995257753175
-0.3003847504046912
-0.22415281138912593
-0.22807262804180067
-0.28415267890645546
-0.17709263638620465
-0.18236262786964835
-0.26141379509429047
-0.16776865883936917
-0.0680727803762575
-0.0859466970925486
-0.2179706616385964
-0.16422192114885226
-0.08822649673273217
0.024781571973427244
-0.04009673840662289
-0.12362315655247354
0.014163603997100203
0.21698451066995522
0.16239923929823905
0.17658559152995895
0.17580501236916898
0.16850222226973416
0.15404905040950628
-0.022113103272468595
-0.10196785895895694
-0.01895782707159365
0.1149343446174333
0.06357295258734533
0.11141614710760868
0.010947371926876712
0.0688001049606786
0.059421409814593165
0.11323199348532555
0.13700129001307312
0.16194312691161777
-0.08280443633445356
0.04961556428341285
0.1699762046175937
0.13991639476945655
0.16295932309337216
0.3320911588228321
0.15264304473765025
0.07351553383533332
0.18467288862766815
0.028669299101842623
-0.16351068830367185
-0.037109552268551414
0.0786307224211467
0.04291386288639822
-0.024405226552033685
0.008670166020557746
0.04336741042412755
0.12012824598973201
0.025910815486276467
-0.03426752907523387
-0.03265358795915865
-0.04051303808801689
0.08493457366346412
-0.09939293208344854
-0.07111597940643205
-0.027205072682740063
-0.07763202757221839
0.026296935984977066
0.0962055568446803
0.19027616591951435
0.28703474522792044
0.42996602512086024
0.13080661908449803
0.03990423849274959
0.12957589522215796
-0.01654367646472898
0.17530109466089114
0.2859047840175725
0.4207869625344399
0.3555493801963201
0.26954004308445517
0.29212136956975765
0.1988953830224463
0.15324644629598577
0.1355538509872923
0.18612646555940754
0.24621057473030605
0.3440744292667538
0.3739323487919767
0.33166683573921607
0.3457659448814017
0.4029032288015866
0.3465795998299541
0.32706073010472775
0.33655755990560154
0.2930063546312412
0.26980255577092643
0.229145278524477
0.20473127584511663
0.190737905834215
0.5060745205903784
0.11638924037763425
0.14841420613435471
0.2306076517790086
0.3960558944220861
0.11280382137880743
0.07982023649093013
0.027297217216510915
0.08577458816053224
0.035066446487303095
-0.0684578778806107
-0.062401836265591176
-0.01982842728161262
0.04121230713002437
-0.0008629636859297292
0.001814518953881775
-0.03305699034394562
-0.08031393537282969
-0.048813932088858786
0.08949440774858088
-0.06455678640882342
-0.021762111254910215
-0.04382696836365538
-0.10778253764600147
-0.10682228049544687
-0.08276144548406678
-0.11704682314239083
-0.13558756331671656
-0.08348573420993646
-0.13893789016108757
-0.09219319998401393
-0.03333922352019912
-0.048825923128008555
-0.1464837918099312
0.10730257772408092
0.026154452230406265
0.10170937316397277
0.1134402796724914
0.09055260917590155
0.05976131805480827
0.06331576261012223
-0.12048862161145682
-0.16742594403533728
-0.07072046313449312
-0.11911699402354507
-0.13842284672295796
-0.1741501505252154
-0.1701212653523827
-0.1349593532315985
-0.03935950301075733
0.008531991035053253
-0.00626542251755525
-0.09312102386857499
-0.17790340938634888
-0.22858249552904045
-0.02590313501087516
-0.07482017166162805
-0.1636817113192607
-0.18456194675502768
-0.0677745727336135
0.014129143584068955
-0.04320895265255094
-0.13069364001132322
-0.1595118834925935
0.01031723002962768
0.11710883867368037
0.07609575726904251
-0.006348758437039379
-0.08883344218595651
-0.00722130885854415
-0.020893634687323703
-0.17552257426214046
-0.1927574285853142
-0.20342710800095534
-0.1180402597481077
-0.11507109247719581
-0.1607316927436714
-0.11775786184312058
0.030033159431495385
-0.18546033715664512
-0.0647727923036143
-0.012580915438865253
0.04920269969346292
-0.021648887058330506
-0.09019922053273256
-0.08035425679092376
-0.10200330230743551
-0.10173122385714832
-0.09403007858104728
-0.011480702126108201
0.06567044597987584
-0.08974592268333004
-0.04138762845615928
0.05339933220392926
0.0061479663772611185
0.01571750701609309
0.10169753412717199
-0.010785070509147579
0.04380165697970999
0.006894964142020147
-0.0851235024853972
-0.06818890843488615
0.034636686807484086
-0.024772757435092028
-0.21818922389822307
-0.05606980240367344
0.03892872184295828
-0.26513231104628276
-0.08751039619591353
-0.3036751724470356
-0.32527868837478247
-0.18183476595340822
-0.20297703154345684
-0.10921123069179556
-0.030612504612545388
-0.03668715825532922
0.0038474951525442162
-0.10300535493714748
-0.022214235537341902
-0.043535305176163136
-0.07034658512590194
-0.1023004714097107
-0.07788892260695313
-0.06501719583602568
-0.08524856008974702
-0.06884170458709052
0.028857517731190285
-0.1114967383578379
0.007600973629277025
-0.005590318897325821
-0.02127799269652795
-0.13981440422361657
-0.18556076710241415
-0.18285668591287066
-0.22384844028191048
-0.14900342325217555
0.1207111577541019
-0.004315704934822626
0.09509651647690942
0.06339955973113422
0.07071379198060843
0.01597779533130573
0.22958630047515713
0.19444853760561026
0.34897415530684095
0.23134638381891265
0.23407515615437516
0.22235544963271756
0.10620434069295688
0.20847860387232284
0.191055217854085
0.05899040783154359
-0.02726589291004066
0.048359126068576855
0.054867086440542945
-0.03127873504609072
-0.08203922424971254
-0.12626656245804357
-0.18931655646462017
-0.09810175024844145
-0.026300247794088048
-0.12992891260247053
-0.11971555678614561
-0.040178671232438366
0.08567029464214893
0.046489281840630406
0.011757002145258039
-0.019785923745255205
0.08692894053958075
0.0919361675020811
0.076917477339986
0.062146789381339246
0.04543250885717385
-0.024010330596599672
0.00786732550843967
-0.009847472799450438
0.0729129297929963
0.029509310645255016
-0.062091631274257195
0.10554619808306342
-0.0034500468524333236
-0.023032054457726853
-0.09743878475293609
-0.2092692092277931
-0.19090239816338436
-0.04377223235593254
0.01044759258204944
0.020062540212225144
0.015576818528493902
-0.07245022468086453
-0.08735429426497995
0.05786760982056351
0.12069109355172072
0.04169086829365962
-0.1330483509066127
-0.1572315191811296
0.12859051898815207
0.23105281343480882
0.16886484624963877
0.1532814522712634
0.20810214239343883
-0.13185355117388337
0.012545464382709133
0.038940475094833546
0.019002760131328383
0.01297098032966762
0.040813320667003744
0.14954505292650386
0.1927241542224642
0.0751434785250735
0.06868647854950787
0.18919487904192359
0.2691049072388591
0.20806007370348048
0.020829880505824502
-0.018491935840188885
-0.04693570749251107
-0.13003991225584863
-0.031631152646689635
-0.12120319089324479
-0.18227635811128218
-0.13521630389921924
-0.016106893421969363
0.11005043927663537
0.1511876266916603
0.27735119791529833
0.38146688344151714
0.3216042313395185
0.3495437034991052
0.3368847558472183
0.24945481521961163
0.26850489993354765
0.20929360210706122
0.3172839099574012
0.20783018092233313
0.21086446872143322
0.21058049970761095
0.24442343859275942
0.1693231450841499
0.1933019114857493
0.13748448191574061
-0.027790395286746677
0.24750485574311418
0.24618968041676081
0.14511020030040653
0.46632426886240597
0.49706476395963045
0.4931296666986393
0.38957158378065715
0.3434778496248585
0.3531657854722071
0.16734488575673864
0.2534224901208583
0.11692742265115988
0.12087025144388647
0.10418895144513513
0.11223057108821088
0.1042562274311355
0.10422798005021368
0.19817387888703525
0.274225550692134
0.2665466286746087
0.16079856442534804
0.10773126451796185
0.07899756709835598
0.0576163305924694
0.07195006069716484
0.13471847591503935
0.04421157896846671
0.127202607220575
0.16169707213134765
-0.01792764267393309
0.013960783544013538
0.017255536634907927
0.053209382143839294
0.19742561692509353
-0.003245482565428272
0.039734436655699555
0.37582246334212627
0.0739749303617592
0.053285630193558566
-0.07587519392452573
0.023650389210796333
0.04619091448138772
0.00433000953597113
0.16841557116189007
0.0664001598055843
0.1729384198257933
0.2663477687511183
0.2938288571504447
0.29780548886484326
0.31170095804872283
0.17863100391092362
0.12410037103920273
0.15768750302685708
0.26383704061453517
0.28987021751750175
0.28007501688492065
0.09007706473231894
0.1982511516200349
0.04030566293490527
-0.00823987746371009
0.020875566066769862
0.023663711085681476
-0.058837052102388224
0.032708709583247654
0.14792158067382327
0.17959747362703643
0.3265303298610732
0.24058713104832094
-0.055280384891102846
-0.053725223822399235
-0.22035984214732163
-0.16744966695506572
-0.13110965863746044
0.06716208369284575
0.029929262456527838
0.1116317155428224
0.008593713452924718
-0.021247297658254092
-0.08381845350350564
-0.0809041016850891
0.1850052333922818
-0.014449171095518961
-0.001738868058408039
-0.062684274433765
-0.06893025852629801
-0.2836499008785296
-0.02920724538071413
0.0026358056360120006
0.054906310270994574
0.13916550721901053
0.0895012253456606
0.06360845190156075
0.05658130854672313
0.07121411970727694
0.022104510111446252
-0.05022653470520289
-0.05818926416606634
0.1094746124802136
0.11655574053081144
0.12210401541184461
0.09866256107331128
0.15128645726869688
0.08688650047831419
0.19562569468133004
0.18817570060543337
0.20020723444700028
0.1879818028560474
0.225312298155289
0.1394302999705286
0.16021187262617498
0.0012132745912329498
0.15878072122076778
0.29643127592606194
0.02614135161805808
-0.05540630942117138
0.07803832797546349
0.14033882221999358
0.1689483279153112
0.22935896290656949
0.09090993135531014
0.1238562032675946
0.08530297012689395
-0.18401797424259725
0.08250635342824271
-0.02121853683633035
-0.07843479934581644
0.03917105526642382
-0.05923115789092087
0.009127337260806306
-0.07158294401685387
-0.12028183517635825
-0.10064215626670671
-0.11792002782749611
0.17674919390172797
0.04331273147673751
0.035185906345041124
0.21813376634834525
0.04561018274582918
0.09993216745328208
0.1354986730489439
0.08433583716972239
0.12337400658701184
0.2671045181299907
0.08819371652087535
0.09517097781912763
0.11592032259722158
0.00041239357728936566
-0.19013639394269755
-0.1738451794565376
-0.1420466838397461
-0.11114626431555061
0.026878117197696866
-0.0019461711167627388
0.17790355518465142
0.015382776182321681
0.003918825282077805
-0.09826191471558128
0.13545775810915095
0.21642922859516267
0.20608638013746625
0.2449716507538189
-0.0782884643654459
0.07755038635566117
-0.00423568789705753
0.1489615798522216
-0.017610371110945083
0.01660911334419838
0.1653470078978091
0.22339710686918532
0.30232993896361043
0.12250571228383213
-0.03648326041449454
0.14078430970075026
0.11211639215168254
-0.0052358904195528196
0.029973257540975535
0.008617567734614445
0.0370741273326073
-0.17630301145890648
0.09576553862919608
-0.16818551806773846
0.050797339834588034
-0.016464253248333095
-0.037839807762610464
-0.015121917482236909
0.03520500643963516
0.15960970595592872
0.17509236462014105
0.08098915810513421
0.07401854982935355
0.2875328149958906
0.24763746239147075
-0.02339858639953768
-0.0163486242035293
0.03775255758027239
-0.13229374760748175
0.07640497744492225
0.11711588438243069
0.10704797875643036
0.05385757643628874
0.0271964006145369
0.026912358470339882
-0.006486044779645557
-0.024388565438134245
0.05598883112464214
-0.0786192415570233
-0.008599141625711921
0.011043338332203067
-0.037144430571425816
-0.03300111459838598
0.059678702658154004
0.09515524652823305
0.06294908366939111
0.087336108576061
-0.03150895649823118
0.03034551282225082
0.06042580950932226
0.02408030916057715
-0.0024368289417748307
0.11086477623201227
0.09384567238904357
-0.03366853543852984
-0.046057334023628646
0.04167139845638171
-0.004741198483385254
-0.07133285141629041
-0.07066640907409798
-0.008442564584708847
0.12138077501737929
-0.05760340310195843
-0.04512810171303245
0.03296082005442045
0.08173354777778451
0.07705705805918495
-0.018005266446664874
-0.11288304986620581
-0.07292320607702964
0.010651731041114635
-0.0759325277401832
-0.04524066855962195
-0.1286553281744139
-0.0960870902704939
-0.07681548354151738
-0.041273759040089106
-0.034576416403841244
-0.02151719033001956
-0.016866691262149222
-0.0690560950845717
-0.08699462202245767
-0.09679014118863881
-0.08437142864324945
-0.08256904807856208
-0.021885670530177054
-0.06309762847946052
-0.07745016204526438
-0.11415105338301897
-0.013002156740804396
-0.008835911030287486
-0.05079974668976893
-0.15387542875559057
-0.10749576812153193
-0.08736495521775281
-0.037266747479859114
-0.043839483422954816
-0.08515503422977827
-0.05659530825291221
-0.057108434524548925
-0.10350313183589228
-0.010504606343936223
-0.19270900161338556
-0.09867002384419907
-0.06924963177122716
-0.09727549335373781
-0.1063165883712783
-0.09995281573919074
-0.14141362650959186
-0.22865893564297485
-0.10791971184388356
-0.03232342491711833
-0.050592287291960615
-0.12343248978212994
-0.057190836790313934
-0.11419173937281735
-0.25235931969606923
-0.3033613269270585
-0.28583503664747584
-0.1382109998118055
-0.062197970858323785
-0.09987017918262321
-0.09201105859180392
-0.08141022967141465
-0.11415287507881601
-0.20893074085167626
-0.1977186872642478
-0.20254766407844726
-0.26609676191729015
0.21301315207131347
0.03229509982105898
-0.09790086357591823
-0.12040639473796165
-0.16104467167673744
-0.12439724695635584
-0.041186089735858106
0.15847894962601802
0.11200238626061242
-0.1299347879660626
-0.09179516323920775
-0.054778014953738005
-0.05977969289936588
-0.04746409874934533
-0.08177539794618718
-0.024288898420866983
0.015342293152499452
0.044520655030212464
0.02403422521028625
0.0035327741025005755
0.026709587825003663
-0.11086794215615123
-0.06549484567007995
-0.26790988678472755
-0.1306660093031971
-0.13931322498356663
-0.18437581075004203
-0.2481101443464251
-0.24990312745603305
-0.05921329848447415
-0.12601291854478688
-0.016693269366303453
-0.01035277794451597
-0.02114561153147681
-0.02644083829261897
-0.03261055221464378
0.02312772960621686
0.011804626510287934
-0.01460730313074504
0.016835450676141252
0.08250612310862224
0.011899991594476748
-0.07059691015302552
0.06511740545323609
-0.019447592247314866
-0.15812745410096374
-0.040933498949414164
0.016074226314801817
0.01894862043690277
0.008071743064952185
0.05271024043905924
0.08390893470104009
0.10581194567076327
0.06995970668864719
0.12463701554374017
0.06800150469372128
0.07424619287900892
0.17023838879011105
0.00037371166036908286
0.09883385853336184
0.1723663990482009
0.12246774727944584
0.11845569596703777
-0.11288081913281549
-0.07246413244689018
-0.169079533684585
-0.0901542062560306
-0.07299239901283137
-0.11513985044083742
-0.04265251552774047
-0.045585423452447156
-0.0625756562404873
-0.01742491732460133
-0.08030760943185739
-0.058615793300440276
-0.07482717572905731
-0.05438431719776569
0.009763556837233225
-0.03844207704302093
0.002064371116551002
-0.043819830636771286
-0.02788900267248041
-0.02460572553980564
-0.04026018443278341
-0.04185073302270392
-0.0728726263486503
-0.13857419820296502
-0.11712225150569244
-0.013129653782439238
-0.035442550994098015
-0.02029260944107449
-0.07199287620727533
0.0004610537849384115
-0.07379789130629298
-0.14941362796884441
0.006411657630515795
0.0071019687638375715
-0.05930449372979287
-0.023752783237033608
-0.012924172274381498
-0.1428458984584679
-0.08334621329872088
-0.07894717228209869
-0.1120041927844974
-0.02807939456365787
0.043058560928159954
-0.07477739871927928
0.09950018263448521
0.11774435443942849
0.11826287305960143
0.225629936949465
0.2646998792374221
0.3055696941204148
0.29473528264723564
0.041336784686392715
0.0153515367501695
0.09938524151340232
0.0813419643953163
0.2295766928786823
0.07415671256369283
0.059394931006969735
-0.01942502128181473
-0.012873692855262985
0.09085994385460296
-0.0024511142182401958
0.07751124328535354
0.11175653561254412
0.05914603411531161
0.09576222380066972
0.1288976721955405
0.059278571600490555
0.12586169166402725
0.06299823883833917
0.10884614253393637
0.06879211362302952
-0.008074082857688162
0.02133021769100546
0.005485906046501847
-0.01094343674533277
0.23101364337688862
0.12866695731788053
0.16536975755632682
0.2022918790255855
0.1883753272680655
0.2503758485206138
0.25415744211876823
0.12435218198553288
0.1980208940317087
0.14582745456733243
0.1280038706911132
0.0695539461423837
-0.1019443455136332
0.07492981073192335
0.13477013614989086
0.09121075434728801
0.11017148352357302
0.1383997414126392
0.1470350108340298
0.1495443921134174
0.16255850248397394
0.19765460176044117
0.044327824578154616
-0.06900669849934037
0.05650752296516464
0.008310572752902676
-0.1251715089865442
0.08733596798619332
0.12048754718006621
0.1931224650578817
0.16199168905749894
0.03153343240507455
-0.03448604093141867
0.06596002894257325
0.22379913192983705
0.22144074989387166
0.1439020551232711
0.11581763176752821
0.05345852077336292
0.17690665561909105
0.17188995917609495
0.013042283159773115
0.08495922536937178
-0.07533661275421714
-0.06448983700096032
-0.008277416726312846
0.05936474979930121
0.027352992539807615
-0.06388950346707045
-0.05387004464587451
-0.037740943232927975
-0.05141627652156964
-0.02139475807732333
0.021986559681094288
-0.09166543678714695
-0.03767882011983725
-0.041104833322101075
-0.047798577302030534
-0.02771510210973886
-0.016222796874445413
0.32028365901073075
0.20782693385295875
-0.04338961643766054
0.06876904535541777
0.07731651482867316
0.15389208274775867
0.17946353914147462
0.07792180222198788
0.13894064069895187
0.1676545430349292
0.19276094626737889
0.09886445756154105
-0.009132226184162515
-0.0017806392076942462
0.011121608621873141
0.05331985715624714
0.036019645522428076
-0.03580729063815426
-0.015643807931038103
0.05755051157443382
0.14991936283579124
0.12324569744035349
0.000407922692791561
-0.08356511822533279
-0.048613018086978044
0.010697533792796803
-0.006294695334095532
0.070864741903735
-0.04139055499004582
0.0065702455945985845
-0.050108887792112505
0.06816163520229505
-0.05513063243105406
-0.06548172209797733
0.01981382022718053
-0.027075391759577322
0.11175027382187153
-0.02673227190292736
0.014166515260517756
0.09124226764074045
-0.02267701317777527
-0.014929746583121614
-0.061736436927846396
-0.10268969305118222
-0.05141989233095774
0.010729376805040488
-0.005195821202760999
0.01683241695126462
0.1170072439060925
0.04735324334977839
0.03778237760276761
0.07067761467858827
-0.04894976164474066
-0.057086522556912975
-0.16211381717651194
0.06725143240894406
0.05535759692098263
-0.044969580200639445
-0.12498038135156485
-0.17289533870324045
-0.16005083258816194
0.02221620169351053
-0.03865730633204446
-0.04892140829917398
-0.022211417531620033
-0.05389631620108043
-0.02147647360623154
-0.0842002380736479
-0.1961411133254045
-0.20297249471770148
-0.26453044280844595
-0.21045627187469376
-0.13347942594207643
-0.042821433484851304
-0.2522367998207071
-0.22796008165841705
-0.166277114201915
-0.07070468722190079
-0.14838327069163104
0.015518778539043293
0.1467308454260167
0.18343825146748963
0.1087619161956323
0.11605649379718033
0.23438724090103888
0.1766839854624903
0.10235974571387314
0.13383999774224448
0.08208172596663411
0.13018388036296322
0.20668616629036174
0.16288146934563352
0.18986103607755458
0.12138157365004049
0.1850450786111149
0.20456582251553132
0.09379101036136644
0.1756004090526451
0.1672395357129375
0.1662380797587695
0.2751404127176405
0.1502813990053822
0.05050194269619952
-0.009443401655008786
-0.03500170877431321
0.017415007306869006
0.024799489340027674
0.16470566779989387
0.29752153803437753
0.35671465628035587
0.4203115515852904
0.3986560512634196
0.45202281954596474
0.5145351890094134
0.5930009302308502
0.5741167623163501
0.48094217446804055
0.5044647562745251
0.40425064719404885
0.35465308091704867
0.1512010534234758
0.0835389068981292
0.10151555305246678
-0.12979681333539345
-0.146402793776942
-0.11787640400272667
-0.035795928216141804
-0.05242017926193753
-0.09919166475490043
-0.17548265594169724
-0.16392784145989248
-0.14460815674186484
-0.11824986501599863
-0.09375654705770257
-0.17179973119720823
-0.0847923596967279
-0.0615583757995268
-0.033266317739140086
0.1431682568594487
0.10607933837256872
0.23726209653702518
0.09612620461900309
-0.017020130895218876
-0.32923421563674665
-0.17623693393336334
0.03196683854131546
0.15514335992742276
0.11788058701002241
0.048935510954577384
-0.07368096201399424
-0.10358147068943414
-0.018655397496888413
-0.029154724265390414
0.08302098618036356
0.09293493143494101
0.0397783757515246
0.015122854315666899
0.02981970665028251
-0.11084803757664492
-0.07960838107487249
0.003590328026339062
-0.13681387102801643
-0.11088922944329822
-0.05300983574398698
0.015020723404758877
-0.07599831074365791
-0.09865854130121209
-0.16245657107374312
-0.037570855615035606
-0.04635324581390886
0.02259977665144557
-0.010835142984771076
0.07072518259301815
0.08312690308123567
0.19120200596220205
0.20453422377064928
0.17710654211127258
0.05751977703479324
0.12527837605717956
0.08821869069438991
0.06461151459576149
0.17910718938946926
0.18867596871252765
0.2611946595796846
0.29395621645738895
0.17696928626993785
0.03634951878323255
0.015942763064842384
0.03720508499858541
0.1251385986258174
0.020293790554540062
0.045022880225981755
0.06141642313389603
-0.029636512709043425
-0.14900443365706845
-0.23405682917164092
-0.2081110997512684
-0.22330510093310152
-0.2738854818061212
-0.22236742586811573
-0.12917419023622997
-0.16738664114092708
-0.18040630674071462
-0.15657151082635348
0.04180208298193473
0.12271269086521205
0.16075043945006173
0.10160222294703194
0.09449084040165616
0.09592757210041114
0.06838084841544376
-0.005229447095775429
-0.15178634624778212
-0.0009034752492360989
-0.15577278702380026
-0.14217663583659326
-0.06494245753310786
-0.03399171100724959
0.009551943196839836
-0.007113072967072544
0.043152082558117734
-0.01424971796490737
-0.07821270062182359
-0.0742393014390426
-0.12197035745645415
-0.25798682601613065
-0.14395844010791198
-0.135902993829339
-0.3099099194832003
-0.3638734008367287
-0.070337709557516
-0.06121974352362948
-0.01067825868753635
0.01919676786024414
0.0671831340800276
0.08777489759288515
0.030646093278367696
0.06788457901743096
0.06967656941365619
0.030179457717447532
0.02589066259673735
-0.016860512153979455
-0.09921824517214142
-0.14648561149376
-0.2672590653361369
-0.17662971904808447
0.016616223159398046
-0.09366898663123978
-0.08847555937081814
-0.05936421059924952
-0.1808100749479421
-0.015482198087945051
-0.09304407269502303
0.08780714807832722
0.3033837620618169
0.14704470281871257
0.06646880969002178
0.11664509338461343
0.22603394672689386
0.2041932078756722
0.18088488294504582
0.18148065871452934
0.09175510423863482
0.02115138572003832
-0.07290141905696909
0.1007778544096931
-0.0024442220708367967
-0.18615205569218501
-0.2524175587819009
-0.12548706878865026
0.00770940093163564
0.025154429811065398
-0.01620243259144742
0.24333318485789013
0.08104832364026143
-0.038653046594097025
-0.13785266018652667
-0.11584636771763923
-0.28116537386977614
-0.277538591177413
-0.30043466785942363
-0.16351246809063952
-0.1567051150049692
-0.21971978364371642
-0.13283618871696418
-0.08038086939706818
-0.052386610681222454
-0.17123280171924662
-0.22044428403230784
-0.27416388380821316
-0.16370252026655022
-0.24111873569048936
-0.24438436591580523
-0.22141827334474865
-0.2601021630437447
-0.4251860177241412
-0.3441474858862729
-0.09091938860130912
-0.13841226487962116
-0.07376414859333706
-0.07446719477345337
-0.17923791687705595
-0.14105550338604245
-0.09352645720493655
-0.06258502257897197
-0.08752363225681249
-0.11026500617395663
-0.1753573177149309
-0.09604139724736764
-0.06252386250298046
0.1372432311357151
-0.06422640402192704
-0.12324440662697442
-0.20287069357194287
-0.33825979188327265
-0.39510457046305436
-0.4297722718704409
-0.7309324728867231
-0.33834985338625273
-0.2320275360392551
-0.2808101315083153
-0.17547868300284644
-0.1850694841899119
-0.22303168513109575
-0.14814568354796223
-0.24020000093058802
-0.3062924953648226
-0.38032653900475216
-0.43893145967694996
-0.17330524048843393
-0.30109637519432936
-0.2928817162820442
-0.23300640904435374
-0.1487912722837742
-0.18756208237369523
-0.30133027110580807
-0.23760226572014528
-0.25886554926528965
-0.18395687049011059
-0.19522334080676074
-0.37299847959199456
-0.10205848888771885
-0.21944698548829092
-0.3019407965810734
-0.30157088657056835
-0.28918993339202964
-0.23031500947187492
-0.3114859256766012
-0.21226578724596193
-0.13918789061865733
-0.07048215265871827
-0.018521969632849074
-0.05663666177950622
-0.11972635189571929
-0.2690384273338227
0.16706061772613337
-0.12730900224628952
-0.19166078290397726
-0.11103874867315945
-0.06286550733932197
-0.09059743021723624
-0.16257370127810905
-0.22331724530479874
-0.13661577151454118
-0.061510534919013295
-0.05399436631288147
-0.04124578486858496
-0.1594001162365602
-0.03662369481219403
-0.07559691341668565
-0.058294365979554466
0.031197060487960202
-0.12705791925330367
-0.2123548144396353
-0.1882015919430709
-0.32247693893965323
-0.30454518050321844
-0.27178805484937013
-0.04800496844973217
0.013464911464591875
-0.03506406638738727
-0.047193569127758093
-0.05981350580825484
-0.034839511859628275
-0.0024016884185987615
-0.006275598331029194
-0.24280768520833373
-0.15969327908466785
0.10222549537148184
-0.07531156813683637
0.024192974135516528
0.06998680266502826
0.1279163864631699
-0.009414723958411239
0.09424558982692889
0.06073176429668782
-0.06903087922638762
-0.13697444929194066
0.04531465531229641
0.01199772079213813
-0.07206596007625911
-0.04229505381250092
0.15859106712316573
-0.009325877571939891
-0.029930107802074026
-0.006748746105796245
0.16497014736430296
0.10930179102352756
0.03655303356736248
-0.04994104505390902
0.11790674055952668
-0.0007283031759509696
-0.1023979994979259
-0.22225476265403335
-0.06021659708819121
-0.14861737650604392
0.0685207196511386
-0.02918642737916018
-0.14505830922705706
-0.1000536797424093
-0.23409572001929632
0.12350870850050913
0.09394141176390425
0.07369809913881273
0.016831246060283883
0.03116743248375945
0.006039420128380327
-0.0766481728636718
-0.08856002289282137
-0.18605685356086787
-0.07070297986024066
0.09378729332797675
0.13620273081414727
0.07445193319806402
0.09662880722732291
0.15322505633868574
0.03815223099320953
0.07946910713161369
0.07027374094702708
0.11564992857317097
0.14460381248197957
0.2064057394825364
0.07164032321071163
0.33268961243998135
0.11637503235502343
0.03701358502106678
0.11925744439925126
0.18323826748047264
0.18846403034687642
0.20963707030619957
0.3105472376150316
0.2678985010250943
0.04514898480573207
0.17582218593445476
0.24154348053131228
0.12799401114198575
0.11881993686543879
0.1369897835216053
0.06119016144711698
0.011082819420856161
-0.21499024923679286
0.14881791290496402
0.10413533601795148
0.08649746636419563
0.22387283724604617
0.15534391952881788
0.11340235019221045
0.05929071486429086
0.11581130739133692
0.0901791836943507
-0.002319759124259816
-0.1248951975084061
0.22156306427791003
-0.078025841920217
-0.18010866719248933
-0.3125921313117554
-0.19180897316690207
-0.0239376044888794
-0.11133755834972657
-0.04760546507561589
-0.11829984062454088
-0.049321203757149594
-0.20901447712362164
-0.21045955415398446
-0.21666128517666944
-0.2115840491673617
-0.2778598545651459
-0.2918616722309615
-0.1938656740402472
-0.27076986519949864
-0.3100524125924489
-0.16131338780850127
-0.16992549152653202
-0.18686603564033313
0.020310766243166016
-0.10338340669410728
-0.11725982325650786
-0.21625034070000193
-0.19650138649243515
-0.2454802550589325
-0.15530276136581986
-0.05038216033302457
-0.019229984296645703
0.11131313094931959
0.0425531552317957
0.04265541978488366
-0.05206900901961545
-0.07658026783222288
-0.08152369530840448
-0.12585410363347624
-0.22824100716985443
-0.12822305486396374
-0.03447791053858571
0.01931009527187874
-0.09072827772484321
-0.09042834489376118
-0.1652191999047441
-0.2548283476688196
-0.10887545134662881
0.13163636480095933
0.101844130543779
-0.09678741629240924
-0.1718087619031791
-0.18879622822144027
-0.07570859140125084
-0.02455995903657237
0.00379775159598977
-0.14565694904684498
-0.14679267390044703
-0.10048615584278792
0.058366526601133256
0.06160381967657433
-0.4775586470179632
0.037982023205581895
0.027016241769557636
0.14370240919828972
0.1100441049216563
0.09499930381841522
0.09222796614627508
-0.0015997729797767321
0.057905463046580154
0.10042146761589323
-0.010973691255998405
0.1304493399949482
0.08917519882088806
-0.13509426286873083
-0.09282726757508983
-0.11488841675424004
-0.1385571524328384
-0.1298925641249151
-0.010734984826120756
-0.09114880326083268
-0.020490598435824275
0.07671633769392652
0.13637313225234626
0.2058139226084429
0.15332517882164032
0.021453358288880422
0.0443012169189684
0.2619923969657419
-0.039247468378943384
0.060069005247638065
0.11526182440262424
0.14154508407226712
0.2124420085788366
0.3495538131777248
0.3154706786563056
0.2749807290981243
0.29799193143208375
0.2119879570794513
0.17727342007325442
0.034100907130297904
0.05187618399771355
0.05840964018560772
0.197240715258843
-0.062050738417756886
-0.015467937168314745
-0.06701605377161185
-0.06634083836252037
-0.02639495968083835
-0.14483935397479183
-0.14924280674813792
-0.18174744010870666
-0.08918309209840028
-0.18657122727557643
-0.14878308095505402
-0.04046617207307112
-0.006686416176206251
-0.1048936949406722
-0.19715772257829095
-0.0826544510288704
-0.1088538732655734
-0.36128181132297593
-0.13064224904910746
-0.06281190110581411
-0.06662550991928486
-0.005386076665770549
-0.012756405041581882
0.11084144742284284
0.11580464533898843
0.05080657306095143
0.0635289152158282
0.06127566705499577
-0.055256366316727965
0.2479190823266319
0.1185930432126253
0.07769963848490764
0.14145204995262645
0.10580682915466945
0.06168713004229779
0.08670412848049924
0.09348833522536504
0.05752610665196026
-0.06920171065395542
-0.12182962393721744
-0.1540106435277178
-0.041287239838573624
-0.3188618417001648
-0.2567267882070192
-0.1821169526243814
-0.03079203837400289
-0.14613904232737973
-0.19400707751431828
-0.07553666581779868
-0.0961523262422042
-0.10633668802940152
0.030826261484276175
0.06639019558242164
0.1826864560128772
0.1537406944685646
0.10914763392141211
-0.038962924395329154
-0.015101906056332047
-0.12386442335586222
-0.09430570666548396
0.06515558951023609
0.08116481542389083
0.00396500041948246
-0.002843627815248424
-0.0870224915805265
0.17703470722411865
-0.030859801794448128
-0.05249586461207364
-0.026328896234214794
0.09735009326007019
-0.11834005239220781
0.04989006100089162
0.04765345514993977
0.01014932912305683
-0.0541995395357412
-0.08739958480066694
0.0010771596529730984
-0.09005616687194228
0.0026557853355664205
-0.1159634029422318
-0.13625452404644114
-0.11298890793468869
-0.13108312612516804
-0.17210016322731084
-0.14028017810248983
-0.01144734488780849
-0.1354582267032521
-0.09547235537203752
-0.0817236619966509
-0.14231859960801024
-0.059008736890915535
-0.10995289175054783
-0.09220587772323863
-0.053641315958030386
-0.11669334721941607
-0.06591637568975968
-0.193444169553982
-0.16199483279931678
-0.09099809849703638
-0.11169593711927289
-0.14246661646042105
-0.009658284135198373
-0.05865847505130116
-0.09040844547606605
0.039183361402875726
0.0242239563747131
-0.08124632682990021
-0.037960003316213665
0.01551734738765279
-0.05413387360329919
-0.049109979261444045
-0.041408889931797255
-0.0874738119160867
-0.16237421448762823
-0.22939880482235678
-0.16263378820526703
0.09972707878248362
0.11264284262375865
0.1838607567870927
0.2551683013367788
0.2639066317324785
0.33867133012229184
0.22686087289747542
0.1512471276049277
0.022236936849156418
0.08606876988907926
0.009499234227716138
0.06116271710877346
-0.052336604986533836
-0.2653553451842254
-0.17907223256200472
0.0018030699380559047
0.09321654715354098
0.03863784270162011
-0.021411766309585793
-0.1648944362344001
-0.2858394197791338
-0.37810340595947256
-0.1956422503870729
-0.1724218593333027
-0.039288832733518096
0.06845658517067682
-0.07835269572852158
-0.18363701190339257
-0.10404108244566371
-0.07818324279482525
-0.08199132880140819
-0.12420442340781988
-0.16472719555500026
0.0572774759615015
0.013305340890767247
0.004406759529103926
-0.026726517231634207
-0.0760858646510993
-0.020983671657027303
-6.137645711614911e-05
-0.030807325493497184
-0.022579171107727003
-0.007687032627914569
-0.013466153353757325
-0.0014646310253960165
-0.060010641704010284
0.03636353866425747
0.05328079389753137
0.09154354233341828
-0.09345901882208205
-0.1353980023660961
-0.08964894475543406
-0.11911170172801588
0.09398424473106537
0.025196519468134396
-0.04942963774315168
-0.047822376979078936
-0.011460485577760714
-0.0008024973722852713
0.3091057331819682
0.050060192315895806
-0.07370182455390595
-0.07131215240430663
0.0054564999961900845
-0.06617925250070408
-0.02290263489935437
-0.0506680989910859
-0.13919079472559243
-0.12918393583284024
0.015714348079515217
0.02242721956067513
-0.10921853952556668
-0.27608156381470583
-0.04063181229244022
0.026416795739586104
0.016248628080397638
0.03052339855463545
0.17527458520378109
0.15749493713777066
0.0055855544116426015
0.1982002667013242
-0.03438931909863347
0.02800982614646447
0.01718112201140062
0.03935395364831581
-0.02510970356736507
-0.1093197336843401
-0.040062237669230186
-0.04737622404185069
0.01553578999893205
0.0006187983886210197
0.031285857879673314
0.059824852093802124
-0.0758961231487081
-0.06778419670002234
0.0013571854314118452
-0.09104129440987897
-0.25453088972170285
0.035322062168342536
0.17565752170004492
0.03719372720838661
-0.05210123583251433
0.018242045727112986
0.06475573585551923
0.1633284212194358
0.106829814650122
-0.0006616638414780173
0.03571146014724794
0.20821972185139154
0.13637162223183089
0.20488412710038464
0.2855315057683993
0.4886504940069364
0.17740794740462945
-0.09825676556412925
-0.0349790789525044
-0.007868972738631207
0.043418615294304366
0.034959290395953045
0.03885309567992776
-0.02279495760438227
0.05394183282538483
0.03936470948336654
-0.018737021570574438
-0.027009168144362414
-0.047852001452538685
-0.07516584052376762
-0.06538196796064044
-0.0798186187884223
-0.046940580531400565
-0.12484561684377635
0.022775674317400144
0.04450905833481891
0.11413197830903685
-0.14435700715357339
-0.071725788329243
-0.10764768139826439
-0.19427218423716222
-0.12088872629779275
-0.0506822334286469
-0.15123316718270569
-0.2733073746099348
-0.12966724546470995
-0.0843873923099353
-0.023966197667833426
-0.09373518347857633
0.10591315618234841
0.05902860863153871
-0.004775452424981085
-0.0765480009371609
-0.004268532998543495
0.09732991590724868
0.09754057211309927
0.02317184611918746
-0.017673109527888916
-0.02256913037191378
-0.06240192928386897
-0.055233304310031074
-0.0015798762862676442
0.02841965051514772
-0.006668994634391216
0.003959556903151586
0.06445682248782733
-0.017268748676480008
-0.0584002922116525
0.018784762068319097
0.10984825425871277
0.18151706720644753
0.14705934129559267
0.16384477576181292
0.18459511975686305
0.1043718970236582
0.16480565104387704
0.12656435932912466
0.11742938820198803
0.10667763897907981
0.11365385282680228
0.10717117446532358
0.02081537514729647
-0.02124569273070724
-0.19798760717327402
-0.14300912686975098
-0.09703423743111494
-0.07954209997551102
-0.05321864757509661
-0.07133357097926925
-0.02548011525750807
-0.11263378792696961
-0.033600848128302
-0.05603531478003994
-0.18586465311483402
-0.1875011274133014
-0.16167543260720119
0.018072663826861984
-0.07001067415101728
-0.07399539371564262
-0.1571064331961533
-0.07280582217646345
0.07580699344423893
0.11966473795748611
0.05136998176564845
-0.03329992251411203
0.003885044133590697
0.06618077603285945
0.19026868758830084
0.20255264480322838
0.12481148496253502
-0.01678330241143385
-0.07808469990543564
-0.006819354005594223
-0.12010140315784033
-0.10296080294994626
-0.0841125327329126
-0.0483114129299039
-0.03441980263243914
0.0703424548187552
0.04307721338150921
0.09376129198323513
0.09683444503235931
0.07059063603160468
-0.010268730364923252
-0.0529937853767386
-0.051159915337889404
-0.11000851313959761
-0.14052401659628608
-0.21094368488692125
-0.11594487088093847
0.029927355747622297
-0.10383017576451041
-0.13952014304946736
-0.23310383740482526
-0.2968710503112791
-0.3033928984023473
-0.34846659718345085
-0.4256203752703508
-0.22325366529728213
-0.18975016568150724
-0.2761769983611931
-0.33118196940268607
-0.3737440786070392
-0.29104520315811977
-0.25534334508866796
-0.17756652039598628
-0.14979423633717343
-0.008923442064837691
0.1414304354973784
0.15625643283158597
-0.006923834058147906
-0.05889870070768017
-0.1589878224886477
-0.21417820525794626
-0.2095232762657063
-0.03859639772945025
0.028916540694858495
-0.10188371916569904
-0.15473843799174625
-0.256875909811604
-0.25528439464258607
-0.1833656408493126
-0.15064485931840907
-0.07441552986143982
-0.21671238211251792
-0.18848672201164665
-0.17537312184242135
-0.23933486807097346
-0.23809445640145757
-0.14982699890839632
-0.23977710063655303
-0.17016455887418142
-0.08875709919998835
-0.15111901126081692
-0.07163508323605225
0.029487681804263328
0.0742280279472677
-0.06095009889237888
-0.023345040271996
-0.09181002047489568
-0.09552615065897632
-0.061777612663763436
-0.024048304569046566
0.032622502482913165
0.026602453876795704
0.08310785115700887
0.014856103757357539
-0.057585462682750096
-0.05387689437272312
0.029747045669009584
0.12287379378657232
0.08106436888872104
0.06281944653013727
0.12808049176219966
0.19730231702933515
-0.1021071156994176
0.06076191605206682
-0.01838639867361132
-0.013991440247554127
-0.02530589223336794
-0.0490226208312949
0.17474877312694845
0.021072015124216338
-0.13678705892726953
-0.1181300959309948
0.07443263408799355
0.05188032392418349
0.18761726270159484
0.16472237437008264
0.09446112019457809
0.1320698916191713
0.09011098940909304
0.20532311223327507
0.23581289044454595
0.21264682331886148
0.04489471761181236
-0.03883901224787556
0.04685736116357844
0.11815784251322925
0.05938531410948701
-0.12549317111752073
0.031976349159065505
0.035504206764239085
-0.12811912043980575
0.009430633599275148
-0.1165773929332674
-0.0672836776568047
0.04723108600306517
0.022785427852539872
-0.005584952323098866
0.0046627953993062
-0.0712744418291585
-0.15418462076122233
0.07767685877582813
0.13966561351865273
0.1495960614920703
0.18015271644835257
0.1330415337011332
0.14282477821896628
0.09981242470423984
0.07665081666639731
0.04715383944817238
0.022812907688987572
0.09997573865941768
0.08056032346497986
0.0721778252108626
0.026397958904047086
0.13511780470708415
0.17753648730633578
0.2147491627652903
0.19151514096514488
0.1001377880501374
0.031161428021912196
-0.004810660844582374
-0.14831149553285197
-0.1714388151001315
0.012669865844439195
-0.16444161317283748
-0.23671525678664312
-0.13197835719909506
-0.07914860962928807
0.013779134015050033
-0.013989309997838095
0.04206145584092058
0.0682440610365422
0.10557774583969229
0.08609181384206852
0.09257379925356685
0.07506466758575944
-0.17508318450880037
-0.15061748638151953
0.007991448140636596
0.018684078730708282
-0.18176369977069276
-0.1993925633306901
-0.11654549426792256
-0.07552018889974678
-0.14483083226459728
-0.17305381352581073
-0.41739127543698723
-0.13332013289635983
-0.0844667964277658
-0.0027106552161343476
-0.12224619123262766
-0.135774006910608
-0.11246250473301149
-0.07188089561596828
-0.12393145637830952
-0.15378759911325166
-0.18660964515903317
-0.34511404387983324
-0.2985451409043274
-0.2854318323680535
-0.5024817395098082
-0.3363817363513935
-0.23478737427059762
-0.11636155581889733
-0.11584283621491724
0.0007990482950334535
-0.3280027349443164
-0.30010993516382006
-0.39021951205618993
-0.2189302122218534
-0.3687935432368896
-0.2919618376289811
-0.2943264961529667
-0.0621908785374385
-0.1194873919995159
-0.23326327687847423
-0.23403994131422257
-0.23944721528110463
-0.22493913113975356
-0.13863498643691516
-0.0872166386863416
-0.031186706670424582
-0.0433558011006764
-0.03261464912607208
-0.09941095157442546
-0.13521319454917358
-0.15333029555587585
-0.28125213116856157
-0.2826157828247148
-0.33829527342286386
-0.3307041796437402
-0.39118321569168985
-0.40056587131082855
-0.1905062238978069
-0.10172910031805096
-0.05683996716245236
-0.1613171114518996
-0.19464436057275336
-0.15453152125180752
-0.1299923822730406
-0.057332234925630984
-0.04111055084579325
0.026859709314940684
0.0076949128136354055
0.21638092883615553
-0.1393280139075362
-0.11491687641112418
-0.18397191298149712
-0.12873214521483184
-0.2433279259142528
-0.12783465568688374
-0.10699770592861146
-0.19485093647760005
-0.14635262536019641
0.06817884245735378
0.10702514126212337
0.08496694392921145
0.10389615098828181
0.017531676742121267
-0.028167419040014297
0.05891250701896778
-0.18083296949905392
-0.17995816185507743
-0.23762735338765884
-0.14784546543906532
-0.00810757457312386
0.09209349595389288
0.00808867492626285
-0.09148691962580993
0.011205531426885245
0.09844307110430378
0.019622475693659797
-0.09805475477336989
-0.011177286288669784
0.0554721995940744
0.001615005382787374
-0.16007470261700457
-0.07141016019769111
0.016850850958140613
0.0282183642205212
-0.0228588109549668
-0.05646917438367736
-0.03604129045983843
0.034303681030879926
-0.14267016349181655
0.016466241111300833
0.022905717262632384
-0.1781658412628999
-0.026569459297374955
0.03165695904713731
0.07897752862017163
0.19160891408202477
0.11310866587896291
0.043670036020907695
-0.03970931287282127
0.009625141400826046
0.12312589273450908
0.049899407659311674
-0.02276345755801796
0.06973133148782322
-0.02635819594447618
-0.0232431361370126
-0.10621225373557311
-0.05533399384833998
0.03931419638741982
0.06701367581898393
-0.2068102850012253
-0.14008854945267543
-0.034950228442525114
-0.17787153699146901
-0.04666187507646896
-0.07023392451581519
0.06956223652582108
-0.03019277385217384
-0.043899141274188515
-0.09098729807734202
-0.14014389415584186
-0.15274705282381584
-0.09604115202423746
-0.19472071723704723
-0.17675155902512923
-0.11439983311825057
-0.1711879327910805
-0.2153019705524919
-0.06428168509662222
-0.00568066398607062
-0.06828296938643748
-0.16712131016704368
-0.2337302542814551
-0.1898738516977245
-0.023762740040874544
-0.07945878742462346
-0.043195424786055654
-0.040242866723280285
-0.033604930158644034
-0.0007959921559626168
-0.02502872436865863
0.05328873639978457
0.013705146673119154
-0.037795966319340527
-0.05788041051959427
0.04028353443770226
-0.1341923837013925
-0.2851435816775801
-0.2867126311711771
-0.3676025915945986
-0.24615831480704786
-0.17166591066119252
-0.05434627722089087
-0.051308439380512036
-0.06351371476416787
-0.024208003472432148
-0.109132422242464
-0.09188079628651416
-0.10241478552219159
-0.1137673077583384
0.05894476574628263
0.12228493385209986
0.07844489181669824
0.052356981057590145
0.04801837092992199
0.03412048975006125
0.067252771691614
0.12318429810234056
-0.023297375610721243
-0.04906385124266551
-0.1219849108305938
-0.24062893468901134
-0.09738062309446192
-0.08848670468226283
-0.11098481486428877
0.004063613307832441
0.04652449481044419
-0.06462544202390993
-0.07598474941239683
-0.18172601558175616
-0.08654227200481367
-0.020013549789311642
-0.1375097953057261
-0.11884860171726437
-0.021007415929631335
-0.166983148076614
0.013170823745742877
-0.11173248806804584
-0.15461813222800913
-0.0020656012764915985
-0.03990974425121627
0.03970714125059609
0.03636877864304432
0.04102316944560751
0.19447666707009462
0.2169296874219724
0.1463442388889458
-0.005929003430671962
0.03354123599748463
0.03395184543616362
0.04349639706003689
-0.11023528381440673
-0.11221526183865244
0.25223786541943066
0.24017363678951864
0.03629025416443736
-0.13486980830090947
-0.036301497926237415
-0.12963407124685428
-0.11368209438872735
-0.12932595539321792
-0.10814475337715428
0.007157831720743309
-0.024172351505777935
-0.018243868434819024
-0.23572717713448815
0.2123794099748143
-0.08783857691599728
0.006287880021707446
-0.08877642576384623
-0.03402700984230307
-0.044015531911255644
-0.029107794063546286
-0.046835903652522166
-0.10221226784295545
-0.05846333926813633
0.05742177759789968
-0.10723679217489494
0.043261954786910126
-0.06678528923886888
0.12092329861998535
-0.1433590559430102
-0.01143979915572485
-0.09729560860644973
-0.06359097620342191
-0.03959192595594933
-0.02894502973566106
-0.06292136816068315
-0.012600912336667328
-0.02264889006316655
-0.05475516149753995
-0.06296059016932995
-0.056225753121968376
-0.016127347275755908
0.012447013957228796
-0.0364769009468352
-0.02899357081347651
-0.0695543458430195
-0.10730420348706021
-0.04369651183697212
-0.11029653487026063
-0.014852249737743435
-0.031127996093613493
0.0012606599336864271
-0.22170773371467656
0.24276383947376043
0.17018804351741454
0.16089627405387993
0.1469519037882799
0.16429263697686622
0.17288460197054534
0.08562681797432628
-0.0375069433422629
0.1378844999226729
0.24350630694729983
0.15303223216238537
0.23197008719859952
0.27149179231199194
-0.007007074634813173
0.024061375064190996
-0.011200267856923305
-0.013416090159519134
0.03919221954430711
-0.003204961138481262
-0.00201941410910781
-0.04527808063576401
-0.05077981798930354
-0.06258265897005225
0.0038081319675942024
0.08219951145917499
0.032138023077937984
-0.03171183341355467
-0.07641268832786459
0.023368478892696786
-0.09506188218686239
-0.16717431338165634
-0.2985847918485612
-0.11545620977198211
-0.12331795759788047
-0.0906677049213553
-0.12093642325658548
-0.15744288147155874
-0.20762617123218527
-0.30528960359234286
-0.1545659425375343
-0.3704166789508584
0.008915253816113574
0.06968225307181725
0.06147084448989594
0.16832529033506746
-0.06018313020924078
-0.1943523895169851
-0.19935260248439704
-0.1876080407117952
-0.037796327004919326
0.028673871332763546
-0.07662823277171067
-0.13139210363856765
-0.1622696759307783
-0.197858979371603
-0.0715933656252611
-0.06754659084403014
-0.02631702739913067
0.1520722241327567
-0.0625797526154999
-0.049826497996017446
-0.07314453929011619
-0.07546167205412105
-0.05747975451825704
-0.10282466271435765
-0.0647057581531399
-0.05982504100496239
-0.09239869448777846
-0.10146755114297414
-0.09677098788313399
-0.04931915695218156
-0.08392715858030418
-0.07016282359861055
-0.014684615368121733
-0.09499877251632306
-0.08936023775848158
-0.11918384360574506
-0.06187422977470424
-0.1552208897795025
0.022240348239723318
-0.15516464163475163
-0.12347755910898228
-0.08693418375494362
-0.07560030976267053
-0.05415833856867743
-0.06618024552906196
-0.10595960024132343
-0.10698144686129067
-0.02894719151963685
-0.019542045337623184
-0.09183767629446277
-0.12270003660993256
-0.09778437955571316
-0.08339996853337042
-0.030619614462274864
-0.0961654882006099
-0.18034066144686958
-0.11024395266439732
-0.08404872247619907
-0.1248293388720961
-0.20457524127545626
0.024815535209395903
-0.07815115267749247
-0.040997370957929304
-0.07562512079925938
-0.06670870034880619
-0.07992285794332012
-0.03361206771757803
-0.029855921841986318
-0.07462130220677261
-0.1584716548127057
-0.2600787927069762
-0.2960216827929405
-0.35334685720253867
-0.29610779323509573
-0.05204119696842015
0.10195056828921699
0.022563664056025386
0.041748442468498626
0.02486151149862241
-0.007730683115602726
-0.09782215500616499
0.031592851507309845
0.04657747145554953
0.07493712918979924
-0.007725470701154704
-0.0522151868877706
-0.10171209942742426
-0.2115785483084032
-0.049053541821282666
-0.1520338534734182
-0.07489930444804403
0.05679634226853309
0.07650094349446526
0.10194487156140786
0.1796092496214869
0.12867856798240573
0.10629309428597483
0.0985522156930952
0.06896325929233563
-0.008562827508503604
0.0563160473715921
-0.07871631355485027
-0.15362049076510306
0.05313603734839521
-0.02477255621047638
0.08725281478115265
0.1800588080209888
-0.0973659894758452
-0.06947112608016791
0.1675694313310131
0.1753520548019468
0.20234517089522538
0.20340819175033845
0.11903028920712849
0.14941196073510357
0.053232455102751645
0.17308995880067132
0.08824117694840009
0.1300477292232263
0.1599455823159318
0.040245203107952265
0.23339906316516132
0.2588566909832595
0.13896496897358335
0.1373672430882501
0.11979832036531951
0.14953279305055117
-0.17707597119476737
-0.18257155616866486
-0.2204885500858959
-0.03704902432194447
-0.07192361367193352
-0.12770709050702428
-0.12562437446333632
-0.11251549645033675
-0.062175228198817586
0.028570977009605612
0.11011198399208745
0.047332008531684545
0.08050938825698875
0.05143482900920449
-0.029947669086933453
0.16789753050621295
0.07999959769736348
0.10229129741312439
0.10773778055062146
0.08461165723251539
0.007504456011396696
0.030078846170840688
-0.044231624095897176
-0.046791781399652774
0.06109229191148955
0.1286961097684974
0.1506193518731386
0.13838106603797
0.050590577779815814
0.12426525317470498
0.08186432856864331
0.05354626555174829
-0.25733453855556054
-0.135173463343002
-0.2090162821664297
-0.16441023442742614
-0.03589346467113478
0.08718706357747372
0.04270098110092291
-0.0732415917266816
-0.3055785925889085
-0.14390771853503523
-0.018735219641861676
0.027885245885137286
-0.0851946804200172
-0.13267310016076944
-0.060533686536650755
-0.11931516735935772
0.16397891276308962
0.11908318375034832
0.08207782756580491
0.020897137213868124
0.19074842721062168
0.17996480778511226
0.11594545935406314
0.12066746073124356
0.08399628074331497
0.027179297641956892
0.006211509314033454
0.06879460194691907
0.22284317175332224
-0.012329608426078671
-0.11976837702200646
0.16431900010250883
0.18176903411955664
0.1631165368911212
0.23134167029628175
0.22510448627750648
-0.030130836457957392
-0.05299123649332402
-0.1436910521854064
-0.08441169670191151
0.19005693566916937
0.14418272862416767
0.01036922246179453
-0.1055027496927574
0.10238841168223534
0.08994728442762245
-0.12998373189297427
-0.14019122010629295
-0.17639661721259353
-0.12329934948405279
0.00185417567496262
-0.016907637563129522
0.047453547753986705
-0.08272640647794
-0.08584756285661774
0.0017641204584449089
0.1473340483304194
0.10774177975065319
0.024366913708207802
0.0824656982979097
0.03317495052790643
0.02534313708927948
-0.09698928083394615
-0.23949475406855972
-0.21655827693926438
-0.025195262014660227
-0.10457785869733763
0.15293108970859348
0.4459559297875979
0.24619189297391134
0.22145879672084842
0.1075217458489928
0.011307934327065696
0.007848158272784816
0.1968052140878365
0.040897609214861796
-0.20565937981761798
0.12555226708289408
-0.07570555705975444
-0.08122253707834419
0.06576443823894491
0.11257097262744044
-0.060966220156185046
-0.04839392443621981
-0.19205704380846375
-0.15312843525250955
-0.05123792018045872
-0.007266160798034972
0.10280480851683017
0.036651112991813284
-0.17159063717152812
-0.022597321886415
0.022479125698070576
-0.028719577157567774
-0.03516208008372126
-0.18420556444246033
-0.10484819038038803
0.056359372958355185
0.06139738226094888
0.08685138507511592
0.11261825218673337
0.14947474566911553
0.15825461197833407
0.1236987784913849
0.20726654377011344
0.22070014149665398
-0.012796716361185935
-0.12378296512469583
-0.04015558123128232
-0.03516885160340406
0.0923292315169238
0.11775856532210897
0.1628517812653448
0.2216812450164181
0.15759432785487457
-0.009321410702012742
0.182087792945441
0.2104048836779293
0.12828159524442181
-0.014557127431436312
-0.004974073947996254
0.09018826050644807
0.11225604675928924
0.23947610922761256
0.29667284065480237
0.5599676714586282
0.2681732673067828
0.2582084096663231
0.2579031454215576
0.10460657810379297
-0.11372798128172855
-0.08204503302857533
-0.05063799693791258
0.04542676327596024
0.14295715436039966
0.32538130710221486
0.1517607069273985
0.11472043448696861
0.13814823580060023
0.21407932477373484
0.16364225191286785
-0.12832381068100993
0.015799368666290618
0.01212120154544635
-0.028181892737765796
-0.03717977297476337
0.03926095132393059
0.12162223957621676
0.14039374882273448
0.02780368490503221
-0.010290141489050855
0.014286514792940365
0.11220600420575927
0.22696187669883103
0.03828196747443866
0.02426372310159287
0.0772990319796657
0.09531072744534645
0.03616715218246282
0.10500145138658457
0.05340634332074364
-0.20189164521263062
-0.08974706700416299
-0.2037370621094704
-0.24014066662168754
-0.018023047245055743
-0.053250134431110416
0.011426315243413115
0.14062067337597142
0.16842456994697014
0.20103854127998874
0.30464530851223687
0.2595521220968642
0.12922315270811877
0.24933508014973696
0.253091427751166
0.29647608694156213
0.3948571335546139
0.4152305642496376
0.2593161844402779
0.23176819474885418
0.09901497097911299
-0.005763652275266462
0.19523802785727407
0.05773342240228015
0.029293215327309927
0.006742733238378332
-0.03642268657121412
-0.05727791661070996
0.02449157303095488
0.10231509655859902
0.09304394044536146
0.10624644185590884
-0.06275883284750873
-0.02843794504239003
-0.13447059447072293
0.018760286061200268
-0.04292010044649826
-0.019634406036784274
-0.02589575189809361
-0.01266067911441983
-0.06528273338868636
-0.005383347260976286
-0.14762761302329067
-0.11025083969530891
-0.03916226698989157
-0.10604262385958035
-0.1780864252312996
-0.1310607696212815
-0.15972307184273732
-0.09860304330154533
-0.09962859499216911
-0.04508722125961166
-0.08304882185350676
-0.23950794504415815
-0.30331551237453935
-0.0611267885917156
-0.20104243176242734
-0.2516302565336693
-0.19823999272920548
-0.11765364936924205
-0.009357424211007043
-0.17129959665457528
-0.21423940828356827
-0.2279484154945144
-0.3429364568182048
-0.3906715371176273
-0.2414381445671039
-0.2676162434508734
-0.20009474148801215
-0.23937631508366677
0.14058129019490118
0.12782180114557706
-0.08009704275853433
-0.11258093393911087
-0.10663116028455906
-0.1519447054455217
-0.11931349100376168
0.010683500475332697
0.05952319243422808
-0.17073246026946387
-0.15791683306356025
-0.0772236490192156
-0.06327342900697827
-0.022662337721172772
-0.13429627035507535
-0.2055581634057191
-0.03728979213675655
-0.11477686284516936
0.051725443886290606
0.13579553548563927
0.09078138923121747
-0.06842773915993781
-0.15044000669970833
-0.09445970118747497
-0.15128216042602896
0.012675251077122708
-0.11393336959110154
-0.13743566244435443
-0.06180766865042891
-0.003059291379035284
0.02550223194514449
0.05974327641170308
0.08585578507961235
-0.07705089212964102
-0.08920849660267978
-0.11665277379213354
-0.06406221976734205
0.04268526630514095
-0.009805447929830579
0.02114124523279641
-0.08123618647081282
-0.05722069655417002
-0.03093393779401926
0.13949877046659712
0.05279367062841953
0.07316912409827944
-0.01445130697374064
-0.010059080708275915
0.015836157894584153
0.053022431456936754
-0.0846550977670182
0.016833056556269807
-0.018470045332587306
0.12456290727372797
-0.045674984975551454
-0.15889980262342282
0.016997612980796068
-0.004692635632155479
-0.05344648170730728
0.03292533833423061
-0.01940532080486837
0.0960853185273146
0.12472110311816811
0.07934747580368175
0.06770952864447013
-0.0023649222912084855
0.2539796861674145
0.22431759566174939
0.19992625725320218
0.10222370680739969
0.005370226485282693
0.009978462799737926
-0.040326893032891616
0.12852819960763062
-0.12614670461516592
-0.2356318685429034
-0.1485427582742497
0.2306002715636581
-0.0026832390320906535
-0.020281124969323876
0.009483708159654927
-0.03318543939287968
0.0034934201472780362
0.13487800900789743
0.08673856377467158
0.14815876056701444
0.09651904038854839
-0.1415620021475577
-0.0651459371989206
-0.30654264360547273
-0.014450248985633265
-0.08457765631130186
0.0952553032035263
0.01686480989964955
0.045098755557147374
0.0317249252535776
0.0028975836174650205
-0.09722713985914762
-0.11636877769017097
-0.18257885635339371
-0.07177795072931852
-0.11293393226139065
0.08429585429346913
-0.04603768759099568
0.08504527774489311
-0.00822939432163833
-0.04165966094904965
-0.03431468395209241
0.01299306240671637
-0.08477642355973133
0.008120750504506405
0.020190110242132284
-0.07706128098665932
-0.12264113410350208
-0.16914883689840537
-0.17231908433608858
-0.15097369551841341
-0.14734325869674125
-0.14754148469803666
-0.11617844510037853
-0.07474241361318006
-0.07925168951577281
-0.04099608163186118
0.0652655874845436
-0.023758573087531355
-0.1304288130828275
-0.1803042045025445
-0.13455156269507604
-0.12281209337034613
0.0028745428281246816
0.04588090708811147
0.09028560572795148
0.03827409716081691
-0.05974121451640414
-0.1483173102267372
-0.09884452386429102
-0.014461928378852027
0.00670964474352571
0.09275948246612395
0.1563357620033053
0.08094675677749791
0.05805857608513054
0.10498208154187126
0.01587187062768294
0.15477078329430974
0.005885543067757249
-0.17734326927072214
-0.19751571225740033
-0.11859131145319063
-0.1735865245113602
-0.1467014752291687
-0.08382937800542106
-0.06424886183796805
-0.06748207431616131
-0.12360335224988181
-0.1187363882201148
-0.017458745365875793
-0.05682922380423709
-0.10490639339949488
-0.2404710192028015
-0.2665929289259614
-0.2039484975860567
-0.12571997508491495
-0.1406085758717009
-0.13826355126663045
-0.12573740201187056
-0.12144025944712764
-0.11916526638939667
-0.28971009845855433
-0.23909782491677142
-0.2401215129717267
-0.12995027925443023
-0.028411127688615184
-0.08659084393322032
-0.09643041005941001
-0.003832743376165138
0.0035074537727494415
-0.10028905638002478
-0.10636146563418081
0.049707002003045266
-0.09407579291774457
-0.018422361151911537
-0.07151086905533195
-0.02158235397586289
0.023067153786282938
-0.056673158011195233
-0.2785490598853613
-0.1367062781972174
0.1448527493750094
0.09901595644533893
0.08785995499987935
0.052474982145528926
-0.0025832249526833457
-0.05950208502859452
0.00956738472500217
0.149822368755227
0.21587043411004903
0.11191530591145873
0.13120869441231753
0.18750559073746878
-0.007342386578906773
0.2430930330432866
0.21909730806368646
0.24199341127876428
0.18836178476226428
0.051270807838320616
0.21415106085918875
0.2532936831619797
0.24155768982933346
0.22822069696579395
0.2411861578639164
0.3060125607808202
0.28914851187480745
0.4041179579338791
0.3521441645551508
0.3153166149861162
0.3549080928324448
0.3982356103168158
0.4861139555663655
0.3703650858541287
0.03002585539683955
0.15771771190824682
0.07679593946466179
0.07700455779565954
0.11347997876862333
0.11659415060691997
0.07276111715089476
-0.023544644514300876
-0.06986977367427995
-0.23991482054478577
0.17065520029138356
0.0636741967370931
0.022871029775261283
0.02073544944288562
-0.13470281080913687
-0.013813593670979871
0.13813756032234328
0.1714511831170175
0.18302037523268747
-0.018281059454523015
0.18676104384837167
0.014294098037878393
-0.06534645763782546
-0.04136220128398329
0.01814362846373455
0.025356795354390844
0.13855898189691082
0.180424410117333
0.24938718951036642
0.2847899255372352
0.38863772847111794
0.20154469491868085
0.28024008420786783
0.147607751929288
0.111219832627979
0.12010187870548443
0.14970263130942552
0.11688275650423936
-0.06318115011776664
0.11590661759157113
0.2817226451238435
0.10805840340977883
0.14333291611761237
0.04400875197741328
0.18312953770974078
0.2664597659817025
0.14253644847460054
0.09897738264419711
-0.12517581241532796
-0.10298187312722243
-0.16013170112347852
-0.31705410664412464
-0.3247756337787603
-0.30013298490516027
-0.21979716347603118
0.01091933741809329
-0.11275774603006301
-0.1363308661484507
-0.1763165153488456
-0.10421213457927142
-0.12245623008660317
-0.18409489335595952
0.00011771047902393546
-0.023594928368322002
-0.12166727231148228
-0.14836635255489244
-0.003375240625882973
0.1024588166592705
-0.026282987244893266
0.07922093486047757
0.16149290815036105
-0.019011166444201585
0.0171027761081927
-0.04322271553401856
-0.1284710919718404
-0.16218327921899564
-0.1759476148999783
0.10526880783505725
0.2104740678840784
0.2042345324283149
-0.11584231824133075
0.002940866998220992
-0.020710019660773495
-0.19349491763419047
-0.11718810010290165
0.02771798009224463
0.34574332977427996
0.3347759591615679
0.2843558207649438
0.20626723730187171
0.18754787363700115
0.18817782726132995
0.22376835605803885
0.269760502029966
0.277813615028846
0.3816260168367892
0.219696425379527
0.15252455731016343
0.1826736357146567
-0.028787314765315503
-0.17310443931443698
-0.2774691872956583
-0.19667217771770162
-0.14619039681581236
-0.13674447160139247
-0.06386948637419758
0.07067188007353711
0.14148900672225148
-0.027014718936074864
-0.022547764222518207
-0.17540406094415226
-0.1327976998216746
-0.056418184722440666
-0.03387153236700739
-0.029529218822857136
-0.09677082303632796
-0.08843951796594283
-0.13907919515470477
-0.1577897334534384
-0.0792508192112122
-0.027478741382018893
-0.03395282101073111
0.10070436879124442
0.023179546198579686
-0.02578621378880496
-0.030780205604688467
-0.020307919935215118
-0.08535501337710145
-0.10923424614568716
-0.12510096460150666
-0.13873529206035798
-0.1893101303923724
-0.06516458364434546
-0.08817037772225443
0.010404557270371952
-0.07403233610035163
-0.14197609995253033
-0.1073050172385609
0.07984918573493448
-0.03798986380176029
-0.00160240089527277
-0.057212414315466795
-0.04285449304493471
-0.05583948266775058
0.010569659876319241
0.2636897578294069
-0.00030463777396589004
-0.14583398019734647
-0.12049476586702931
-0.024119281219424908
0.025019762365675553
-0.029734280161999874
-0.09518978789011603
-0.069846148642411
0.05513486221745958
0.08704386810222468
-0.051328719295023466
-0.12324856426559107
-0.1548588231817421
-0.20149646387918935
-0.1379877130390415
-0.157151365671619
-0.12343505330655999
-0.21928276492119947
-0.3768250904413667
-0.23312736650422802
-0.14032900826956818
-0.030403362749119294
0.036796782619736845
0.03660173107315126
-0.05234355868102917
-0.27874110535268215
-0.18251167409408622
-0.14858004585709877
-0.07710032327762711
-0.12784473586980394
-0.1335780540712057
-0.13987637050072277
-0.19265240962955943
-0.08451677241830817
0.04274085553753584
-0.09703546581700014
0.11208363602945978
0.22800490838227394
0.11334825299781558
0.012420293748321142
0.061057628883510046
-0.08359669593872679
-0.3249184382971655
-0.003989419348507548
0.054488730471558874
0.12233696822094942
0.03927690311599102
0.006153347867325649
0.019564930596782916
-0.05683164706211136
0.03154581546326557
0.04463502506869901
-0.008225921797021469
-0.09323272689409492
-0.17367694596112204
-0.04606714826866824
-0.1264442721067316
-0.1604354915340203
-0.10720489947410324
0.03938507994909024
0.1707354245134176
0.11228405041466846
0.0165396164270235
-0.04630694102857309
-0.04050289734225182
0.06543787311446413
0.09919612941592466
0.05307858413076309
0.042624850905745956
-0.20466183946698907
-0.002615976431312987
0.06698284711068597
0.09900532341266194
0.15947115874998422
0.15393917262168058
0.1383773776639653
0.015645788895164325
-0.07138249792106327
-0.0315737209149869
-0.04078932457176828
-0.04151706219366215
-0.0757331725141201
-0.2982170730512671
-0.10802500354557217
0.03479102841236705
0.07897109625645916
-0.04774747408309788
0.08105676259433861
0.34125083051995925
0.17301324782747005
0.08075412197022741
-0.07321512070345876
-0.20083944126908798
-0.057103358789893116
0.045433641988631986
0.061067175622003284
0.10407452343069604
0.16431363131254084
0.15159889751642208
-0.018409988243577122
0.08737406041131064
0.007645998122212619
-0.1880226027740911
-0.22376039934288913
-0.2865588042469052
-0.28091667375311263
-0.1030087661055987
-0.1290291739496513
-0.1827698146117431
-0.2405354076463402
-0.16895002950695984
-0.11058159738847591
-0.16726973355068867
-0.003565768427510129
-0.07657468536712102
0.007930637375967615
0.10558626124094858
0.05389972305829803
0.0007121298297307185
-0.03147260392566085
-0.07060144648993912
0.04658860155602623
-0.052747531818009924
-0.17558018816513646
-0.1860228499446988
-0.15345474513719665
-0.07635402777727557
-0.05797188001719909
-0.052361489962631486
0.04830683549229897
-0.1102133236250551
0.14831841630971102
0.08414587708095989
0.07578380035096088
0.04078098994373931
0.028469704449803825
-0.03393955961063265
-0.1245204969266267
-0.06560371091329069
-0.1641150091423958
-0.07382063742241754
0.02345122416987121
-0.14926353508606843
-0.14881052133099484
0.0881652981435533
0.0738960851910579
0.05312074667825045
0.14848498473865343
-0.07745304006141979
-0.07875451462812258
-0.08089231422170953
-0.08157660634519937
0.009762812079820873
0.08837844349973782
0.17959027440291783
0.2518451045462966
0.17241234116766632
0.15527001833906515
0.18949428191493448
0.11815518365465254
-0.24410370545976556
0.14787425288409278
0.09693739332000131
0.1228368394138922
0.2529155770782203
0.13239490625960063
0.15988481848004113
0.09085884402517701
