@CO	shape:(4851,)
@CO	dtype:float64
VALUE_0
-0.08891290875890781
-0.002696779942803087
-0.0875197435335506
-0.040078701705756274
0.1460217254748566
0.21686200645950965
-0.09599679307008392
0.07354926642160216
0.14687559948649986
0.03267279002922794
-0.06357241898649342
-0.13838014142057745
-0.1122363365948784
-0.2812546763230845
0.06306740239910304
-0.11936692169590207
-0.08348829495330418
0.024439501033918926
0.038808426873814826
-0.12785399695384356
-0.07962605836348187
-0.025756134873159624
0.10696186620637738
0.09670921701963092
-0.07784966120867458
-0.028212188978907322
0.028933417994284606
0.023812669659843185
-0.0577812991010598
-0.007658717703849592
-0.007070009199532665
0.0706348257332699
0.13909803925151293
-0.07676523151526035
-0.026388998801772742
-0.14362827593302963
-0.13769295972467682
0.16606170844912446
0.160071801987898
-0.0974630835751039
0.2449619622289476
0.09094706542133045
-0.02909892447148644
0.0893561002410556
-0.09238889909615909
-0.048827766839720614
-0.014917353203664585
0.038233302785686755
-0.015144862031359764
-0.02031584161012116
-0.31089927390395267
0.01762354795534906
-0.03663950509401862
-0.06298254650432653
0.05173771927492343
0.08825473775169908
0.055042786479931646
0.0478946033752276
-0.2405776664658492
-0.5294854290051392
-0.04531907884334241
0.0941112496230553
0.07532964916343787
0.16678638854152514
0.0868301960454588
-0.2134176164532848
0.02528286207383003
0.08081261653191191
-0.014386790669240887
0.050944977894183514
0.1115264996126646
0.09948698675796225
0.10606538786822803
0.053261536599198515
-0.3022572980519723
0.13956135813774875
0.1270619068115415
0.3377370959162926
0.09524732261402893
-0.21578618877977332
0.04905942523526486
0.10892900666745886
-0.25622927441358645
0.07183034212324022
0.16509968197436817
0.1064985328998784
-0.008467171726598005
-0.17600819444371713
0.001787323153697173
0.04130956011902639
-0.039478526873598374
0.14159455130245352
0.0667428589741826
-0.02830007152742333
0.06474640315188736
0.07359800368623627
0.10612587327996544
0.13823562805150927
0.10768249336623423
0.04759655153905287
0.058142430445208455
0.02833804957970913
0.005044736152344411
-1.2268935863857569
-0.19400974120171416
-0.09937190539120346
-0.30819990326124425
0.07891239181314397
0.07211319088361552
0.038864190173147815
0.07742905303295153
0.04234558225675429
0.12387856577467168
-0.1907703517528442
-0.07898624630303593
-0.02526332049166378
-0.16698220316895837
0.09354048219510804
0.067409604103935
0.14588046812872765
0.1547787047138659
0.09345954373063584
0.07308995160418008
0.14626433549559528
0.26717588828919714
0.13712753512267148
0.07681948982130206
0.0872904633371483
0.056850091347539926
-0.3407469244163825
-0.08267080151060148
0.05820994228371124
-0.5283649232545533
-0.23272180916508775
0.04558585926778371
0.004916553132965348
-0.1789401422930568
0.005352025108162175
0.022740615147552976
0.18099450472812692
-0.02444323438545921
-0.2326509681142061
0.043702549544453656
0.06331504739695577
0.06376524427442536
0.04476319052940277
0.009617567897760162
0.02992714399237814
0.04257178668028504
0.08565213389471743
0.0738340495976737
0.08247472143619658
-0.08898168301440237
0.007829630279748263
-0.0363811509313931
0.27895197204006716
0.027248207481510998
-0.03588764286988936
-0.1817148907639267
0.18985205903830654
0.13215401541095947
0.1769010617781115
0.046723617720787654
0.04173001106559768
0.07748458451988126
0.07937161108280175
0.0718859494173719
0.10050624977014327
-0.1513751341816801
0.13576959012531142
0.06826567245144963
0.26366167138403923
0.06116773327321374
0.08632938164729088
-0.0639734570799916
0.07896198756954668
0.02083377191920458
-0.03524084348227529
-0.028011384638943045
0.012679972057066096
-0.11516940490898062
-0.038570541242978144
0.0705159052834747
0.08380748518052517
0.19662222485947728
0.11904117837257365
0.09504010082931058
0.026017799578507295
-0.09249789114165648
0.027135420991142963
-0.14660900030388488
0.08189572461831895
0.10180545327759638
-0.09308541434252594
0.11018710833353187
-0.20685329850652767
0.042698799109977405
-0.08461915521868861
-0.009925195762166224
-0.44324625534639317
0.028403899192410875
0.05349436545807035
-0.014375346798796594
0.026247495780743875
-0.03623185308958665
0.10880338563474674
0.05372824541458022
-0.2635849181240444
-0.14455342536458013
-0.012798934067018196
0.023348829470845028
-0.13621057484330448
-0.20879269614225104
0.1337651560700935
0.023195297019590007
-0.050879923816599726
-0.11239944302930802
-0.3764319612288282
0.1234585199207132
0.1543754848427308
0.1846852579519948
0.06262328227462315
0.10383670339256837
0.10064947023683224
-0.02998654898888216
0.09632852311054278
-0.17981623419672704
0.05717797463423405
-0.2151447682099062
0.13030797274431632
0.07975126630531394
0.0257649809604292
0.11294799660742803
0.10591883569601987
0.08623861163385933
0.06181802315847569
-0.3070697942358878
-0.23915625086010794
0.031408293156347196
-0.11208996584435635
0.08244241522074935
-0.0552112100618588
0.025386243670581624
0.11190968144862935
-0.14788237428931003
0.02183652286585739
0.05715861730485581
0.07138350248662181
0.12074079561635813
0.08697624327807371
0.05852707171839573
0.11233031593368421
0.01168861079677357
0.05000794308476311
0.17471163324495376
-0.057338055697714115
-0.1276557561258584
0.0046717902032089795
0.049159775313205686
-0.34273426210861146
0.005820419359068973
-0.14452168308288718
-0.07744373174918003
-0.12209930839841732
-0.08648634815242255
-0.07675333026087497
0.07136863168459902
0.01239096385362046
-0.09466407860190566
-0.40931595985243685
-0.040242834857981295
0.038083910899588236
-0.03035221184770239
0.1443594764724801
-0.21810786953458003
-0.2136916701291761
-0.2498919722006779
-0.03365518852429514
0.12501924245544066
0.06672399182229474
0.04389604349747512
-0.26935969603983767
-0.08192557814208236
-0.03384942285432828
-0.0397716264187501
-0.012232647191289185
0.07974281355530116
0.102773311185924
0.07926257952457803
0.08262608677952067
0.08194911615408054
0.06381171017676406
0.10329121357329911
-0.1453070440210052
0.0713131152800711
0.06709796849652319
0.06771257408722778
0.047617418136767634
0.1046639258153883
0.14325378391567645
0.1488670050351793
-0.04171732614212631
0.15021711516741998
0.08840988984734201
-0.06770394032074387
0.09357339101538419
-0.031354379054233744
0.013684802835753485
-0.22153483871921287
0.11059060032498197
-0.04299013474301024
-0.19057098128430247
0.2950451049834999
-0.086940005963946
-0.1752275235759576
0.005160916198238653
0.19291904184972372
-0.059117220970476315
-0.12579022839010587
0.049220372664339096
0.1369503286902682
0.10518851002816963
0.17606548613497894
0.11962061464380189
0.1821586416918541
0.28547456135470245
-0.015054068140532268
0.05851419271124513
0.0912225468775324
-0.18565973443454165
0.085905072550973
0.14835411953437852
-0.376161300672421
-0.09902930279729423
-0.124735731834907
0.17505978860274496
-0.17928041698993932
0.016655303611219984
0.04990122341129695
-0.057462648951592865
0.12707167640103936
0.03485817485437129
-0.0021835339098667315
0.014729829679808702
0.0018500246405336177
0.03273369282316182
-0.07735664859569598
0.1402466032919404
-0.012222494443650648
0.1677720006481912
-0.06559025400282031
0.050151736547444356
0.11504561740886829
0.05177556879808892
-0.005099417895536263
-0.3145310638100213
-0.31247815862545275
0.015118601173022514
0.13151023227927713
0.18986244209548472
-0.018841149482210717
0.02683353148927902
0.010454205597632878
0.03668393445962847
-0.007105511684165253
-0.013363014232291496
0.053639359259231544
-0.22552748551744325
0.05382213557678894
0.052150896974192396
0.023116335362306492
0.04013452153704559
0.06556350079317398
0.0757274108145233
0.06470821650496836
0.07662560276238248
-0.005122525253417262
0.06783508751889974
0.06412652257272736
0.052629447245782564
0.12586318215464234
0.11428210309912738
-0.02614142572875509
-0.11884691792188244
-0.19254037313458833
0.055876809416167295
0.09694148713690744
0.0940150595287751
0.3439525428555074
-0.010544945353254911
0.020924270380135515
-0.00147985081405807
-0.014685884834528215
-0.18652127634272198
-0.04838491646174795
0.051175889293615905
0.025725123111656346
0.02074953923470665
-0.0066741703593278835
-0.1541120074976767
0.039818824664051504
0.5201928998703462
-0.06888366459865392
-0.07380606900467035
0.059763108478640276
0.024446040284300072
-0.21947078966447842
-0.012181017832691172
0.027462307373795368
0.02502273753956502
0.015379698397592366
0.031906612312879466
0.1615075042328541
0.09635233015645854
-0.006298605040963047
-0.13547571461539848
0.04502195582964857
0.03360725951113432
0.06671133672461212
0.010487620486470608
0.0832543993941267
-0.05812360557707137
-0.06423743920060661
0.09702195867748284
-0.06817331083201679
-0.16071754327212276
-0.020576732439095417
-0.034282237123418505
0.2504885780335973
0.11869074412489686
0.10179866138733862
0.06046426694088171
0.05261749251332533
0.07576651380079454
0.004816875537011837
-0.061393224478517236
-0.05622495747646455
0.003315324044183534
0.024988172736777326
-0.035056730087006466
0.17622729611026855
0.009422413267864659
0.11163450386568442
0.1799013118076128
0.12883774041233273
0.045779410246133335
0.02761032780364523
-0.4771005758962897
0.07630084510437007
0.04538380660998359
0.08347226086916569
-0.0842145276429426
-0.1014762719457918
0.0740394681284445
0.060749243659247894
-0.03620158865897703
0.057306735586400426
0.04868504697471765
0.08879515690703503
0.093719726988826
0.10082524917054617
0.11898604011991393
0.16836217806451748
0.05628937365721587
-0.1306478915197668
0.09234137783831088
0.07756193101546786
-0.021488650403771438
0.09931743902381279
0.10291551304136974
0.14583138465088666
0.08409265736725488
-0.06292365798783976
-0.05365547096343515
0.01150037520442854
0.06307400445227072
0.09222945332560412
0.05797503014190407
0.020615464369102846
0.03203641486162952
0.059787384042378516
0.038195559851290875
0.038511061942711367
-0.008025120971154417
0.00826580160030193
0.0037239995208803224
0.04044389144704433
-0.0019620346697094026
0.04294176099601474
0.05493618902570903
0.029853170380787893
0.0424539558160642
0.007861299444084103
0.024835796176557918
0.04707357239505042
0.06251182284562366
0.033314730560307516
0.01975074126693175
0.0641856380545884
0.07455121607644213
0.08119200910730578
0.04495030670891794
0.051685714206859516
0.055863154124857754
0.047045779068514704
0.03973392929752227
0.04164731136160523
0.08816430340497652
0.03063429022599062
0.06022432525118645
0.015351128163907459
0.05555123761915639
0.023186110411463838
0.005829509806398744
-0.11152047880409435
0.06559997823601026
0.04945610403139313
0.06443103696018258
0.03161288801892582
0.056386376676468807
0.07206286923419554
0.09761597487611512
0.08620629256126061
0.05677276674010664
0.05728542066548476
0.05572723423758462
0.019906557857153104
0.05133401056450363
0.10126380390555846
0.12919873925679964
0.10937181132948105
0.16995442591460969
0.08633529131710505
0.05936444230281905
0.08802100988521862
0.0379492783598914
0.047460962317110104
0.0829877657351952
-0.13446146236974188
0.005473595723799981
-0.04771280303356832
0.01592146539260108
-0.12892873225153037
0.06693793996245073
-0.02326742365888231
0.03167915608247137
-0.016170528103376085
0.22449498773725562
0.12103558473445794
0.10826563177782675
-0.09630885289875103
0.045792210223518384
0.10080183119634978
0.08955958772480256
0.11762470417206586
0.07914289381695937
0.1218377149045977
0.08789168357412326
0.12878805885503752
0.06001120773126211
-0.14504384693481492
0.01576215708100993
0.16195231314503042
-0.3270622888083795
0.05683154885402397
0.031404489011339416
0.053350010026148864
0.0589846676221387
0.09728765781115815
0.05876989025935441
0.017526604407587923
0.06909521443262351
-0.15372839670089666
0.10332485502045703
0.1545139889052099
0.010171662255747962
0.05394322571947648
-0.006332982644460498
-0.012939203978164183
0.042770603391827484
0.06008069458870216
0.07813796854745123
0.04578834547475212
0.06192925850954959
0.05778287108152609
-0.0354701813871235
-0.16607917013985823
0.0054405680911029175
0.15080201454894285
-0.08928642411681253
0.041452522079605696
0.12452752118648215
-0.10797675117978645
0.0478802208392054
0.05899851151707169
-0.014637787260830079
0.02452311742490607
0.02770209400837805
0.06580660328657356
0.0749171173775735
0.12559788064889157
0.06646181776072879
-0.11863732967432108
0.06699395869197337
0.02111411501437605
0.028069497676089555
0.006571424672733305
0.026550382063719298
0.0071039923775131015
0.04307514340800986
-0.026374088973259165
-0.10545408184142738
0.22193089377478645
-0.0102191347688429
-0.08175532029044764
0.015285518903943925
0.1304720934260994
0.035643414504200936
0.05595938428720926
0.029998724777326128
0.1827613115333805
0.03366390012661569
0.017026478942593525
0.29952193417022166
0.16375710097857313
0.16994802848662938
0.24155562395251193
-0.00879911979346759
0.10109926610229586
0.08897948458810458
0.08638644140394723
0.0885023664731679
0.0734323862916899
0.04196740577016768
-0.2366265669547525
-0.07140495060837891
0.01928747043643956
-0.004309882517235443
0.05770903079018419
0.04702597883670377
0.04088482189002697
0.054900650904244154
0.05591762520566347
-0.19391502882505166
0.1625524560270242
-0.15145920390917575
-0.05576790613299568
-0.022569390080363527
-0.020785220308293186
0.03469894526900587
0.044868709068586636
-0.11189685920202355
0.11736926941096217
-0.42091381290175445
0.07133263184768089
0.09741773135030944
-0.07810141483716768
-0.013653691784354138
-0.02602302711442068
-0.2590027412585243
0.005805971864668828
-0.09344861569719837
-0.04120409367931001
-0.15744969730318803
0.04745180187313319
0.023408168658952438
0.061198676167907515
0.06417006145846055
-0.03843215029325557
-0.16335869384071705
-0.13644874574475133
-0.1546883649840989
0.05214583610213241
-0.16930675734305636
-0.7262556321797774
0.03292236768035835
0.024208902094979674
0.0782709238294975
0.2515333484277701
0.08034884826016397
-0.11918209372111278
0.032890702720467346
0.09244777252927194
0.20949751857982707
0.044280323658618864
0.28097808846179495
0.48086075179393195
-0.1699223625322717
0.1460015817381036
0.14816145954585708
0.07690965262792653
-0.021401850524275238
0.13360380646284117
-0.16767022875746565
0.05937813760392425
0.18072374156383406
-0.20519066992371593
0.08153323045977076
0.07215063959906581
0.1594185271339351
-0.15953006045996102
0.03480056411065993
-0.040906610036519166
0.09995567070576572
0.10676562087212581
-0.5656732454939524
0.029381105628114645
0.16261830808444153
0.09521965959690791
0.09507324824776074
0.057538494022359145
0.03945967116898226
0.0394072249749582
-0.07223364363598364
0.018841326062023576
0.09261361887799195
-0.07121159624900213
0.04585997299763352
0.07695105385393655
-0.15128526419936236
-0.11022949666139513
-0.06283896097600604
-0.0062067436151768554
0.07507410466465327
-0.021658190039698325
-0.29536254925847205
-0.5309091550771685
-0.044488147402873275
0.08784728684805826
0.030888566397616318
-0.16112049731256556
0.03822957581508098
0.04112505591370585
-0.5142503723406215
0.032879325342543946
0.04096300652538136
-0.2870004879618906
0.01603763915611697
0.09101749211257526
0.07075879414071842
-0.023767040788930122
0.04669222249562765
0.017342184631984392
-0.33345586635407987
-0.15593330250097764
0.05379274113678228
-0.04676617282978023
-0.0668727025221942
0.0535531070394944
-0.03802967814955971
0.15268536430488228
-0.07342767419434905
0.12841934800341542
-0.024711187288296816
0.08854885902600552
0.05781821104448374
0.11563547287713954
0.10792769604987303
-0.05470952260040298
0.0472654509022858
-0.378818319331215
-0.21173971876392897
0.0428709261432976
0.05367188449746232
-0.0004544523373905449
-0.0731288092460092
-0.04180228425271648
-0.25301745492411243
0.01690408848158891
0.029674331137374742
-0.05064837976231877
0.021244524761059747
-0.007020726806013654
-0.15981090030632805
-0.14869420746973477
-0.07065829681853425
-0.1930032404354863
-0.13028805609430316
0.08225295952626657
0.03774000697908301
0.03878054342377256
-0.4462697493404033
0.0742041217488983
-0.12814081232706057
-0.2554090619247643
-0.003339421174200502
0.04479889026658514
0.06201153552489411
0.030167727245759633
-0.15040104963292514
-0.077208152947272
0.0474039033475916
0.08964899041219349
-0.0049177965323127714
-0.06801321826253963
-0.050128776050619536
0.03545017028707401
-0.2109436466105258
0.06176120144200608
-0.2102765398761822
0.1404956769749399
0.013344113825483174
0.07197103235946081
0.11332554210979942
0.21666830252354982
0.09470560497718541
0.19828813770130005
-0.08640951565595051
0.2337079829395952
0.20979045693930298
0.11240653875083202
0.09069479176452012
-0.6775689962342262
-0.8528512007303356
-0.02096485380142528
0.15791181267490512
0.10210365057014292
0.11139689993059951
0.17477696314681665
0.11688432218597743
-0.9878533293401015
-0.7930576768295053
-0.7886819230664658
0.07695180721059128
0.10259303049127219
0.06546514885250382
0.09760971826763538
0.0720047933972898
0.09897622291248866
-0.07122073434066653
-0.5487781481036468
0.04307620219209803
0.14494258157923065
0.2372790369089304
0.1156876797586143
0.13616999687801667
0.06864681475072108
0.15285034664043254
-0.011073809788271903
-0.08028959612176764
0.16069198968655826
0.07560913414492139
0.11003844192386036
0.12142995402119812
0.12432433204295588
-0.2091858876771373
-0.03658741274360445
-0.09012023930708701
0.009728866735265951
0.0752985091936069
0.12001151817927759
0.2230528103786758
0.1774147801224568
0.12359642927516237
-0.04986486733621664
0.10148186963918052
0.002597960483186545
-0.029844576773441343
-0.689137892796176
0.08171288476732558
0.09318071762010284
0.06696679722719061
-0.23159900747319792
0.026664306243673157
0.17064069346058763
0.2397650915264353
0.08799810569139462
0.12556782282244922
0.11294080055584431
0.018926993299374778
-0.2871534395129906
-0.11537632271331992
0.06969813707106441
-0.1819237052062226
-0.11709874549214899
0.0015868808847160167
0.10000365588572577
0.06809482433732468
0.0007344637676136852
0.07948374448751591
0.046636223915666436
0.023040309164047028
0.05412644980903927
0.043271194177523065
0.3925504826028468
0.007917926495910785
0.059184233415486315
0.09803656918278626
0.09900494707249333
0.003684941386298603
0.0356401126462255
-0.4176804104738217
0.16700215518690284
0.16670927018925688
0.11099180830029136
0.1290516223989967
0.024086418513954256
0.11306220072532748
-0.12438267620651179
-0.04822561347180833
0.08174713304409979
-0.20443427816591372
0.07030230083551611
0.08752865454618958
0.09120229056544166
0.09410328377169597
0.06748257664118137
0.1312042701561427
0.07686653767416053
0.06500584360783603
0.11485430778930139
0.07898353375626622
0.0693110664769271
0.12761921357348233
0.11087561130244067
0.05293529400589639
0.04047432619817185
-0.05366025142035948
0.09571990423160055
0.0701603817687995
0.11950577977888069
0.09856801255676295
0.07103538409647
0.18975382281393588
-0.022282563741168757
0.02950239415403522
0.057727945908979755
-0.033945866657538265
0.1832517180560249
0.011585852025993812
-0.057330187355570925
0.08993673931772261
0.041313942527925744
0.009526532470252605
0.010747094954564124
0.01884202947585075
0.18022354314908123
0.0879489732180573
-0.10475127100657117
0.03403102059903146
0.002232122032004795
0.016040485114695326
0.045077113473278516
0.04652000518330947
0.03833123965473843
0.09894096572213053
0.08752569760311849
-0.12215127094692521
0.07026131053821971
-0.01746473617949554
0.01367148357836291
0.00758156726140344
0.048457564840596906
0.1074304607067643
-0.2006597665024236
0.05120040087973752
0.1576401048939336
0.045885575556689054
-0.11383916998495881
-0.07064684248130242
0.0547232307742243
0.10700763917322409
-0.10512162537491433
0.1642426725973503
0.12464792748791927
-0.047720869551922895
0.2594407859781866
0.4286737535075957
-0.03778414837612034
-0.13681445918306112
0.08665794135651472
0.18574410637536048
0.07354505825375054
0.08247465342545025
0.11941187716674972
0.10315148419043989
0.07937974273958862
0.13011394065733728
0.14073054743724372
0.07466909205617082
-0.04872675478361645
-0.3919070189552928
0.008882886702980677
0.08305027430434993
-0.16776023788157096
0.03624993466390448
0.06370988436876066
0.10363600585207126
0.056228871422389595
0.03239007744154218
0.04653259770599871
0.07585573917820246
0.04638919277996782
0.07661622113578995
0.15720614595744722
0.09486611538168774
0.10320500907596933
0.38865813374505576
0.14226496081558826
0.27007896621879185
0.11436115927441062
0.05388333554254409
0.12004416496663381
0.10602298414137896
0.12017837792231333
0.10435989927829863
0.1601450904418683
-0.005481322905311073
-0.4885400058274988
0.14595566336005325
0.07774819865650652
0.10040565233746533
0.09506770044624212
0.10346244989044326
0.006833123041789379
0.11822984521279663
0.08200693317445623
0.30473155503013727
0.25647766770629365
0.1813792133751504
0.0037864525828592193
0.1001648840564204
0.07434882004359385
0.10363065123310504
-0.0062290375447920186
0.08931514120335282
-0.02951555193696554
-0.10505064017462556
0.0698049347242032
0.03993096881339727
0.05786947854497733
0.10248914450250018
-0.2315059072302007
0.004616239595526231
0.09314133960874366
0.028792756526077753
0.06026225973756232
0.04373232738447552
0.014216754529406921
-0.003942845317532836
-0.005017296865826875
-0.014695448341314196
-0.20360798975970937
-0.001993363474790061
-0.19099311261980936
-0.03931858470916051
0.012486064758378154
-0.0063933476349203044
0.07202455678671024
0.1245032281540356
-0.17137005704184846
0.09968134169144978
0.07741446699332911
0.0019428084916073016
-0.07006419552440236
0.13369047157546401
0.06568537939591305
0.08276448851231633
0.07548433251757158
0.130803226565469
0.0882389863857733
0.025233788122010093
-0.01997664230161173
0.21201697654205653
0.28291811754063745
0.11760988343018047
0.15948399278791953
-0.006669155644540627
-0.15228635305933821
0.06021467912086669
0.005526987884895657
0.07200491280721072
-0.011467145230835942
0.03480175658098667
0.12809402954220578
-0.08022878248171164
0.07645896133549923
-0.004006786669250066
-0.13162428889304253
0.06850941844870753
-0.16994115669304535
0.08831384865020223
0.09149972168388354
0.045588262831894925
0.14236898126123262
-0.13419275476379633
0.04881312124728758
-0.05704303941139143
0.0603275069074159
-0.0058580626516708395
0.19459839786659522
0.0164907296599527
-0.07205629815717982
0.13899471952484937
0.2070501714648765
0.10496972879154536
0.16419218509968547
0.07896681492214327
0.13196523454933656
0.13246150645329086
0.103009350379553
0.11968588907155743
-0.022881011124428967
0.05981728100349794
0.10640278663366888
0.06648214889585297
-0.11485358230526294
0.17841023963794025
-0.048711761910031535
0.08237714914518256
0.07146732763718702
0.25934786702388324
-0.05063169723397852
0.10610335122966334
0.09297669623928996
0.1456533987587168
0.06623281050489968
-0.2265627588607382
-0.02720386966955145
0.06766207930923963
-0.09973174286851554
0.17943684833725138
-0.07484844292049847
-0.07797543030939562
-0.1362056931053505
-0.049562639544367224
0.15610892276609464
0.09352076983394104
0.18457036298012106
-0.038042007433729035
-0.018419310449123264
0.08771200635172413
0.044283372265972946
0.05053549448302416
0.2079402608668827
0.1704720844017854
0.05198461364890501
-0.06961611310464257
-0.5599628089375435
0.08415834686191011
-0.19462173388251167
0.10347741547459348
0.07337862441686459
-0.31239195311914847
0.06791649840490843
0.06529805270047048
0.05328248490195965
0.06068100086109565
0.06158307237594594
0.08415121725962607
0.13418055450827654
0.08010067627875248
0.0708027501479399
0.08401752908737549
0.12388645560480936
0.11378711394394972
0.050938533719540435
-0.09776558648608372
-0.12755923571162292
0.05137845204691874
0.07604230030949803
0.03667901372165484
-0.11877471031302879
0.0807285087020218
0.06586591205737792
0.06345080282601846
0.011373178182759906
0.11693177934597136
0.08671415880544801
0.013872857516618833
-0.08533329188337198
0.050854358574212236
0.014789778739370273
0.09396362192381366
0.10563181630286349
0.0628178516113811
0.08311033451041214
0.08546892866702877
-0.021365122275165026
0.23374408264498972
0.09565894673666263
0.08221035168105517
0.1443163385260215
-0.12768637180976977
-0.046231548966368725
-0.29046283917739424
0.1257577722644451
0.0605744255235829
-0.16999742730451178
0.10860639885254758
0.1273897891830531
0.10504418081864195
0.1302018864952551
0.08755958999578217
-0.14260583509528071
0.10879068336325644
0.18644403413457378
0.14361294859292295
0.14073339222746034
0.1013809115477484
-0.0050707574166144
-0.08155191146469633
-0.05746952890980398
-0.02610238624777893
0.11178358107410685
0.10944282598957354
0.08902374752459152
0.16500436077656078
0.14240455752810197
0.0503095777549854
-0.0004468473565418158
0.11215428903248677
0.06409353223556585
0.05208365001869459
0.085012866798918
-0.019638329564402878
0.02888839785534736
-0.1133283084376976
-0.11771598087621381
-0.04821232764912987
0.1308752641190537
0.13591643655500804
0.01958629461467436
-0.006604574060829917
0.02242631295118207
0.013681285750394435
-0.020888947044534433
-0.003938732683357258
0.02521567332194913
-0.1790517498490084
0.058112672906818076
0.0647805424981709
0.07914904470848629
0.06462353859281533
0.02849572505598201
0.047146310303287184
0.12583046509335827
0.10968401431303579
0.11293533800636027
0.11850720641336224
0.2298802612190893
0.08952743209131706
-0.15019346443566012
0.09680383579384999
-0.20314180415006108
0.008632987373349311
0.06607693391077757
0.0635422749522017
-0.048201201311196304
0.0907063067875645
-0.08317740013590326
0.06498027358798798
0.0754892713656441
0.053017204087640164
0.06003944282060961
0.04633855039728854
0.05206244200987214
-0.017134028923337874
-0.11833077018322952
-0.006938478429587051
-0.08658577482686496
0.07276797800543781
0.18327576818829425
0.453888738613056
-0.014092720679088384
0.10209854055877214
-0.05600712800019698
-0.08923455720504218
0.09825057271878825
0.05739730502223195
-0.01711767825892349
0.03496904015181858
0.013441609476765783
-0.040406354320424206
0.18515713672761688
0.13738284321175365
0.0881524338855535
0.10157095582304398
0.07564575660247913
0.09404685582647863
0.14182925919642453
0.11928181327783519
0.05650234681172237
0.057607721319973056
-0.11802651461233546
0.06285484286152532
-0.3147768752737314
0.04404538085352078
0.04100374845751533
0.11680742914979764
0.12336668965754477
0.04744523927621416
0.05817902019229149
0.018685452544161756
0.030907431073206627
-0.028553613149382453
-0.16891977965619226
0.10360773572450549
0.10971288381262206
0.13404847616924814
0.14926949754406568
0.031160742097984286
-0.010714024697629724
-0.03851813235054628
-0.06439621511212243
0.09618819866103338
0.08159964203767243
0.08218571320581201
0.13550960064928322
0.10922476160434544
0.1944890478955979
0.04310281239689439
0.08757375456223913
0.19183154316889864
0.2115129696683093
0.18034540312652683
0.1540715834741792
0.1419180660858687
0.06239894465234375
0.06318036548514404
0.04487482328948861
0.05124455706482716
-0.022860438498571715
-0.3263170164619167
0.027228518042923037
0.05501516230229826
0.05225058197932493
0.020833928453520646
0.03251915905679162
-0.08947042232560184
-0.1591997638200985
0.039105199817331855
0.05042558948445657
0.03769149789449887
0.009662920240201206
-0.05314407001501077
0.03342204359038022
-0.0649744318111348
-0.06927038029701872
0.20172397155845778
0.21965546620409152
0.012841998158869394
0.025612912164252034
-0.07386958370397907
0.1419076572132552
-0.008657223126574597
0.09810189506191133
0.09661153678957744
0.1198260830020072
0.07197669377397434
-0.17249668278336255
0.11449681904417626
0.10681106462071256
0.12649945732974252
0.09447476547880584
0.058972279812832734
0.012503145252611144
0.011371631716079978
0.11998452417220266
0.17363157457357617
0.02659723599494831
0.0986877635929601
0.10438687699002627
0.0774305017612752
0.028757836286032977
0.06234585276136661
-0.0762882094130097
0.26412686246873024
0.18732578003768854
0.16805527173923204
0.0514499827687802
0.11057164543505524
0.18152333736949366
0.07357114752209838
0.3161083680234021
0.1920657846115302
0.07371049817668353
0.011586122772272863
-0.11783683812364819
-0.02704745631517883
0.05283806152238251
0.009537011402588481
-0.18422414945032486
-0.05975961143728021
-0.2737828396784633
0.07200173517482188
0.07686775952128948
0.06310243953731907
0.10402133733078757
0.055450010934214394
0.0804895370306132
0.08926874703700165
0.18773856363090038
0.2529942507953249
0.08026807416307116
0.043093080428595526
-0.0039353520314908685
-0.19535642467144612
-0.2941263329280807
0.1048675449607297
0.1129367603631218
0.12499923412923614
0.24739005597433683
0.1120008305618085
0.04170872947470713
-0.025553004753012906
-0.015140044158948734
0.03808040332846075
-0.11676223486515735
-0.0003801365805915554
-0.08056407829531444
0.06362661441077554
0.08924518821408235
0.1860459924417803
0.23443379126395394
-0.14444183764862006
0.04402506924228447
-0.007452193405603819
0.07961257709182921
0.10083973410187289
0.24741556480786353
0.10223696670398251
0.1947524349908559
0.23427333595131916
-0.007714044908678205
0.09975895425825404
0.0009004510358274227
-0.13221233716530317
-0.08843210291620722
-0.19591972472590358
0.0013508193873795582
0.09397117474402343
0.14520291316497602
0.09912020274412596
0.09091551840480297
-0.26460694706949855
0.12141983663588607
0.055353077451113904
0.031115892883949982
0.012048213202859658
-0.061723942968973475
0.13286236894298697
0.010436623780393181
-0.26566775942662874
-0.00648513385669127
-0.48205961404974934
-0.059458319962660766
0.04967260650409495
0.09122508266124885
-0.24409928038922088
-0.06657105593957524
0.12274594304875298
-0.11465379628397988
-0.025305096778891527
0.007908300438223225
0.13187272280441534
0.11525846747211249
0.05611593122254459
0.16117493406282934
0.10837380086095692
-0.13504861492682405
0.018481027671088824
-0.42196524909881117
-0.11789020884099366
-0.13405946819224823
-0.08798616426813104
0.10998676527882308
0.07521153767220176
0.17026370746899505
0.24640641656930032
0.03265548483218279
0.04036031048930152
0.012363327489108013
0.10301640346097303
0.1484616223921267
-0.031241053406879916
-0.05658287898350505
-0.1138122877519612
-0.16460769145207876
0.0035387962895433835
0.21924938667790422
0.24675108716296984
0.07308629460495064
0.06724050197748964
0.12944556136772162
-0.32461504408523784
-0.04473756596215572
-0.19192177566863503
-0.2581032050575762
-0.029521376263265384
0.012972403596493312
-0.009548677726306822
0.019092142602304622
-0.09431684451785943
0.12737943202603852
0.00798848134187285
0.08622326445871882
0.12017317851919776
0.03187446009596396
-0.1564748416776347
0.09797649605109413
0.04383571047795133
-0.2885123351697833
-0.0268269940415908
0.06997311036205568
-0.30951732672651855
0.06139601919594351
0.02077708023590225
0.06252739895927009
0.047539864384978696
-0.025808049919070073
-0.0781884379752175
-0.11537470737744425
-0.05945226275158702
0.05958853979301754
-0.1788427237610311
-0.02539383053153118
-0.2924710140662825
0.034683985255908864
0.050025196327988054
-0.28682777094797685
-0.17300550294379446
-0.18981349888355586
0.03666314815004033
-0.10087686078672146
0.052983447429133704
0.01398646797289178
0.03387065453892004
-0.20100263999813617
0.06970494368605044
0.03651985469298771
0.116866059949105
0.03556528183615303
0.020566335533144138
0.043544286732975515
0.10160569484533381
0.04651999904011874
-0.08059959903084248
0.11474507857717864
0.06939099149525259
-0.21284255707710178
0.03621531401222117
-0.2178722632933419
-0.030147722212469162
-0.32715014849739865
-0.36283689747613423
-0.00030450383796230135
0.12586386200777322
0.19360927211327952
0.11816996054696974
0.08293417015187143
-0.06644004155778326
0.0029765902490499927
-0.2138436762125627
-0.2208745239705608
-0.14884997490963958
0.07131322083515491
0.041451446125859846
0.022022762918670048
0.05466505985856304
0.12205572416938054
0.10404338923912283
0.07558751088614381
-0.06024504547651359
-0.11577659281806828
0.07327248766403731
-0.16973366799644296
0.10901655653449609
0.042441339436268884
0.06355875408818615
0.09423710531610115
0.020158730473737885
-0.026788462024267688
0.02788295503401814
0.04999362730855762
-0.019862084676654658
-0.03246078317044034
0.043925139376740724
0.01783130572521653
0.06963535478190651
-0.014233268273983218
-0.1338740337078908
-0.03874322282572046
0.06396203841417296
0.09210629788248219
0.028912015467504354
0.0077326852355028165
-0.04568495328257595
-0.08835626542096582
-0.21476115759735742
-0.003879238848355841
0.12629427255443676
-0.10738048879443088
-0.0901137137360356
0.029931921706137874
-0.24396759403256912
0.0016911659415251982
0.0035786681118828052
0.17445989408397558
0.17995014667628542
0.13392435306505504
0.14497281009221746
0.004083845837050452
0.03114205142511413
0.0933391193087442
0.03366963173048873
-0.12313732238367735
-0.050558776885232734
0.060911435132198564
0.104760223901899
-0.2360327265358381
0.05232267290839941
-0.033854994992183335
0.23050745573355724
-0.3292780453300581
0.03601292503986441
0.022536771754486942
0.06176092617052481
0.05840484493771133
-0.8469758656677931
0.16347826173628996
-0.022230116115106283
-0.16391527805559472
0.03247342745061362
-0.017358676450799627
0.057588301967202514
0.09784168159008758
0.06950590948872745
-0.09810722197935628
0.09241405895154456
-0.11586669403535786
0.10934466367039831
0.1617786056585475
0.06595385195665095
0.10367081571576063
0.053499880595290726
0.06965395305224834
-0.001984764675897242
0.14949386723212524
0.012934468933774309
0.22338445024021572
0.22003570812321174
0.276132816349061
-0.07716914992809384
-0.14300031650987738
0.08019758077460536
0.1290199709138742
0.10533998915114039
0.04481927709121
0.05145172667228451
0.06457966969066406
-0.10272534571554502
0.057896042353859735
0.048838004920377126
-0.03689191250258553
-0.5039238009827426
0.03380409952140339
-0.005156044469591136
0.09088350692766169
0.17126271446570565
0.03643757953685624
0.09003514848305809
0.08280597251417313
0.08260018590411078
0.08546042636016939
-0.007339479825461469
0.053548053954079126
0.04600976900603368
-0.10663709885209607
0.05732833466294925
-0.05939177002303338
-0.02458876361829466
0.032166082853906014
0.02401525212264687
0.05094156974794331
-0.03285505813107105
-0.10118765262688395
-0.08336291628209333
0.16308624297428279
0.030207833420661138
0.019105136210851626
-0.12036504491664878
0.0718737176931074
0.02473343234810168
0.056828735597933853
0.043429856959757984
0.048375975147521524
0.006495614300841799
0.18665084365368553
-0.007848912467395133
0.047829744199138644
0.0823976909077544
-0.13277857886838001
-0.13637677553513797
0.01725360451345739
0.034026375525335564
0.039423256433166
0.019481510142366557
-0.050638225215758934
0.04101178792259751
0.03235694682124927
-0.006494760369739986
0.048381492537382796
0.04103051399433107
0.056574731109577565
0.04219694466731659
0.03642199611619927
-0.12176687911150876
0.0464808595110213
-0.008869337715310198
0.09714079929810256
0.21519191727933143
0.268180687196897
0.4321586928558531
-0.16513756257786144
0.04823630062076967
-0.14529196634726768
0.10036022743052363
-0.06983225820199963
-0.04059767636927061
0.23297562404748257
0.051756017422128715
-0.15020138847693418
-0.19359283763838062
-0.10734222936436426
0.020157689761663756
0.04193515282667626
0.013285850280699356
0.1785291255688674
-0.20349743001369003
0.02372452560650301
0.0550612388690703
0.017639257223139485
0.09987249782307657
0.0032428341343824795
-0.023533687241880007
-0.012246514253621337
-0.19768101611358455
0.026481189658740488
-0.025840015478181915
0.014168628792862107
0.08441784809884124
0.007455104924408555
-0.018394706091890107
0.1322007442933523
-0.12269631157757797
-0.015231755435182072
0.06981988866640451
0.053737740948754886
0.046769568052984566
0.10636254649941136
0.05502617430360524
0.05253659150819337
0.09019792104081659
0.04836522869305581
0.08983403221892658
-0.03698743479603118
-0.06588365314999278
-0.040732630848011056
-0.3209051771239124
-0.07465744782366412
0.042116094486861495
0.10588597754955784
-0.017300925510804383
0.03457871039603531
0.0506547066816258
-0.0007932287103046803
-0.05961383662795814
-0.04226524348619761
0.04317411958169012
0.03722344439916569
0.03206888623603216
0.06711878725196833
0.08888728222110716
0.06727776274212288
0.012189745561515294
-0.15344086227283188
0.014028908986594127
-0.07344317479448192
0.1945606345143409
-0.0674784087664683
0.04400024619825826
0.08619163677663294
-0.17662758912542348
0.17315265500140672
0.04534168605107673
0.07592147045047173
0.04131052071447847
0.10138784959417589
0.032193149973197346
-0.29397227896693756
0.00940260195999492
-0.43114903013454237
0.01855951166273501
0.07340180176745083
0.10765634695500481
0.019003178969960212
0.0909861456519444
-0.0960847648359758
0.029474319008468797
0.05809666984782681
0.10617602511542495
0.09294491227746962
0.05540882540194199
0.03986575598358795
0.046104027377379606
0.026055077432344313
0.046907093696180166
0.14704523829793872
0.09508475767886024
0.1356081769920352
0.11786156698106291
0.14248959638924727
0.0995088304466132
0.10012499477451857
0.10219091128576005
0.0706502593756207
0.08115855459504721
0.16818796164623523
0.23625915325049301
0.2430151107688957
0.1492810152313173
-0.015330345216683156
0.024685761009487613
-0.00795122948097074
0.05407191018797203
0.0513051281372187
0.02340832593238275
0.057109497318162554
0.04189853131850665
0.057918812660423646
0.10056571725587933
0.09023524532818988
0.05331917966482094
0.04557891921073115
0.024762817546095453
0.11098143922087982
0.06093626369338906
0.0297068666111465
0.037828793276106075
0.005284243497783357
-0.0217903937140635
0.014043668635324871
0.060723356902116776
0.04457353781160173
0.06611837911120093
0.0879209917156032
0.04441453214650558
0.05283109426505808
0.11656557036499991
0.0207585202540004
-0.050710668503305294
-0.04785478479384288
-0.037352332634802164
0.05521161184360845
0.09842070279457653
0.0903185711302974
0.2676790132936904
-0.06621189621126802
0.026650445339826516
-0.08424181438870552
0.11378784728115175
-0.03163735923479327
-0.1727541509437377
-0.0147934815063367
-0.05837479008090347
0.10253722083395994
0.02292499911200807
0.10747736430898376
0.0700298883467278
0.21719818416537764
-0.2506798273083381
0.04123483806653493
0.10146215638192331
0.036316280825505184
0.08586576334368902
0.08917728792255732
0.07848319946616429
0.08761345970955559
-0.30395588442989546
0.04296039402803322
-0.03588021799948195
0.05204447677832723
-0.014540058043357363
0.03618038938657173
-0.11412815151264183
0.1570153313217506
0.07771957750665218
-0.17780217289649222
0.17939228600189205
0.034702523726278287
0.008746499480272663
0.032726993074802084
0.11565584059240164
0.0999825629455214
0.1309580049705389
0.016129764516513833
0.08655243617643728
0.11060955343752782
0.07799632208626296
0.08046078585678358
0.06795460218292527
0.07266209502428704
0.0748799768616134
0.031682310579344425
-0.2557684778638322
0.04476657259276963
0.08305500388021589
0.12644170412868652
0.14908924592482742
0.05165599806669136
0.050829538348356504
0.08396118390127603
0.07961258599965268
-0.1956370822422129
-0.023488274110246427
-0.11697577846287663
0.04697334489971555
0.09444434927838141
0.12004565903080132
0.17894646866059566
0.018602527753212528
0.07817390453637259
0.10980461383198371
-0.8283967967635159
0.06488346456478453
0.024270820216431517
-0.2035034039694679
-0.00957023702048927
-0.14804214786515948
-0.029465618656216837
-0.04131568705945249
0.019442196841960878
0.06498188385794802
0.04799076779375369
-0.013632643222551562
0.07004480026584287
0.05451207731058993
0.043946278485037446
0.12963093294762457
0.09628509042856631
0.09591314181027161
-0.014132468377124705
-0.06753554557298636
-0.01568459867726575
-0.02480706406963331
0.06649266038036508
0.06284557382513051
0.1150572898278243
0.07181098399407998
0.05872287800235329
-0.33866324257381764
-0.12662636156902618
0.09285843035683067
-0.1533940215710648
0.14602758276389294
0.10128155748495377
0.1004240091985842
-0.2575611372325182
0.13167474348581587
0.06672752898128718
0.16333223445513617
0.029684591678495607
0.19875470351637656
0.16210304737676287
0.03362169877336248
0.09380180973624813
0.11865347410237309
0.08305833321549047
-0.03133048889726083
-0.2774696228601406
0.1896758712446825
0.030547461509690645
-0.24902361460120234
0.0013514135073067236
-0.0835297759346659
-0.0642906302990657
-0.02372776986723414
-0.13434062938859845
-0.257712067369695
0.026784527344429737
0.03729214149297457
0.061129242304109634
0.12562791272465876
0.030450684073284287
0.0793846570328071
-0.19928278628781737
0.12101652258436134
0.05542269706456667
0.07016213157209879
0.07019426155208616
0.01498124765714392
0.06793237934890638
0.060877460855792834
0.0872933917719597
0.04805966280576934
-0.010934969459322177
0.10716325309003406
0.08549740182473396
0.07938124879423726
-0.19967680724310607
0.2025794076517381
0.19648684799142613
-0.1395975817918346
0.07107605004582876
0.14504927920245228
-0.0477422047151304
0.10818839131576827
-0.15383833050236784
0.01875543343533652
-0.01294986104064884
-0.17888999380181614
-0.032128852367254816
0.17841985675215458
0.10377970399792735
0.056284783379819625
0.05577023338937799
0.13007753181348786
-0.4468995704428765
-0.04697125204022099
0.07420922155604875
0.0571001205194688
-0.007832040198453901
0.05981596232970998
0.1108733298818494
0.08777638011455455
0.0850541215017648
0.009325842592731321
0.039218536603803485
0.11045994757582117
0.07044077632359366
0.017744289436564666
0.04042151727616419
0.2373220570383742
-0.08915735989768792
0.011992119155431578
-0.0028179010502917654
-0.07647611676995365
0.005328573281110203
0.16879450073893904
0.13096744203681662
-0.1029005599428931
0.08011227448993649
-0.00025430574132534467
0.003741257128995394
0.02350146239579997
0.08163977999587083
-0.09260231591021718
-0.03258971382193818
-0.018491402646983485
0.1517390285683175
0.07697282574783536
0.051905458040222494
0.05060762317634198
0.12271899290602613
0.15666865242497893
0.049602633898371884
-0.18931013559480275
0.08329989439499232
0.07778900008400912
-0.11423176977040843
-0.0765347389262485
0.1615758119726095
0.34016885289946563
-0.1000641158442177
0.10036878427907397
0.08403493246276864
0.036486785729003775
-0.1648940910315761
0.17191813986265878
0.13299177126418882
0.14096360805351596
0.14084884172922477
0.07097579852098632
0.16687199269257486
0.2355327897720183
0.16959610484344928
0.09785925876761445
0.0988993506394961
0.15882717844044186
0.11847145383437373
0.08213759754593791
-0.25126597769215164
-0.011171211069027125
0.1262073272290453
0.25006675382218163
-0.034921292689512634
0.12654599263982377
-0.07723555772371497
-0.07034716336980268
0.008589534623908202
-0.10185806928401694
0.07790267926124161
-0.04860938542612249
0.17227093389189024
0.03650355027037392
0.15828183041870109
0.04327980795703809
0.054409676003534
-0.1043516162350416
-0.3852170181368086
-0.16353573264329438
-0.05849904724841424
-0.5794852209855961
0.16573794738770406
-0.34819310944177706
0.13569705073231988
0.3280002049318282
0.1026479522898427
0.031639148731291554
0.050609848356013176
0.04618424518341105
0.08475258278705695
0.052621465177832796
0.09154665801000789
-0.35205734039891146
0.18503662481234723
0.07446718871053243
0.12225097240051225
0.09431409637248496
0.11354385345303201
0.11677311216812246
0.19006636511507338
0.2025387203939166
0.20706073494325822
0.02573890891803121
0.06996791986520838
-0.07213193848446325
0.10412267203448444
-0.022828919917814737
0.1689320647178626
0.001639890986786887
-0.06145257813808413
0.16299301928856852
0.26198661246045774
0.06816964722526907
0.09500909067010863
0.16029782212878282
0.05410408523471944
0.17971634651936086
0.2394088464185331
-0.040194568418033656
-0.13896389480385857
-0.024301533049451006
-0.2245741207865663
0.0887131424550423
0.11900192968737308
0.020004095506628187
0.0004926331795864873
-0.021879256759535705
0.20556198996017502
-0.025428280512699786
0.05631695986726094
0.19061932667594061
0.10703771537408698
0.12852810100652648
0.039150958501551904
0.09962532943775151
0.1956782654665396
0.11700859228822016
0.16313445304842195
0.061727445690084454
0.0860454103616294
0.07867820182796699
0.058085842751318575
0.056053622564135853
0.09727688967297551
0.07941130278743544
0.10311849538706344
0.08557068696011821
0.03336265926031095
0.14550771084823888
0.06691065983873642
-0.13924218886477654
-0.08247272408547017
0.025536717658079647
0.04552518451208458
0.030079961948668316
-0.09685272771152624
0.13744718617145535
0.08090835935276294
-0.01520724201443776
-0.029269924109919947
0.10104160259884072
0.027632781919754563
-0.09107943015877558
-0.9752750210045412
0.018662054987340453
-0.26098617171222005
-1.4062924916824604
-0.11510812908007251
-1.5086212987421204
0.0638007890138693
0.07081575477774775
-0.11936082710271548
-0.09065063531179672
-0.03457992265340491
-0.0001725910671614675
-0.005730845634064409
0.06275498297655199
0.06505311769111437
0.1510357572643741
0.12993320263613328
0.003294362325692293
0.13016822097909939
0.1898380005060607
-0.12676713654646496
-0.06994101905389613
0.07004927976446294
-0.30731997696780333
0.09096113903314101
0.07393517492624381
0.10859658378713588
-0.1738405666305381
-0.11640304979884705
0.012308640008177107
0.032344905503922355
-0.3544950667919937
0.08274233865357934
-0.006822766087060212
-0.03416805173441805
0.025807334767499853
0.24083994689284285
-0.13960422609306236
-0.09767793262628333
0.1517510035641372
-0.05004362589893945
0.09206727294440227
0.07419362763997245
-0.2036407832547802
-0.012678604138080106
-0.08441875755826155
0.023229441240727504
-0.12993279315101225
0.1008862519667051
-0.10540885877317453
-0.002641549282350877
-0.15194546498544215
-0.12225135292409861
0.14476746037590663
0.02105600604853947
-0.0830706634470674
0.10119587417218928
0.05307756607530749
0.037759564275614464
0.14597177629568783
0.15868507958942332
-0.11595183665832576
-0.08548422267536492
-0.05465446965688201
0.12389468893469849
0.1574766820835354
0.1740023736219035
0.19415356098275197
-0.09774745487669817
0.044526595516897145
0.021228795760169526
-0.0026571486460268564
0.03950631600882449
-0.11326577186376963
0.09788901859425507
-0.27511557523934776
0.0024811663998105587
-0.16618389683470333
-0.5959908265233558
-0.004780355610142154
-0.19895978224246164
0.22536630536614238
0.013228731649227546
0.23881510762228167
0.3870416223314597
0.16914921737111016
-0.023009635353650595
-0.06459618234479916
0.00039675358999891617
0.03720453031818087
-0.04009506961823078
-0.07352850850119294
0.23438582121965992
0.06542963888248357
0.07405108722050632
0.11910739529482339
0.20369199905196347
0.15325711694803507
0.13753698718755203
0.0009258804114049752
0.0767141526230111
0.10221898031290433
-0.11046375513767444
-0.03980846857330059
0.060899853970851084
0.09291506451150953
0.15250585937620817
0.036912487690808835
0.06583842229649285
-0.06039382507017461
0.10891354632827113
-0.15367979131158735
-0.047506794575192704
-0.5146052831822613
-0.6044815093110579
-0.7227831882732497
-0.6491954126258087
-0.6827083822102908
-0.3588567745035867
-0.3645870047411491
-0.508092205193425
-0.24708801817421883
-0.33782549119887356
-0.40023189701174233
-0.32202658997205424
-0.4815670337860537
-0.555883102722228
-0.2467870955993214
-0.19678541187001403
-0.13296353684647463
-0.4381470552836645
-0.5461782054261052
-0.5892574505024148
-0.3438900302273506
-0.5354597507208774
-0.5429636677997124
-0.48134087672790327
-0.48452346641422284
-0.2745660942727619
-0.31683431869629536
-0.4102909202117852
0.2247659510228084
-0.7176923856044182
-0.23979657506775978
-0.09912521874850751
-0.8919719631529976
-0.28934532801948065
-0.3348252216871681
-1.0189685579844499
-0.6793305381029519
0.02360061315102172
0.12994352272708967
0.055820133784660865
-0.11046698632447424
-0.068555637120946
-0.10355696855119721
0.11400512928319821
0.054143762518738196
-0.16015992490453593
-0.005377990082786548
0.26451129750518837
-0.1564975101774453
0.04006924329236819
0.0886268908496883
0.10359150340466423
0.04451166273441855
-0.0863630623190578
-0.20685162729413548
-0.19436007110442974
-0.21339766194229287
-0.07625898709089084
-0.23344056233455038
0.06517899095683898
0.014440104378847305
-0.1814673860364506
-0.5122430049548814
0.10638423698517739
0.089038104690715
-0.027563053877345405
-0.05564748155264247
0.05802617305890879
0.13536236236841903
0.05528764453638218
0.09097846088245706
-0.0005384102663256235
-0.012521143031024525
0.04845672875568831
0.030615162302405442
0.08270405168857645
-0.05968451767925613
-0.004856525831758572
0.18619825062660111
-0.2500515206242643
0.011638573298729978
0.014684470953677762
0.05553087088531006
0.11211874735734846
0.09119442143375685
0.13305623416483733
0.06090323967378355
0.09126170223068564
0.05900401447929934
0.06470409755068667
0.06849743134666945
0.0993640560086214
0.13601695758692636
0.12227347596470704
0.0868165902638186
0.07143733410175741
0.021456246662398343
0.046348768370732596
0.12695722011377855
0.15421370444351082
-0.12907393317901808
0.059956851884632296
0.09213769164128185
0.06507379977332862
0.09438607603436976
0.04645438757919097
0.05163520616040325
0.08709147451187008
0.09836643384881084
0.0772465601792607
0.07695665635701197
0.08288294841098826
0.05832396151248102
-0.07359901798435903
-0.09375212926976059
0.24485821014719222
0.23610104673596102
0.21374913038200688
0.2770558206684089
0.07519420176167299
-0.30617180797567595
-0.5839359876892558
-0.6350777394801211
-0.4183894122045129
-0.7856585625135067
-0.5659020817358923
-0.714487168444651
-0.6734874891298326
-0.6944880182111102
-0.6547977107549922
-0.7055493322191109
-0.02657344082726264
-0.7473715781213107
-0.5508639805289824
-0.4164628449655505
-0.10416706171393204
0.17890079804455267
0.13077190801568078
0.13124723307914973
0.16415323345728422
0.026636698724104235
-0.21763337605728558
0.2577215775616399
0.2576833302196544
0.22088278367258368
0.22763342943812281
0.1422010277287562
0.17662978310503438
0.1288502946964062
0.22076310456689632
0.01679312074547569
0.18048923551485108
0.0569961892237031
0.09080440906557045
0.08249278114897977
0.10790212256222348
0.1038970555653227
0.08504580013707909
0.09127179435787892
0.08933845687112286
0.07727849765965904
0.08905087491549737
0.030899072732605233
0.014874088726382729
-0.029650005632221248
0.12381751869873164
0.15556269411305498
-0.03112970299102339
0.11221534667314574
0.12213483708951807
0.02709677967270347
0.06586744420451486
0.08604892543795528
0.0007518358391026075
-0.027391400169852573
0.0625473114672174
0.04554517230595414
0.003516643477833138
0.005095142205104276
-0.12743921276464748
0.0762680822442555
0.05932119532220538
0.04935479343383668
0.05435184612012689
0.043447030831757216
0.0900417530832391
0.07303265447424331
0.10725032378011372
0.030233830726564385
0.07721171377848136
-0.10672133542441885
-0.02676724084102336
0.07476811019968273
0.07043858969281239
0.021584371846952756
0.04596208389149766
0.04470370512839027
0.012966879594188793
0.021166203687867032
0.007562819978765862
0.0064580718899540784
0.021278475696149966
0.06552150223231812
0.08992107729732489
0.03447994955107438
0.08492709911224294
0.01721107486143433
-0.33161479546176714
0.019702697316843945
0.03378218497004018
-0.001642003634779432
-0.18989883434825425
0.046865582959274274
-0.08208768461450747
-0.06689225421621363
-0.0291975025164246
0.0987399870862555
0.2187448855433011
0.2758680814615114
0.10641286333131952
0.11155816392927687
0.06589789171990662
0.1276001188983228
-0.032972191722383866
0.03523582154974102
0.07639726848752681
0.008217431257972078
0.03055383821555231
0.011267378102426761
0.04004040282862313
-0.06745965514837936
-0.09841317222043666
-0.04428259614679409
-0.19487138711800092
-0.21684389207728255
0.08631997991021409
-0.052894065226460146
0.1605042592432505
0.1309987276053947
0.17085030301971382
-0.2888254649903667
0.02387822363705266
-0.01585974274594058
0.07899357484207599
0.06870692397892801
0.016718654962847412
-0.1520990938782081
0.06111105239312643
0.07441685066640498
0.07422844034054571
0.033785764233005264
-0.060933215049127985
0.09879418987775979
0.0641709674160791
0.06957985305960374
-0.09934896685593111
0.06283175561052498
0.17157513143956937
0.11886240200269142
0.012852253911708576
-0.1347750869884405
0.04366416725020055
0.12025109647277747
-0.1241399054054396
-0.134925044137789
-0.12930658839195425
0.08488775072567084
-0.009075401250209229
-0.04122246399306072
0.19789035983649647
0.04509365276641463
0.0956521511970147
-0.1376117475841832
0.011910720640719534
-0.0994586026677376
0.02023187329215331
-0.009144034183625211
0.09677731262443075
0.16991117679237686
0.19113312024333348
0.012008121682824552
0.027779231661773894
0.04383819085815523
0.0727103714648673
0.0589400706241128
-0.005515641601347798
0.06510924793695962
0.07339612892810933
-0.03165466665960547
-0.0614258581611476
0.15228457959450742
0.1051323747628828
0.14467535004366391
-0.07409965419459977
0.05238743668134408
0.002760052675411178
0.06074373767606395
0.03030183688321267
0.07007733440510634
0.05412167209209472
-0.12004591558682425
0.06439596844586976
0.07832563389117302
0.03521221976354339
-0.06786678755139279
0.22824766705994967
0.04861841043257524
0.027955274860548416
0.13168156205515535
0.10598280520247723
0.0873331793266702
0.08264795666041634
0.04424083480317564
0.052653597368000245
-0.08384436932474079
-0.027817269252056635
-0.04061625843441242
0.017914734604632672
0.0014126978376684963
0.07940316818978317
-0.10320467202519715
-0.0890125340228527
0.04839692847631995
0.04564509127240556
0.03264970259564282
0.025245144500370617
0.10561755587866006
-0.13595903377584898
0.09135083828196774
0.3055282579506817
0.05556341305183434
-0.14302180231886025
0.009183299189001261
-0.0268121274630135
0.10254460032200179
0.17351572852006455
0.06687487741702568
0.02951187073188336
0.09926510336497493
0.08815230851621231
0.08192048577136667
0.038195882343169056
0.09361874170071262
0.06678250459516526
0.014249664199265995
0.06935890828208167
0.0754560179496284
0.19289117246219317
-0.018611243643046983
0.2860798952213846
-0.05889165196871778
-0.22955293100805282
0.12782693311573307
0.11558408115794098
0.07484989008552037
0.11155330431013906
0.026582919843176872
0.0773335429691408
0.06623709992141864
-0.029813443392232825
0.09653338349227326
0.030923865879198147
0.14153739088622164
0.10732970037891114
0.04960569093865954
0.04323132910784349
0.034277838834376864
0.12128750030025369
0.07279895904990187
0.1361470662656337
0.078785973268003
0.08692891460667723
0.09311392300368782
0.1056424060693357
0.18290899688659956
-0.005962692868905696
-0.09520103951393695
-0.40018702450751026
-0.2991584784528049
-0.08029970421938752
-0.04203356746639576
0.13232780500002062
0.0638701821789904
-0.008550213200581832
-0.10591046191290679
0.027894493826025886
-0.0020002727286794067
-0.00774694306765644
0.008944827455893822
-0.07134077275014777
-0.09300457330656972
-0.1770816910780945
0.20260908408821282
0.15128285855030296
0.14456544099310145
-0.05861535577951149
0.08203297213151285
0.009917857559456403
-0.3289763075462436
-0.11787519598692882
0.018867418685070483
0.10494079697341051
0.11584093173550805
0.003571714796312388
0.07618727099997516
0.06066431982831112
-0.15565910460069748
-0.0918045103779464
0.03409618094986541
0.08455737810006742
0.02688149368508212
-0.03987722641748536
0.022112582668721202
0.08452456548507038
0.06347965861545364
-0.028642879715654036
-0.1151948199917331
-0.3896520003605135
-0.0355438670395068
0.02114317412025923
0.1471513421156079
0.12131304856666322
0.035593899314966336
0.07725662308123153
0.11679183594485926
-0.0535422823278045
0.05521299649871358
0.15000997977470137
0.023041799904667648
-0.018303282799114928
-0.01255990045424458
-0.013813790509236383
0.05850633190116878
0.027609420391983698
0.05808362577298791
0.05270226011945798
0.033227441585132536
-0.013872234929653466
-0.0077054884571438435
0.032248897203893886
0.1414041831393474
0.0830804244710068
0.03691385641087865
-0.004858507538201288
-0.022812545394920322
0.02619111476648672
0.00228042044362608
-0.011010414715902642
0.051822567025006885
0.05145244591453865
0.0842164511091937
0.036878465436003205
0.06010672450298062
0.011199166589148641
-0.002912933103577871
0.09545902404324261
0.00021274165240464183
0.01257803380191418
0.09793298134357822
-0.14058296457089303
0.07237287975095939
-0.001180734719916995
-0.03341578006363512
-0.02856052741216454
0.07561033142525485
0.010203962776134796
0.03258571742340935
-0.258319838861051
0.09918429798475789
-0.03589509247854039
0.20042295276885386
-0.04767610234459086
0.08242959106185385
0.07744342779369791
0.22051078182343253
-0.13692902233948456
0.08039637126354449
-0.10211469125703489
-0.16537532065667263
0.11118927983303532
-0.08645546624314679
0.03242590356762565
0.0815029977997507
-0.1273017249314974
-0.3548724112720486
0.0678965879619181
0.14618521608162907
0.1146940086925181
0.04659844077908728
0.1514417280118085
0.1485036401117124
0.13322001988036694
0.058906634680243423
-0.33237523899498245
0.014645091552679521
0.020084347879664215
0.04971568285881034
0.03766175449218839
-0.08398126328506046
0.0415524046418522
0.18610643020194234
0.31058273891494836
-0.05173282813889976
0.17849367436092226
0.2182179926445032
0.17079518410275618
0.12760847462607952
-0.0840444045915401
0.10228716964998727
-0.01037593608027332
0.04899940938472429
-0.11376607330278388
-0.23453976198523058
0.04252733055950421
0.0943752358464822
0.09924827039379172
0.08466788845077601
0.00925205133834451
0.17814652304770862
0.15041783657599975
0.0817718482019952
-0.136452752736673
0.23810605332800883
0.1699837827239371
-0.2451004194451802
0.05849476530245324
0.058945002275778584
0.033205611894858045
0.02282909617648458
0.060318496310663584
0.01585231885564961
0.01694508306116268
0.010122723788651374
-0.4114351558536764
0.015418489394548688
-0.11006007887742338
-0.08281692334498325
0.10567587911017325
-0.08335547529039214
-0.023953084979092976
-0.029538940692304196
-0.022002482889308648
-0.2121664340213703
0.008062669278604382
0.030588691106659776
0.017338244673694027
-0.010839509815896667
0.05291856959834589
0.08556449385932083
-0.1459162111448391
-0.18883209543583981
-0.20106676102534393
0.09460645111017689
-0.04131503277265671
-0.18922490483438198
0.009884803722537513
0.011654279100807075
0.030299788130542307
0.081921122268704
0.1224656276904008
0.012600094902657153
0.02606907225775646
-0.06589059751166905
0.07525328114852385
0.014380610846596023
0.04952738925474322
0.03814711570871901
0.030118690136838773
0.07327885687505602
0.09364314685892704
0.0289455458229501
0.04004892572102681
-1.0391667479296964
-0.37097625312488425
0.06735927646539366
0.0705500947149557
0.08725276971176374
-0.07472760700952864
0.1312834485811134
0.034215710575105064
-0.07300660036579053
0.0034907846658225015
0.07607324594446796
0.07595453002425778
-0.22601486500181134
-0.16400257655267103
-0.00961390925230961
0.03778644270483841
0.13897676905775252
0.041129832923833445
0.021454325695227337
0.04081117912529636
0.09794278371828807
0.15052141599503627
0.041087968292392044
-0.10755702972249202
-0.08465691811691888
0.03961880820635995
0.06051857070775732
0.014721188629299328
0.06971551536562713
0.014367088437765551
-0.017183165083194087
-0.1583938640754916
-0.24647356354768737
0.01877855309335319
0.0005697487466493189
0.08709345742348112
0.10208295171256573
-0.051483801400347216
-0.020782880367786503
0.104290709043176
0.07532510422036442
0.05093692977587324
0.0582803628207263
0.021839147102364433
-0.06802316718207006
-0.0025354852279954572
-0.10080111085358727
0.04535711088926182
0.08558077187276755
-0.03456059668535523
0.10593691589793909
0.07619465548735216
0.054137093578678484
0.025187259168715982
0.082700365929402
0.14462656994271056
-0.25412729935450984
0.2511259488634882
-0.15827841500098794
0.12035653449128722
-0.057752231879007104
0.09177610649882877
-0.09618216595107629
0.05434205390306944
0.06613620963003267
-0.07564458888757204
0.04259300965451838
0.023573850772727188
0.010941522110210605
-0.1667960715650528
0.1126523514754999
0.00945925973966799
0.03683961125190038
0.07409686679025869
0.01784726744542299
0.023747077866112663
-0.21686017588713938
0.0451983285379836
0.0027460489843631917
-0.060205943260441326
-0.42750004668739233
0.05977192294247904
-0.058386088707978
-0.10473315686471901
0.02376812197039909
0.03129021320911165
0.04947734008775897
0.04870057062279929
0.05364754731813639
0.13974047549166757
0.1186098008798582
-0.20381185861506537
0.21727148594004164
-0.09073363795120734
0.09842261578467183
-0.0723303139013927
-0.33473303034176466
0.0626260287320568
0.06336536902215055
0.003689965928738049
0.040574037860252876
-0.004498207036848404
-0.16287939077931948
0.3279780291449391
0.0013893313417091089
-0.04531597000147471
-0.2667125640994465
0.01369999512876918
0.04889376329146271
0.08558628246602241
0.09292484189576274
0.06574757242828473
0.2493875269764469
-0.010791804863178309
-0.04441052421977967
0.06428124093104726
0.06657320130935139
0.07880301428366054
0.04593437909774475
0.009128353828348612
0.01369639624388584
0.06946748874264157
0.08168117202621614
0.09052700592079271
0.13406573578669156
-0.0661145752682033
0.11636305482524452
0.35814916191915486
-0.0023940012043652445
0.057532647588539855
0.15021640103517797
0.1286323894257829
0.08806418051050231
0.15329180382882462
0.07630536127826731
-0.2846423584084012
0.10359120563275892
0.05998074390513903
0.020962066811485332
0.022192481092016183
0.09916903431469878
0.1428192419316429
0.06651578469674742
-0.22736836534214683
0.047278231108549805
-0.05957234262434256
0.07924149894336835
0.12137347653068897
0.16733785500255027
-0.00019889464911151305
0.04322076657448116
0.05492360388635925
0.14661106125663778
0.12124111330406462
0.0935457550920741
0.15960388430418673
0.12528718671575398
0.05783780988757011
-0.007547534432815469
-0.24786812456991839
-0.023202057349135993
0.020225358764782323
0.1113856198106108
-0.03242271349570234
0.09563828757208431
0.12666855081233733
0.09391982990089187
-0.03963859531279316
0.121984105497356
-0.3225506120959146
0.0460440675130538
0.007213676857695997
0.04445033645841121
-0.300263969049035
0.036505114375402416
-0.004695477240379685
-0.05659544606347777
0.07758904724352209
0.06319085341272192
0.12354470257391348
0.05640463004970633
0.08856959791571495
0.1268457100971804
0.06951861033696247
-0.039936320827719904
-0.14965268365830775
0.05546076775105805
0.026501639866880786
-0.08992744162020763
0.049895648602250584
-0.03523461348395592
0.003954209475002804
0.03061558747197873
-0.03184231931204919
-0.16772694705398353
0.09206936058740599
0.049332346060291125
0.05134650312037696
0.03826866581039319
-0.08816788676620389
0.023576460942703183
0.16210245068815954
0.192557782829527
-0.030208205747198787
0.06998138088943447
0.12582001503241375
-0.03523336009213044
0.14892703672627655
0.06585816210126613
0.06360215676424705
-0.4327438548020804
0.2986547682152735
-0.1624738505152162
0.11394061042569881
0.09621208467958534
-0.5940208338797223
-0.1057894035975973
0.051720428216072256
0.07233664085879182
0.0280682150631646
-0.042094579199139545
-0.2632761045492823
0.08699341789007024
-0.021188353560736697
0.07197430966363957
0.018695666684615145
-0.20477833513052332
-0.13097280557930263
0.07904204990843382
0.11041342897436923
0.15371970184853315
-0.06493409523386909
-0.11660409138087505
0.0637642116813099
0.07763412611162764
0.005802150597283359
0.06172730859985163
0.09936276189127627
0.023634210357351124
0.18836817037083267
0.09861334531017611
0.06300049761120673
-0.1653674349492107
-0.24576111734850187
0.013008331962132125
0.12108492495222829
0.08340028787464948
0.13600616692840176
0.13957033066290198
0.16717698772947504
0.16789821985249048
0.12237306805309853
0.10382631510516971
0.10412062687338422
-0.033515288087580655
0.033027982682476024
0.09228089503850155
0.08202525009287705
-0.29821064806994674
0.0953106847933663
0.06392259054750293
0.08401320698984874
0.14983241840860667
-0.08775145059258778
-0.04158773706687295
-0.11477000305405381
-0.04380255855347184
-0.14161771330588155
0.12775138706234815
0.25277878325649783
0.16995249315957728
0.050795307243637476
-0.19332395373369654
-0.08740699347543934
0.16603366234692798
-0.33700229163621426
0.055798632508102325
6.703060817815436e-05
-0.05696839706695665
0.0723825608367593
0.05064059632358402
0.035778237954988405
-0.0005708863442701871
0.01618048803342955
0.01161306317042185
0.013210731688319136
-0.13826784417741647
-0.1601362772080939
0.060663684064248775
0.09655323722714577
0.027476280243882135
0.035576963475174576
0.040583015420628844
-0.010416064541800472
-0.00722891602068673
0.04780359158850979
0.13612886013366843
0.05183446270048926
0.1510012266786702
0.07000761135752422
-0.6381255321002884
-0.11002097546987313
-0.02667237261425729
0.026279534311035656
-0.12652138286766723
-0.1763127237119308
-0.11031331834793798
-0.26274185379570386
0.0377988799946093
0.006597190753074734
0.07605137213934288
0.08841469712419196
0.05911228820382052
0.07978153471382671
-0.004815865553823177
-0.2597934014276648
-0.02840981641833883
-0.14262203638618193
-0.011342216370525427
0.052278120575378145
0.15799465252202688
0.12264964551069678
0.11618354531545372
-0.1723539112406376
-0.23886503286415367
0.07253601579029409
0.13075824039532813
0.15564449374594916
-0.05579743949745313
-0.06277064423692505
0.10158442142114846
0.12136412750221377
0.014311807487923206
0.011021271787471733
0.03168939566633549
0.15017914479787278
0.034467355294642246
0.07462498397042296
0.07880759420548229
0.0981447045301623
0.13408898912659561
0.040612752420539494
0.07169170178488657
0.18671882214615787
-0.01719171960814964
0.09022633381087063
0.05887281429521398
0.011328945335006151
0.05393367345082176
0.06284548973120316
0.06477803981375443
-0.07792660805543423
0.0153358898845833
0.13567975864497409
0.14111773489258383
0.042646053715689025
0.0034662230865616307
0.10686590712186839
-0.19493769112500658
-0.16663477561281764
0.07441338223638842
0.14463364637061302
0.05854200684283539
0.05370562365610347
-0.11516146653919782
-0.09128515700621319
0.18594848867953753
0.08442034567472922
0.07605991629434836
0.056204199481259196
0.19071358109244693
-0.13074479592165833
-0.009985117346032994
0.016312401752921774
0.0515182860136007
0.04899725177587259
0.1393217638916571
0.05627438554663337
0.1006921967737011
0.13268015685092938
0.10196750583447055
0.12273755714519484
0.13604629690007253
-0.05180993101538441
-0.30206149688134454
0.10854610143903635
0.02640219045476995
-0.23150255396572092
-0.19335734570366597
-0.1037388062585821
-0.017460292232489818
0.04080097373926799
0.17532811782840554
-0.07384313089790148
-0.16637979619622378
-0.392427116142108
0.09273944927873388
0.017318943963369797
-0.02702141855600162
0.13280568302327544
-0.057956019621641514
0.017827737402541892
0.12875683966564608
0.04290777423773258
0.09075278656927659
-0.015766798850089973
0.03131670322662731
-0.098643835819363
-0.0814102293204317
0.10755235900348535
0.19732240211170982
0.08751683334961428
0.10263758908353235
0.09528579952142917
0.09678823958811324
0.09431979895052825
0.15323001930372637
0.1018517436701524
0.17896771355771512
0.11365072963552678
0.09938653064032757
0.09893726782757864
0.21068693674943761
0.05624548137163114
-0.018626295050927444
0.060475237236575295
0.07174208799362851
0.12050263682146692
0.08366166203663183
0.17683168288226014
0.04661885699867383
0.02312667771490303
0.10505225666519946
-0.041281419905083924
-0.04216725654891067
0.1344759021205401
0.11563038740099912
0.09998912852864755
0.08112010378804517
-0.13157363697654625
0.1046694453304296
0.10751106480683574
-0.005443861930495359
-0.025494480596242795
0.0970370216853711
0.18849975643348219
0.062221553173669446
0.07114292624065717
0.032057101675265695
0.026828375239817348
0.053400176076157616
-0.10157504542845133
0.16758328819956494
0.0939625284946394
0.11573668633541674
0.0590733922868248
0.129010601870026
0.11067418626505894
0.08785051000299277
-0.12337894108706399
0.04336525513288268
0.059562030424522065
0.06386135296344703
-0.012123547467578065
0.16029299636254193
0.13010559186950654
0.015115061581596584
-0.026035005427601426
-0.3082412737758965
0.0068923268265191715
-0.011174862059621742
0.011121257325303559
0.16404267925615162
0.029201518196244683
0.09040937489374155
0.11994285393418073
-0.05487279871299754
-0.07041243137084287
0.14128485119557332
0.11159003181638079
-0.5953469423633159
-0.22877741088202588
-0.07076652252193248
0.08296492354625301
0.13435498001182383
0.21424098329348698
0.09611832503660402
-0.0022620353078008975
-0.04933284320260139
0.013059667726798872
0.009819017237997375
0.0009035969155206693
0.03183157014204225
-0.035105592425784336
0.02027736407103336
0.04162789653541629
0.0230755149137556
0.029746038142026067
0.10317369943841637
0.18647136900475794
0.06629473822907977
0.06625589906169126
0.004315170518503715
-0.173840015257838
-0.3179158048782401
-0.06357041158552751
0.09278777926086319
0.06276293209650653
-0.9753236098297274
0.03776619076900051
0.04754907386956344
-0.0613306193131097
-0.20062770473514957
0.0158873875244455
-0.051054347378023675
0.10254728036046444
-0.005002359551499997
0.08957168338481618
0.10309359299770446
0.13607946186978853
0.04443199148446141
0.06887233691811653
0.07156632061865423
0.007214383356521348
-0.17006637313184683
0.06664817351926113
0.01591607204451503
0.04946116339583204
0.023163671716597466
0.014924412131664734
-0.057603491858406845
-0.10375282207916048
0.035209004814497735
0.021814006425830833
-0.1434911622279016
-0.0563099932201395
-0.058291756318610055
-0.07796512991233727
-0.3660758902177279
-0.07197643610790691
0.004819501404701592
0.008960772628548302
0.03146191359581981
0.03962308796056288
0.007316011267073434
0.0624206270774269
-0.002584547026778614
0.08610153671185926
0.027519323403698698
0.013110756094249191
0.05850630665375249
0.11689028721994307
0.007495861385774787
-0.09786695072002957
-0.04776621196009833
0.0624522643622759
0.09147891256952917
0.05994698874036654
0.04887302011074325
-0.14390384600770667
-0.10200284802581962
0.09004219788770276
0.019068746535211872
-0.2033943169191688
-0.1795200784756657
-0.09497939742525241
-0.20064965925208803
0.012889340927254576
-0.14116166836315125
-0.042939120084994
-0.42770178275765336
-0.293055915491121
-0.3198556111072026
-0.029783694933261263
0.1412120273210602
-0.04695085425317842
0.08549667906251203
0.052229770928798325
0.01581174734417421
0.06513463549142044
0.16167470770510128
0.011575802511598217
0.04149641387810661
0.021714515396579183
0.04025743241769761
0.016430750807539345
0.03674895019992951
0.033521062947484796
0.11769201230380184
-0.04224646594970848
0.07297213502652328
0.06512238978417541
0.06417537173538448
0.13545676772667425
0.044306320381150816
0.047859817547629864
0.04974892271895593
0.05615252128538421
0.05609463697366675
0.0356501803670446
-0.12209231563147083
0.039015902703781156
0.09692468623586388
0.05577371612704078
0.11353888979434801
0.08851745425445241
0.09179281416353356
0.054903299560570475
0.05312830887147035
-0.29109557491813104
0.18607012222839547
0.14279515944461238
0.07083353021916235
-0.07899607148721663
0.07346096437256389
-0.05000707376884638
0.10422239882688722
0.04347097841940748
0.05732542776493051
0.11567659511301871
0.13487810205105727
0.05933213579594265
0.033096992724566954
0.0703842465093074
0.08038562123166687
0.048968544247947776
0.1554567919808968
-0.003436343225843948
0.09062277691291
-0.07957658158488144
0.1316943401570823
-0.43373907152429
0.043776155545906505
0.0393239811258473
0.07905396940789092
-0.007455539077961305
0.06148068690732786
0.06183395837183325
0.046339934117231314
0.11511777455805088
0.11864062580652811
-0.20302437050413896
0.005653677504276056
0.04094475570555774
-0.21924848160765928
-0.01618029938428851
-0.025453539049490805
0.06448324928470735
0.10027485005450325
-0.23625671148832225
0.025285005995031105
-0.033756522001339856
0.09445352418984435
-0.05604667176565145
0.1289573290956148
-0.06940630315273871
-0.06916159461075526
0.2696002130604577
-0.1510026357807922
-0.2064024302957209
-0.4436905374107902
-0.023368666010405277
-0.08823524771685841
0.03951828751611154
0.08816717497877186
-0.03438465029897031
0.07986543356990197
0.0009873639922242427
0.08361661986155304
0.04630758822275193
0.028514296660939572
0.09262515485820907
0.12835902723201467
0.05051425935752068
0.04081628543030938
-0.18930182362319523
-0.028996734988282598
0.04163321785945935
-0.13510421429017425
0.06148671859925197
0.07864180516966478
-0.16087128980653098
0.018248574567334915
0.060903338418271905
0.045110766828543446
0.07240165566484726
-0.09069829528902212
-0.06824572774951286
-0.05941734409808466
0.026629076734353344
0.05679742353384769
-0.3440002469303173
0.0020447898072687306
0.1646160584946365
0.036375323617807945
-0.250336799532551
-0.13414904375564352
0.035207417646705576
-0.035359032199089147
0.27344980870744656
-0.06991062637655601
-0.006392976062183098
-0.06496002563106086
-0.004686248235827006
0.07190635788773908
0.08563526081801524
0.01940939192161706
0.06969108261555841
-0.01556587097622323
0.13680067641296934
0.06355483323123545
0.03412004213738597
0.04444843794226076
0.036720729938462364
0.0927582091661267
0.09158687053146747
0.11071845161613844
0.09155658341408829
0.09441894213217152
0.07895712895666483
0.04822539104667616
0.14059270595817855
0.055463785871455056
0.040583127728452496
0.05922516313681954
0.15471213396718353
-0.053716790329361094
0.06074450087638824
0.08303911759160248
-0.3293385262665138
0.032307197158530136
-0.07826017054514746
-0.27656186959423795
0.10330319621680507
0.13410762530872244
0.06649265760578642
0.0743043745164139
0.07770293718777842
0.03967245655033555
0.13892338545490424
-0.22435559624729556
0.04815839509114456
-0.005413766334462592
0.0030919156789954673
0.0051256271051596455
-0.07994948209674023
-0.01642815097355777
0.17796177760675924
0.13290941829606973
0.03736867573364023
-0.4187581320654347
0.25381495843152213
-0.06819863312739655
-0.00011845151509535298
-0.2278380920556774
0.0956166372773926
-0.44289192189622
-0.058752126520437084
0.07355274755334275
-0.07793371846074071
0.35022900188701006
0.195413594211338
-0.27259548445305204
-0.3289055375109744
-0.009749608924276884
0.10303596586928244
0.07706003360837616
0.07268098778403448
0.0662885097165551
0.1806105222107322
-0.05699208005235304
-0.10650881648495648
-0.041634307332773936
-0.2895460506970876
0.10762361820036016
0.25394033386104714
0.19986422438161375
0.06890428662429884
-0.023193796902601562
0.039827862269817625
-0.055154810905936894
-0.09899076700661132
-0.11299840400004482
-0.0038105090862150435
0.02929366621300311
0.057165683474334913
0.04178537666398537
0.06221572824516436
0.061024145911307774
-0.041827714035381686
0.03979879156254353
-0.016491734682889204
-0.1519951993962591
-0.08314669017777884
0.043875448422062466
-0.16577714675657065
-0.10333057294221565
-0.15055611242249034
0.07036292710989345
0.04220500377221731
0.1924282716814894
0.06902884244547138
0.05486448582922296
0.08881264370171922
0.08940792865461263
0.11799780141559815
0.16239448130749629
0.022228000397602407
-0.04873449959353316
0.11101433941076946
0.06767880709225724
0.08350141620104753
0.12270337404716775
-0.1204834763882604
0.005432885708667205
-0.1375809039914559
-0.00964855703700504
0.13761606537740248
-0.10228664124373413
0.05391014531781348
0.05533619769278631
0.046786306458678345
0.01034598196154986
-0.07994734781186469
0.0772228124609685
0.11953263344624367
-0.015286974488677465
-0.09095699595641528
0.05409751067200798
0.34239264238164746
0.2286433682112256
0.08330981421520278
0.10183248366503775
0.08792772542497045
0.08388731070139527
0.08459386566984028
-0.14777637594762666
0.09861122222628595
0.06258419026219227
0.015039375847676707
-0.1578141914780497
-0.07881492740507684
-0.03658665297063066
0.0010323039381452174
-0.0735325139423728
-0.002748698887093654
0.05664391285040326
0.06505032933201198
0.1688534694683574
0.11645425470514877
0.12628358564818612
0.14827838423265785
-0.3237175503630589
0.1040461591137446
0.0801208252282043
0.06688602104111548
-0.08200475348907468
0.09307122650261825
-0.04374633955819155
-0.17648505431612696
-0.05090789494588365
0.025520877096392044
0.010629894362675004
0.12151470208120214
0.08780159166100959
0.04802150568761682
0.0897409501806851
-0.016442848932173414
0.021626890368605177
0.06870629725896583
-0.42959009230108675
0.013320077691857297
0.2821032781331129
-0.4226787485520813
0.02359899604470546
0.07376413789042142
0.09224819468739316
-0.04328481641610345
-0.09463692723517185
0.09233643656470167
-0.13229903152463454
0.041315979219303946
0.04225792225368365
0.03375321990643211
0.16937436568575406
0.0857802288902417
-0.16431101766246495
0.13928445626945563
-0.02502742140485904
0.09735849714385966
0.07910716085422129
-0.19277154658877863
-0.021638373291326025
0.11600013071690231
0.06872799050572631
0.020954249779198623
0.04993260879528854
0.03229540792199814
0.04487908610667763
0.03471845468967323
0.01051626981149564
0.04937398161086266
0.06686418584982395
0.021300264533362298
0.02466161491940976
0.002781511978375543
-0.10867202844579602
-0.2451677751651508
0.01954255710564377
-0.06182657831674768
-0.09248311914060077
0.19406261228747734
0.1051709941575298
-0.004469079136872364
-0.03199936590842575
0.040394055431341266
0.07448273768585253
0.010342090848980634
0.00911584801981929
0.004065157782297983
-0.0023839395173098177
0.011618677865113496
0.02452829082693684
0.028438176431112856
-0.010431816094865948
-0.010286617991693201
0.042149929953613705
0.05068849225422198
0.00684907814509954
-0.014670124035065232
0.1359776630013129
-0.1949701648453524
0.050739828264884525
0.07043001272165601
0.08535948441538499
0.10593399864764969
0.030623360196689535
-0.07219631977689539
-0.00912658289207169
-0.11097006202377639
0.05460311206860165
0.1456621666600752
0.08758729873889182
0.09918807641640569
0.028385492055623386
-0.07140646541343913
0.1776092092581851
0.1612810308227053
0.1133754364897937
0.2509783266644711
0.2711802571182525
0.36148383582363874
0.29987900076444857
0.11110758629871503
-0.07730945387120827
0.20388271398552146
0.20424451322094003
0.08354445966594341
0.1201686171812031
0.01699178561187884
0.28244707711402234
0.12668197348143753
0.12461135108100824
0.22090434733769737
0.4022027094850563
0.3118311291499639
0.09141136605112918
-0.12875583193477064
-1.4495816638813028
-0.3180999607001736
-0.6224939244213923
-0.45236311803166246
-0.8549086657532823
-1.4040957801337772
-0.6489721128949089
-1.714497988444816
-0.25122205325799135
-0.7709720566140006
-0.7390275232170155
-0.09103963596753334
-0.5688552810422061
-0.7433203666384838
-1.3925882082483474
-0.46567035630837333
-0.5524639187134007
-0.30946180264264345
0.18746726949826345
0.05131193877119696
0.033520112998595766
-0.02456757325906143
-0.11562997133713859
0.10879530751861162
-0.08860789976753244
-0.1297160248577599
0.046604871741811583
0.07402712989828886
0.11163064865578351
0.1567103067610502
0.10663119507502881
0.11432124338438207
0.20663228776364728
0.19730117525647306
0.20447265092996972
0.238395872149133
0.25713133860346776
0.20362557685120683
0.11295800858027025
0.13985735060311005
0.1308416713616681
0.11526610162918255
0.07020219418290936
-0.02887412502242288
0.014227903036601413
0.01850601799077568
-0.319930492869119
0.13924280600586925
-0.07792399784519712
0.07598767222507191
0.05560515889003144
0.11987117602703473
0.17118576515348463
0.1795961667974441
0.12380759303478535
-0.08057752451430752
0.11003419561926024
0.14511507894575051
0.07270207131950526
0.19201705271606181
-0.07317134881010766
-0.05040608432215253
0.12083640302011574
0.04613655392116937
-0.05172479075911579
0.014887236437454677
-0.08309803703441947
0.1043475398145456
0.0702037601032687
0.07286201827686864
0.09562241717281561
0.24744713116941255
0.10030623833135753
0.008403694479771316
-0.6182077950753575
-0.23062517480590664
0.11420893067907319
-0.6755349792716305
-0.6751322955609187
-0.5986303970325423
-0.7338020509476326
-0.17765543514850782
-0.2741999271254882
-0.483569685768511
-0.2719868809941192
-0.489353647375652
-0.0515647146688709
-1.6540951577935807
0.45328748972396
0.43989940328903826
0.4701955211259183
0.6735608040969446
0.12423227659881977
-0.5349282780318158
-0.4338634549864117
-0.08272479112471026
0.3233340810317829
0.4348625748891289
0.053304611215268034
-0.22017083689797604
-0.2918948648274883
-0.5621987467118703
-0.3652250029421281
-0.1235423676747628
0.3327323433396753
0.22294318788944142
0.05286701076097251
0.029951636792749613
-0.37184682991800544
-0.47388657837899895
-0.2711152116301697
-0.1854012625575429
-0.2396137324238789
-0.25653548122917325
-0.3446293660837394
-0.700722768044426
-0.38435967744400495
-0.31241927003326275
-0.26065008217877267
-0.2197506387624906
-0.08047437519776963
-0.38376061403083717
-0.4138484977488681
-0.2958804816274512
-0.2734892984568145
-0.2533362733255348
-0.4875562229583614
-0.2812642649728179
-0.21365309706739805
-0.5982289058690906
-0.5512115809221069
-0.39193572231187196
-0.44972614034279174
-0.46234171699891924
-0.2721634027938136
-0.3660204661523792
-0.20385992517473206
-0.18679534459259065
-0.2636718571198148
-0.27971150566330766
-0.6417597025533218
-0.45295707350361275
-0.501212011493562
-0.3208491265638937
-0.8060507134623581
-0.4571298209441514
-0.6718215693690109
-0.6896159626409235
-0.4772014547733768
-0.2089626185054153
-0.37183583310580093
-0.5917018596597602
-0.47988863461484166
-0.7449939587518163
0.16443288471855283
0.14955604933757607
0.07992442885301917
-0.09949232014300183
-0.19630241299486567
-0.006964661118424943
-0.3853778571084433
-0.14167527133624566
0.07681913543708305
0.06425025510922813
-0.06934167665587662
0.03894134973192943
0.0563497504236869
-0.043519135068203194
-0.14754607352760782
0.20809064128095983
-0.08136127777168395
0.0977796220258827
0.0893193168563698
0.00478658547990747
0.013389951345922739
-0.22279240644952392
0.07705141444932842
-0.1891272207472096
-0.08200524138411171
0.04931700698951785
0.014210961518998606
0.040415537136013834
-0.0541390363093463
-0.03650583448482987
0.038144088605077876
0.12167869901790611
0.09867646749899794
0.0723409085629843
-0.24327510877331898
-0.08874405106094603
0.10320620393512904
-0.058208667315433
-0.07971207655290616
-0.15458662997665984
0.18133275017428052
-0.29447570620491154
-0.379486605005544
-0.051102256524913035
0.1496819578595633
0.07558187823912664
0.1147168499690825
-0.013548401580936328
0.14974326783203626
0.01274822517589848
0.09741644166320432
0.14576586122274776
0.11947593979062206
0.10504423323755847
-0.3368531621514885
-0.023337566770643758
-0.012612785961578393
0.08566428205966799
0.05809562891009734
-0.30289419522440464
0.028686852258825907
-0.33429732929931555
-0.004008319435398261
0.019424624570553217
-0.053890219166983035
-0.09227897843905775
-0.19044257473661128
0.08463482120967933
-0.04304012354397911
0.053653478938001944
0.05575772997748487
0.02773726410782845
0.05286102242762142
0.06916985591664242
0.07492438656284277
0.09179844629895914
0.11909586879449803
0.06890363056334396
0.12238062620054535
0.07717489068790079
0.04529267604836305
0.07888480871398579
-0.0013940684488917172
-0.07901380746005034
-0.11943688964296979
-0.14838212157667088
-0.04916282979312821
-0.027696920894690065
-0.00013805661954939194
0.06605205176265397
0.03226338693892158
0.021358592976910538
-0.03126947332754519
-0.1732128520456708
-0.10038358856434138
-0.07159069580261149
0.10825036815779372
-0.07834091051825444
0.004870254207399239
0.04966963205725246
-0.0498882220702798
-0.3140778723962762
-0.24294659565280402
-0.19988691513919435
0.03941451095162338
0.050549385275470746
-0.2157355726221118
0.00257414320538434
-0.36374531968924634
0.06733291550444376
0.05360633126419599
0.0231301783559517
0.06521707385877462
-0.013520027148846047
-0.022726334494526348
0.008175697416882666
0.07720698147458821
0.07128091457234849
0.06075136540215743
0.07695375200113659
0.09417968808995716
0.15045647792814523
0.1026173553885356
-0.453187714583029
0.010740980614782576
0.009460384826943696
-0.2183737354995714
0.15699394807478137
0.12394005391856612
-0.05316422344195952
0.09386213805194502
-0.15859369803205145
0.038941580535481746
0.220859493918176
0.11346083405984138
0.1715908441384755
0.11478537918548845
0.12892047903339643
0.10044298395986924
0.11403964617304904
-0.30033058373655946
0.01527323419634906
-0.044927025381893755
0.039413953002923795
-0.0270747740841816
0.015349727072594965
-0.037258498795627815
0.006897446805781716
-0.1430494715991369
-0.03075286720509125
0.025366919206997136
-0.018133448460557634
-0.12938966990964665
-0.020615870681508684
0.00215736653163069
-0.24985876384226532
-0.12166118064495485
-0.20898477081231923
0.01638629435269174
-0.30097731488167895
0.016324025527541055
-0.12063986403708442
0.042303775429780546
-0.009788362418489705
0.02489793505949521
0.038104148831672416
0.006364146580738715
-0.027165186491714784
0.1303698033629097
0.14882746934290852
-3.341377501531271e-05
0.02118180866459056
0.05867469419938145
0.042530574299769586
-0.16522818084767502
0.0001816249690379018
0.0003720699482124331
-0.26689220194325186
-0.06527410583607406
-0.07673886165039162
0.006683146672454992
0.10355177095295849
0.0076818806748689345
-0.5464383995747082
0.01862130575036613
0.07491961629918976
0.05886317393125663
0.05416905801728959
-0.37695415734694115
-0.13839429018965946
-0.19190041081755652
-0.043321964764287284
0.010337758010783639
0.0019868489695710275
0.027650414222283565
0.0048513988085652215
-0.007608384137262964
0.02338725170295283
-0.11547539669938126
0.05694254444028231
-0.07100311746638445
-0.30652443786035716
-0.032015240247610655
-0.17002041384954664
-0.009219838658204308
-0.008298816977223782
-0.0075398064444097326
0.02878130692336473
0.027631663074030824
0.006198516436630802
0.09187348630796117
0.06164864997247701
-0.11903595884999925
-0.03999251843111974
0.04007982546455843
-0.06999218798846987
0.03761423723125928
-0.022638475050884267
0.11736707860589618
0.06009415252497785
-0.04105831888762209
0.09435144413737497
0.013356342210881294
0.12280102409369967
-0.1476794154205352
-0.07620813051259294
-0.08553333048427196
0.01376009536210549
0.1749100215377093
0.1050348439840412
0.056851944664433975
0.06468872414736501
0.08508309002721662
-0.017571184674611894
0.04495894394357249
0.010296442589951776
-0.014889057478499359
0.03284725235086114
0.020249696153237448
0.07013382162903148
0.0780735893825437
0.09313533023720212
-0.09717889399605939
0.04339925323532336
-0.06159787152189271
-0.1171082854628337
0.08858965974091347
0.044469090220820386
0.046029110308405424
0.1175454174463171
-0.012441726343717645
0.0984054195789202
0.11635307507088391
0.07753593335578265
-0.1516378508119789
0.1823244793191175
0.1401229977759785
-0.31711039354873777
0.06301920921265308
0.12381382872308186
0.10535443757025219
0.2113887870254835
0.10396724383335923
0.08630445145355047
0.0338636206906728
0.02469426678788711
0.02865144352136368
0.09293459438272224
0.13050980589950417
0.11593970486660249
0.04245667639629249
0.11596524538122079
0.018079183757990717
0.03794087077150923
0.068927314704143
-0.16145574591650633
0.01707155036283603
0.05942253774910517
0.0733478051140466
-0.2613987684662552
0.20864879403629683
-0.05189815983018806
0.10512327878938732
0.07116479041121067
0.03675421340980649
0.08652983647807351
-0.028724205562826
-0.18697854959382787
-0.032961990753175414
0.03735449042607373
0.03426080683685394
0.0029314447491282495
0.09584171280378641
0.06799879507011568
0.059539198853680274
-0.20458529157034835
0.07951363380059315
0.11182176050995775
-0.1159479542919391
0.07281437744428536
0.0784654018467558
0.06897890655078179
0.0923730870396636
0.09989843326851106
0.07155693542172471
0.09527624008372004
-0.044098311875424845
0.016973874196497374
-0.30824564939399485
0.11217694931936184
-0.01992210743809618
-0.14217925569191078
0.07196488915289502
-0.03529441390221171
-0.147774367487438
0.14464025737964198
0.3380621281583417
0.24317809629767712
-0.11113549814575252
-0.04528867198096087
0.06990146435401848
-0.042176428151663635
-0.04524650122836905
-0.07887014760494482
0.09736046132244365
0.049724256795099044
0.07314821650347922
0.09404929450647855
0.18552253590021145
0.08653305818635523
0.058679086504738055
0.0861552236002494
-0.0568358785101077
0.13590886979770686
0.1508413767277954
0.062043419461439646
0.011067870729782638
0.12147732279691045
-0.09414621507274185
0.06441435250227552
0.019469623236798315
-0.14894026743777805
-0.07350114229453404
0.14424665868784067
0.13328860227976502
0.0046913248631181076
-0.06291687482117253
0.12134089179711174
-0.05614085139066153
0.033548403792554755
-0.15690373136900954
-0.12281773342804644
0.03271864631682819
0.02221211470653826
0.19967313867358027
0.06374605642677751
0.028015030048156104
0.006222939406335669
0.03495216957862307
0.05642154768696151
0.06659560256988327
0.08997237002898995
0.07332221454196197
0.088726149198652
0.06377901735620899
0.08509978289305732
0.07618325893268729
0.095028198687214
0.15273903363994304
0.1479385239746742
0.11386946746024054
0.06335384737566879
-0.08306973637439218
0.2867791282049178
0.23685097269257613
0.052781121231623256
0.18592432484236673
0.08948374408993319
0.2710450629347641
-0.4044019620331391
0.18880431089518354
-0.2844027544208411
0.08532555872628575
0.1899703950998993
-0.13555263435236556
-0.01909078110143476
-0.0458353067775206
-0.20442544804791404
0.0688623571136748
0.3075762739946336
0.04460676655108079
0.19603728510671153
0.12420708537826536
-0.1489581885405159
0.5873899712961316
0.037326261347466055
0.09246128596203645
-0.1977356924449861
0.01105716145449104
0.12066220902742178
0.2456046726600485
-0.12389579442186624
0.06740297638258642
0.07733769526565241
0.14426873149783398
-0.03626646779038762
0.046789005852855774
0.08498380758048116
0.03629989076390074
0.047348185455402245
0.13602416924180144
-0.1929471519581517
0.2793800547408436
-0.21851671865035832
-0.25838677166493534
-0.012011915609869554
-0.05345086916612521
-0.16640881559757734
0.1264394856945798
0.09484481753896032
0.006716122285943717
0.056504973725268415
0.09699951651481471
0.056946007783717965
0.04060092953778426
0.0361070896130893
0.0954823659019353
0.276098656226138
0.03976258582752274
-0.14211833033017426
-0.18758356243376473
-0.1566174118816362
-0.04181630584449115
0.04576151473211144
0.1392078549222896
0.1368568426289982
0.09863135872842797
0.09931620152179495
0.01741673987735522
0.01813370414485473
0.010890951602436102
0.030259890275810334
0.018324278864534013
-0.010869093050509081
0.0553532722389835
0.06501970861805609
0.002062233530533334
0.07988126939903616
0.1522103031715227
0.046391215978384595
0.06560497765857025
0.06608098882312645
0.053428453777903485
0.04355673359933907
0.03506935103575636
-0.005132247792655708
0.039495594054586435
0.023452422018542838
0.06048266621223703
0.12005376363144733
0.04226551061289995
0.02621636218365942
0.021077527592576393
0.02053748871391555
0.11934978899977992
0.09497974328385099
0.04768259592575827
0.0826992127341117
0.08550449318844233
-0.006773620139919808
0.03868148476283277
-0.009341920237971563
0.007657737193561884
0.052726878596425275
0.008014784641766711
0.055304312293266114
0.06861949173540083
0.0061750840832945925
-0.01268816315119791
-0.056616915302714385
0.07824322864184768
0.022392914655714944
0.044277491315008057
-0.11354940045885373
-0.19396179956257362
0.03707729196561581
0.021672616464282764
0.09611454413166015
-0.0688598135576243
-0.06357053693998718
-0.06871689006622667
-0.0035106671310360413
-0.2429491699994203
0.09010757205752111
-0.0562072897776064
-0.040582955590341335
0.08886554424354412
0.06524017765333948
0.03854679285982689
0.15749144617617242
0.03563397251643289
-0.015107106730174274
-0.14200089191115856
-0.063564630266463
-0.04721916499146715
-0.040235694489176375
-0.34565069176161967
-0.016823179837159773
0.06528981429527876
0.08386540631183174
-0.14706450388671177
0.037797934839911465
0.09462192025262589
0.10708808760589274
0.03461520415577419
0.21510967535785594
-0.11480139923739872
-0.07392183167590026
-0.3637132669418424
-0.0034697756277892516
0.05356996016094129
0.040799889390774335
0.07380834136507913
0.001931051730394593
-0.15093974416048386
0.08019033706080034
0.09754752389221473
0.012583443425189534
-0.013060305051174345
-0.05254288838124465
-0.3215672768987227
-0.01536561058881441
0.03550512459825393
0.01204227528624269
0.04586824941092262
0.001264114241633862
-0.11185432214550903
0.02594646802081061
0.15733592219270662
0.15217939755037377
0.02513325049617827
0.08461163963342042
0.10012351391618045
0.0347318945716029
-0.05646515517403652
-0.00023362348675993777
-0.12895487428794117
0.07793903174327795
0.0055957688159095275
0.04821973122977106
0.06089493811744217
0.04401986238288825
-0.1315561825666189
0.06440969664522848
-0.0067402980407165105
-0.1513964922980147
0.10523169428146602
0.0824785987823121
0.029556090928096215
-0.22317089123540612
-0.07975939338297693
-0.11451974202488321
-0.18054799126806975
0.32227161132260046
-0.17829786714966414
0.10589460331274975
0.0754690864108712
0.09239805989904079
0.09747817237124433
0.09266507298240435
0.10714829542120004
0.057750874670283774
-0.03052324400801504
0.01607271961560494
0.13294585789030292
-0.04424287078412008
0.016403574054298938
0.028972142118872196
0.0019165862267207998
0.033242987229178206
-0.0012427549584533518
0.04348478186777323
-0.534230935417743
-0.09159076392557232
0.06782762690820363
-0.04795401994221594
0.06413376419168788
-0.28073130342622826
0.07466264299188652
0.04185118185549564
0.020730160916002494
0.029131178496425478
0.03186070837212868
0.060416818513462894
0.11276958384477243
0.07046463287811036
0.00737358997720861
0.02419878386336093
0.04698054431602042
0.08340830946513376
-0.11409549267597129
0.16964738689912134
0.07140114841058956
0.06130935982876885
0.09279342519133923
-0.13498806891465442
-0.10858013657637466
-0.040470978860912436
-0.10818104698716859
0.06521985364266074
0.0776879184440338
0.16377466427377654
0.17223975870099148
-0.1886688226385648
0.14765390239342782
-0.01578600583095763
-0.043593487651152375
-0.06606345326787577
-0.021043884024012412
-0.15256243385503257
0.048409230799135186
-0.03309604055372457
0.009490973584739083
0.13857144620523978
-0.07938505952394843
0.3094327807089195
0.08561355706524162
-0.06985440559895333
0.02919968540140195
0.07385595459176002
0.07793179647874976
0.011724534771747137
0.026619120677866627
0.011292913458092496
-0.016667660491781932
0.04195347851811961
0.06566072010883037
0.0077147487413229635
0.050088861218656786
-0.023708414423913547
-0.07388036420290513
-0.15291467685377375
-0.014735233405427432
-0.0702986934389771
-0.14673171280970942
0.00908940360100783
-0.11361616205550407
-0.03385147937372361
0.15187079254745686
0.014624770838481961
0.07914554368889025
0.12030332896217331
0.06487038769555907
-0.268720003059066
-0.06378427713620974
-0.06615074595663555
0.04942706878782937
0.05047895280118272
-0.07747699392681395
0.04024239892229556
0.19336550312175324
-0.08917476352457136
-0.30376239757828166
0.052063638315530444
0.08297959352678769
-0.07596958860374824
-0.01281768521546889
0.016462475450499666
-0.013175974833268038
0.01875411689518337
0.09096682827540775
0.08718735995557163
0.04607505213989065
0.010131946576008957
0.07533879590101333
0.06872502201360345
0.04274187621703029
0.03587332141312259
0.09139367704046189
0.056046202876334286
-0.07058086900182158
-0.04833131155934695
0.033783171757039474
-0.03549225820047556
0.0016879410852755784
-0.05245412391663024
0.07420762988865598
-0.13007736518069898
0.05395964758751686
0.05007206763369512
0.06977666321899935
-0.19935896691318106
-0.24079424078177397
-0.014223441700853618
0.03736603511167761
0.040776009760174745
-0.2941923221294452
-0.029916688222144338
0.043232081568305915
0.13130839551149037
0.29564264974331306
0.04714608164808111
0.0020414248257604514
-0.18783041834451294
0.05528459891391724
0.053376108575642164
0.05985085353578186
0.06512027579300224
0.10164028955467473
-0.11280724182567753
0.07040473122244044
0.0408502253389532
0.046454661923948114
0.016849651674724717
0.014959406231420008
-0.3517209548749359
-0.08242533438753998
0.09045744176014625
0.06351937547425143
0.004503083483800706
0.0340126124218768
-0.13759272185097285
-0.04503938727003601
0.12059305402685291
0.1384159792383053
0.34880015200077447
-0.06204846000896953
0.07015125657343438
0.0500845305843028
0.01950983434885315
0.06363249123287124
-0.10038338006469466
-1.4060641631785686
-0.046199604365151484
0.04755025109083582
0.10635890450762037
0.09382506429782714
0.07155641174602437
0.10354244523868508
0.17374870737719617
0.007678079825798028
0.014135153431723871
0.1170654209455531
0.04387576455729342
-0.1949796947893399
-0.09420468965075202
-0.1456067157821047
0.0014171776885041898
-0.22759764155660855
-0.013147074766783975
0.06239438895465676
0.11413081764482225
0.013616866597491476
0.0021246035058117754
-0.15163758341206146
-0.06669795828309096
0.05855494221569099
0.0775323190625218
-0.1767196618513282
0.020158557119667735
-0.302471477328708
-0.010555020303697187
-0.08592456714892473
0.08191185402934739
0.0713736741427647
0.08261012656014903
0.04356577910788176
0.06422622789722465
-0.11351235454938881
0.05476087399374122
0.03720815700480779
-0.10292851918990871
-0.26083270452471113
-0.2191956151485783
0.10587509639838531
0.11025417607366803
-0.0532384680664513
0.05233821716935047
0.20181417015842093
0.06603431282592337
0.0377039163015747
-0.08324923538921411
0.0051201268370378115
0.05627161602358368
0.10535068365320652
-0.007893311985661688
0.0695380697454169
0.01749967905130956
-0.08666741088540014
-0.18722448135043218
-0.2586409629926745
0.009829641496568373
-0.34372452048449603
0.0040424659345108
-0.12564795328843958
0.14901928996697095
-0.05034945524485751
0.02023036265138014
0.07016846585782809
-0.006254510164058922
-0.022626989642098944
-0.22091811542767853
0.03937445224138788
-0.14041425855658973
0.07945937288883802
-0.11461481965853607
0.03724676845296168
-0.15190038327308522
0.046733012269619637
0.05221535579110175
-0.08886727710248984
-0.07770234947434637
-0.045959745612149806
0.09101590336834911
0.02947477758818931
0.0120165962843135
0.01383286620209707
0.27088886783332
0.0264370655162974
-0.04782937495246788
0.2501879266933461
0.19696966482636763
-0.12263329440958674
0.01585210523011453
0.029978916228251468
-0.0015196241747089771
0.10575323435474612
-0.004725422884300664
-0.17713617746277474
0.06243880547136388
-0.03156681690334726
0.01565633425523974
-0.023034979416522744
0.15455021453566353
0.06380619346843043
0.0054830315344220155
-0.006249974211540213
-0.003191071272690838
0.10664430905097363
-0.11543120349195372
0.14980967505330878
-0.258671404194179
0.020139476114233244
0.0832019563611184
0.08527893728578183
0.10564794615883387
0.03542653570019783
0.03113489347494069
0.02186892879684543
0.11219260430417993
-0.46687512709895057
0.126143822915637
0.16149145930196815
0.10041001528455801
0.13754218665528378
0.03463106907780437
0.026072906298760492
-0.04933735777280734
